<?xml version="1.0"?>
<opencv_storage>
<opencv_ml_svm>
  <format>3</format>
  <svmType>C_SVC</svmType>
  <kernel>
    <type>LINEAR</type></kernel>
  <C>1.</C>
  <term_criteria><iterations>1000</iterations></term_criteria>
  <var_count>4032</var_count>
  <class_count>2</class_count>
  <class_labels type_id="opencv-matrix">
    <rows>2</rows>
    <cols>1</cols>
    <dt>i</dt>
    <data>
      0 1</data></class_labels>
  <sv_total>1</sv_total>
  <support_vectors>
    <_>
      2.62760987e-05 2.92319987e-06 -9.04439185e-06 -3.85405201e-06
      -4.94460573e-06 -3.57826661e-06 -9.21935407e-06 -2.28355225e-06
      -6.34463368e-06 -3.63713389e-06 3.67087068e-07 -5.81477650e-07
      -3.53555242e-06 2.09359072e-08 5.16915679e-06 2.73646947e-06
      2.65696281e-06 4.20017977e-06 6.57081955e-06 3.52866800e-06
      5.36440257e-06 1.02474905e-05 1.18799917e-05 2.44257240e-06
      -1.83554516e-06 3.18691377e-06 7.60118246e-06 1.27487692e-05
      1.51680915e-05 1.93285432e-05 1.03181928e-05 7.26669077e-06
      1.58239836e-05 2.48438519e-05 2.92665227e-05 2.38992343e-05
      2.25493768e-05 1.66990230e-05 8.96303573e-06 2.23074926e-06
      -9.34923747e-08 6.22243715e-06 7.63404114e-06 7.85175143e-06
      1.12796315e-05 1.00425787e-05 -2.44408216e-06 -2.70666351e-06
      -7.40985342e-06 -9.67086908e-06 -6.05261630e-06 -7.72016756e-06
      -9.58587771e-06 -9.03365344e-06 1.67943244e-06 1.18995249e-05
      1.40794718e-05 2.04803582e-05 2.45299216e-05 2.64798546e-05
      2.17036250e-05 1.62496290e-05 1.81314226e-05 1.93090673e-05
      1.90091432e-05 1.49963425e-05 1.91353283e-05 2.10297421e-05
      3.80718047e-05 3.64679254e-05 2.82799938e-05 2.29845082e-05
      1.63228469e-05 1.47173778e-05 1.19068163e-05 8.95460926e-06
      1.02223148e-05 8.40763732e-06 1.13970946e-05 4.86936597e-06
      9.25161294e-06 1.66958762e-05 1.68368824e-05 1.18451644e-05
      1.54124991e-05 1.65663987e-05 1.87772548e-05 1.99898732e-05
      2.96022463e-05 3.64745247e-05 3.75222298e-05 3.64605112e-05
      3.61272541e-05 3.43591491e-05 2.58448672e-05 2.06797376e-05
      1.96291694e-05 3.05347749e-05 3.26295885e-05 3.77303913e-05
      4.31176741e-05 4.04076563e-05 3.89670095e-05 4.30247310e-05
      5.12867555e-05 5.71098790e-05 6.06573121e-05 6.33063246e-05
      6.00389503e-05 5.35588770e-05 6.11150754e-05 6.52308881e-05
      6.33579330e-05 5.56078667e-05 4.90771054e-05 5.12260049e-05
      4.64389122e-05 4.73719228e-05 4.22588600e-05 4.56879861e-05
      5.05895841e-05 5.09583442e-05 5.02152434e-05 4.53840548e-05
      4.54264227e-05 4.82527939e-05 4.78484981e-05 4.93933876e-05
      4.44562756e-05 3.67574612e-05 3.41173582e-05 3.85492676e-05
      3.87070795e-05 4.23876991e-05 4.14982132e-05 3.94545350e-05
      3.68580731e-05 2.32648708e-05 8.87264741e-06 6.27139570e-06
      1.41194905e-05 2.13278581e-05 3.56453274e-05 7.28640371e-05
      3.89952766e-05 7.68839709e-06 1.29975911e-06 3.31632054e-06
      8.43966245e-06 2.13301973e-06 -5.51143194e-06 -9.89472937e-06
      -1.10794927e-05 -1.26314690e-05 -9.51709899e-06 -1.21387120e-05
      -1.34118636e-05 -1.17043091e-05 -1.39918575e-05 -1.42432073e-05
      -1.36723238e-05 -9.33808860e-06 -9.09030859e-06 -1.49245561e-05
      -1.34552838e-05 -3.01046816e-06 -4.37648532e-06 -3.92214633e-06
      -4.73368459e-07 -2.62085064e-06 1.71453917e-06 2.55800887e-06
      -7.15523447e-06 -2.97004931e-06 -3.42650623e-07 -2.23511643e-06
      -8.70046733e-07 9.42806309e-06 1.72379914e-05 8.66697974e-06
      5.34061746e-06 6.27560848e-06 5.36208063e-06 -2.19715412e-06
      -2.75773164e-06 3.75711664e-07 -3.64214702e-06 -3.25113183e-06
      -8.22792572e-06 -1.92715390e-07 3.99032933e-06 4.94768028e-06
      3.15773377e-06 -3.74648778e-07 -3.95432062e-06 -6.58505451e-06
      -1.09619223e-05 -1.47185174e-05 -8.13377483e-06 -3.95365623e-06
      6.68197299e-06 1.24711542e-05 1.31649540e-05 1.38727000e-05
      1.32571104e-05 7.35389267e-06 5.15305692e-06 5.30842271e-06
      1.01721116e-05 9.42910719e-06 9.80415189e-06 1.22758529e-05
      1.27145167e-05 1.32319801e-05 1.52692646e-05 5.86665556e-06
      -8.26553151e-06 -1.33107442e-05 -1.67873259e-05 -1.89167167e-05
      -2.06713848e-05 -2.13360800e-05 -2.88765514e-05 -3.37436068e-05
      -3.66280074e-05 -3.13518540e-05 -2.63079346e-05 -2.61441255e-05
      -2.44866642e-05 -2.81028479e-05 -2.58058990e-05 -1.91095514e-05
      -1.00593397e-05 9.66553102e-07 -1.63979394e-06 -1.58974717e-06
      -5.97179906e-06 -1.11683039e-05 -2.12265440e-05 -2.67601354e-05
      -2.18123278e-05 -1.00154457e-05 -1.24842136e-05 -9.16042791e-06
      -8.26234043e-07 -9.76439310e-07 -1.08243712e-05 -2.14857810e-05
      -1.62331708e-05 -5.99357281e-06 -3.38300538e-06 -2.22054109e-06
      -5.80660026e-06 -1.11413938e-05 -1.36162234e-05 -1.22287829e-05
      -7.77211517e-06 -1.40739476e-05 -1.44817141e-05 -8.98075723e-06
      -1.10152641e-05 -2.08068286e-06 2.95969767e-06 -1.64864673e-06
      -2.98978193e-06 -1.29573500e-05 -1.78065038e-05 -2.04976932e-05
      -1.85546996e-05 -1.18325615e-05 -5.48701519e-06 -6.76472564e-06
      -1.46607172e-05 -1.63107379e-05 -1.18469470e-05 -1.81238156e-05
      -1.81027317e-05 -1.14998429e-05 3.24658049e-06 9.85899624e-06
      4.00549970e-06 -1.54538975e-05 -2.64179544e-05 -2.81607299e-05
      -1.70822823e-05 -1.35027531e-05 -2.43602744e-06 4.78021029e-05
      2.92347395e-05 -1.31253478e-06 -6.66968981e-06 -4.79363052e-06
      -1.17293866e-05 -3.20504005e-05 -2.90481930e-05 -2.31428185e-05
      -1.58704170e-05 -1.18031039e-05 -4.07574362e-06 -6.89845820e-06
      -1.12411562e-05 -8.36341496e-06 -7.25040900e-06 -5.58238708e-06
      -1.08321192e-05 -4.78200172e-06 3.99396595e-06 7.11588939e-07
      -1.26742896e-06 -6.04514207e-06 -4.41847351e-06 -2.83271930e-07
      -4.80781500e-06 -6.35224524e-06 -6.27567033e-06 -1.19381712e-05
      -1.50372143e-05 -2.89631384e-06 3.52257734e-06 1.04770515e-05
      9.97984444e-06 6.85288887e-06 -1.04158585e-06 2.64686696e-06
      5.05681601e-06 1.02683962e-05 9.79554352e-06 2.14939723e-06
      -7.49199626e-06 -6.01074044e-06 -6.91466130e-06 -3.89330353e-06
      2.80856125e-06 5.51762969e-06 9.43740304e-08 3.97348413e-06
      7.80901064e-06 4.15848399e-06 7.26849566e-06 5.24650477e-06
      -2.64629966e-06 1.54598951e-07 4.34079857e-06 5.61426486e-06
      6.05778632e-06 1.93132255e-05 1.98002635e-05 1.95281427e-05
      2.34722502e-05 1.65313231e-05 1.63177865e-05 1.12696180e-05
      8.33636113e-06 7.55859764e-06 1.19660417e-05 1.37925208e-05
      1.32920677e-05 1.48267518e-05 7.95999495e-06 5.84076679e-06
      -7.65908226e-06 -1.10681740e-05 -9.95862320e-06 -7.65393997e-06
      -1.83287902e-05 -2.37660279e-05 -1.96077453e-05 -2.43233026e-05
      -2.40649188e-05 -2.65532144e-05 -3.12672128e-05 -3.02210228e-05
      -3.02640910e-05 -1.98146918e-05 -1.51188397e-05 -1.03295242e-05
      1.40008751e-06 6.86805924e-06 3.48129288e-06 2.93767448e-06
      9.07185131e-06 1.43635971e-05 1.83369539e-05 1.44720734e-05
      2.37879067e-06 4.34701815e-06 7.81869130e-06 7.11658868e-06
      3.88115313e-06 -3.18652610e-06 -2.86439604e-06 -1.66245773e-05
      -8.10468191e-06 8.79749950e-06 1.08099212e-05 3.22751293e-06
      -1.37214658e-06 -1.92412085e-06 -6.53954112e-06 -6.93087486e-06
      -1.14189525e-05 -2.00658324e-05 -1.84138498e-05 -6.07495076e-06
      -1.70651629e-06 -5.77858464e-06 -1.61264561e-05 -1.66829177e-05
      -1.27558405e-05 -2.10341204e-05 -3.19413884e-05 -2.84475045e-05
      -2.09411501e-05 -1.28040301e-05 -1.53875208e-05 -1.05131949e-05
      -2.43377167e-06 1.47978909e-07 -5.34637275e-06 -1.55390553e-05
      -1.81524174e-05 -2.73775076e-05 -2.63380334e-05 -1.61874523e-05
      -5.55502356e-06 -1.38856622e-05 -3.43072279e-05 -3.24609828e-05
      -2.83300124e-05 -2.91137476e-05 -2.01859802e-05 1.94846289e-05
      3.87271066e-05 6.16380066e-06 -2.80087647e-06 1.05000008e-05
      1.54090267e-05 2.83557114e-07 -1.51043696e-05 -1.68173119e-05
      -5.04435411e-06 -9.68118457e-07 -1.11904711e-07 -7.23456787e-06
      -1.06683692e-05 -1.04090459e-05 -8.96385427e-06 -1.74883439e-06
      4.03155536e-06 4.74024182e-06 1.09447510e-05 1.25363922e-05
      3.00606234e-06 -2.52240397e-06 -1.13604292e-05 -1.06272482e-05
      -1.31215884e-05 -2.84858725e-05 -2.17343822e-05 -1.95726843e-05
      -1.35667970e-05 -2.85354622e-06 7.13136558e-07 5.66414428e-06
      -7.96414133e-06 -1.26696159e-05 -1.87514179e-05 -8.79009531e-06
      4.96462292e-07 1.29844727e-06 2.55780037e-06 7.45261701e-08
      -2.76359424e-06 -7.97142820e-06 -1.29206601e-05 -7.43574310e-06
      -4.21812410e-06 -4.76874629e-06 -8.40673601e-06 -1.33168578e-05
      -7.44886665e-06 -8.79458980e-07 -2.27831720e-06 -2.07185371e-06
      -1.72481832e-05 -1.69984705e-05 -1.22810934e-05 -4.23601614e-06
      -3.65177641e-07 4.76206696e-06 4.13721364e-06 -3.54283975e-06
      5.05449998e-06 5.94327366e-06 5.29008594e-06 8.99292172e-06
      1.12068146e-05 8.05803211e-06 4.86074805e-06 8.70690474e-06
      7.71597843e-06 2.12059763e-06 -2.82882843e-06 2.92118489e-06
      8.46994723e-08 -1.01981232e-05 -1.37709158e-05 -2.51298807e-05
      -2.76176925e-05 -2.48231736e-05 -2.91383967e-05 -3.53548312e-05
      -2.51496313e-05 -1.88325121e-05 -2.15926812e-05 -3.16478618e-05
      -4.38989118e-05 -3.28854221e-05 -2.11820116e-05 -1.81740361e-05
      -8.99919269e-06 -9.35628123e-06 -1.51033555e-05 -4.07379730e-06
      1.18058842e-05 9.31543946e-06 -1.41999806e-06 8.00127737e-07
      4.97801739e-06 -2.07709559e-06 -1.18276639e-05 -1.88746344e-05
      -2.07494941e-05 -2.83307854e-05 -1.29750015e-05 -1.39068470e-05
      -1.09010662e-05 -2.36294045e-06 -2.77060531e-06 -1.11420895e-05
      -1.86490888e-05 -1.69453633e-05 -1.44788037e-05 -1.60248601e-05
      -1.81574742e-05 -9.99868826e-06 4.57607894e-06 5.54516919e-06
      1.54627160e-05 1.85400440e-05 1.12702583e-06 -1.29376867e-05
      -1.71582433e-05 -1.71882384e-05 -1.93725955e-05 -2.23153293e-05
      -2.19710018e-05 -2.20473430e-05 -1.39416561e-05 -6.65879179e-06
      3.26346458e-06 4.66743495e-06 -5.14127987e-06 -1.83872671e-05
      -1.26609812e-05 -1.68734778e-06 -3.38260520e-06 -1.36892722e-05
      -1.15075436e-05 -6.22913876e-06 -1.93046399e-05 -2.05080414e-05
      -1.06734842e-05 1.93021765e-06 -3.85686235e-06 1.97433474e-05
      3.35353434e-05 7.01011095e-06 1.39306258e-05 1.64606645e-05
      1.28454622e-05 2.34348727e-06 -1.75007881e-05 -1.60058153e-05
      1.05909919e-06 -8.36762638e-07 -5.65369965e-06 -1.19380948e-05
      -1.63443219e-05 -6.64480058e-06 1.37813458e-05 2.47340395e-05
      3.09180577e-05 3.14440040e-05 2.08765759e-05 1.87035530e-05
      1.83389384e-05 1.46813327e-05 4.20637036e-07 -5.73781449e-07
      -1.14849299e-05 -2.15113541e-05 -2.28084500e-05 -2.68561416e-05
      -1.75190653e-05 -1.06184089e-05 -6.77869684e-06 -1.86690374e-06
      -4.35828088e-06 -3.68961082e-06 -9.58449505e-07 3.52741699e-06
      1.19515471e-05 3.60476361e-06 7.48113507e-06 8.21806861e-06
      7.37067876e-06 2.16049875e-06 4.32954857e-06 3.68354085e-06
      2.84153771e-06 2.82043447e-06 1.50292215e-06 -5.70247585e-06
      -3.31942215e-06 -2.65007907e-06 -5.96930988e-07 4.59947114e-06
      -7.36983156e-06 -1.97803911e-05 -1.64760640e-05 -7.01423915e-06
      -7.52903020e-07 -7.09076949e-06 -1.37522202e-05 -1.04278479e-05
      -1.31688535e-06 -1.08784582e-06 -1.49072889e-06 3.85583235e-06
      6.73751128e-06 -4.54563178e-06 -1.71796401e-05 -1.41607024e-05
      -1.58766052e-05 -1.81614305e-05 -2.20595593e-05 -1.63342320e-05
      -2.36711239e-05 -3.35036457e-05 -4.15235518e-05 -3.58133075e-05
      -2.80692711e-05 -1.56878377e-05 -1.01361702e-05 -1.80235311e-05
      -1.90392002e-05 -1.70472213e-05 -2.30169389e-05 -3.86822649e-05
      -3.86722240e-05 -3.59454134e-05 -2.86779214e-05 -1.67564394e-05
      -1.77529600e-05 -1.92891566e-05 -1.83757329e-05 -2.74423172e-07
      6.86370731e-06 3.45290482e-06 -1.38886498e-05 -1.28922638e-05
      -5.42582984e-06 -1.03101311e-05 -1.04161427e-05 -1.08760278e-05
      -1.00772013e-05 -1.31958177e-05 -8.32655587e-06 -6.93456832e-06
      2.46491311e-07 -2.92878212e-06 6.13390966e-06 4.29461898e-06
      -4.60010460e-06 -5.65995333e-06 1.25098632e-06 2.53304711e-06
      2.65072208e-06 -9.70206383e-06 -9.39707479e-06 -1.22834672e-05
      6.24119423e-07 1.24389780e-05 9.67269170e-06 -8.78256105e-06
      -1.08925069e-05 -4.72285410e-06 5.88532248e-06 3.72707632e-06
      7.40200085e-06 9.18465503e-06 1.09402545e-05 -6.11061023e-06
      -1.08179274e-05 -1.85729368e-05 -2.44729363e-05 -2.77448726e-05
      -2.61911155e-05 -2.90359567e-05 -2.19398808e-05 -9.65226627e-06
      -1.83288739e-05 -1.26750974e-05 -2.27517430e-05 -2.18237110e-05
      -6.98662780e-06 -1.43797279e-05 3.43852298e-06 3.15232137e-05
      2.30507376e-05 -4.88865624e-07 2.83950249e-06 2.16211697e-06
      -3.31723390e-06 -1.18842026e-05 -3.09852185e-05 -2.08991678e-05
      -2.09605787e-05 -1.90178944e-05 -2.31092472e-05 -1.92455391e-05
      -1.48143072e-05 1.18573652e-07 9.72229645e-06 1.58252133e-05
      2.04219887e-05 1.58148760e-05 1.70751973e-05 3.03752204e-05
      3.81102072e-05 2.44704042e-05 7.27279166e-06 7.16207205e-06
      -5.15251440e-06 -1.87065652e-05 -2.24215073e-05 -2.91708348e-05
      -2.55235209e-05 -8.01476745e-06 7.04548665e-06 2.00524701e-05
      2.67163068e-05 2.73269234e-05 1.80874285e-05 2.03906638e-05
      6.91356581e-06 -2.57416764e-06 -3.33690127e-06 -7.71210216e-06
      -4.25040298e-06 1.10466647e-06 2.54878591e-06 2.58512159e-06
      2.84309272e-06 3.71107149e-07 -6.79128379e-06 2.57456782e-06
      7.70454881e-06 5.63542471e-07 9.59901718e-06 3.45023705e-06
      -8.95806409e-07 -8.26162341e-06 -4.55673489e-06 -6.81795427e-06
      -1.11596819e-05 -1.56626975e-05 -1.61038206e-05 -1.10069732e-05
      6.46354522e-07 8.84495421e-07 -1.17206878e-06 1.78653136e-06
      9.22690015e-06 2.42769352e-06 -1.06016068e-05 -1.52364419e-05
      -1.33014737e-05 -7.85093380e-06 1.36110361e-06 -1.58841867e-05
      -2.23843981e-05 -1.81969717e-05 -6.96798952e-06 4.08355754e-06
      1.03077064e-05 2.11714923e-05 2.44759376e-05 5.12071392e-06
      -1.08566455e-05 -9.02869579e-06 -1.05184699e-05 -1.02444137e-05
      -7.73931242e-06 -8.53331585e-06 -1.81104806e-05 -1.88978502e-05
      -1.83270058e-05 -2.52803547e-05 -7.67460824e-06 1.53003875e-05
      2.80966724e-05 1.43499237e-05 -6.69557085e-06 -1.68186561e-05
      -1.88326612e-05 -2.12121122e-05 -1.74425477e-05 -9.22620529e-06
      -2.09859900e-05 -1.58784951e-05 -9.26422672e-06 2.94386473e-06
      1.45365029e-05 2.35041825e-05 2.72562593e-05 3.51859162e-05
      4.16450566e-05 5.31887017e-05 4.10078464e-05 3.28082060e-05
      2.53011513e-05 -5.69541157e-07 5.65970413e-06 -1.20964489e-06
      4.01654825e-06 9.71806367e-06 8.88877821e-06 1.22719812e-05
      1.91981962e-05 4.92730214e-05 5.86693204e-05 5.59636355e-05
      6.55620315e-05 6.14372475e-05 5.49018005e-05 3.50627124e-05
      9.33097999e-06 -1.29294249e-05 -2.17975139e-05 -3.58296420e-05
      -2.18862333e-05 -3.09206298e-05 -2.58180244e-05 -1.35968767e-05
      -2.10216713e-05 -1.72911041e-05 -1.55849648e-05 -1.58942858e-05
      -1.17242635e-05 -5.04192303e-06 1.65570364e-05 3.49660259e-05
      1.12937960e-05 -8.00572798e-06 -1.03713228e-05 -5.54962253e-06
      -9.11186726e-06 -1.85268073e-05 -2.72590914e-05 -2.69152933e-05
      -1.45681388e-05 -9.68416680e-06 -1.15543653e-05 -1.21307730e-05
      -1.32540345e-06 1.17716729e-06 -2.89665763e-06 -1.65169990e-06
      1.54380484e-06 1.80842089e-05 3.80084639e-05 5.15340325e-05
      4.40435942e-05 1.83196462e-05 4.30069713e-06 1.63828718e-05
      1.60836626e-05 -1.73840181e-05 -2.02855572e-05 -2.09131795e-05
      -1.60425025e-05 1.24899680e-05 4.32319721e-05 6.01310312e-05
      5.11915568e-05 4.34072899e-05 3.92283000e-05 5.22009104e-05
      4.59692492e-05 3.77266915e-05 1.73730896e-05 -3.43374472e-06
      2.94529991e-06 3.07008986e-06 -1.66544778e-05 3.08171298e-06
      1.73410081e-05 4.21080767e-05 4.62958924e-05 4.27259438e-05
      3.29562317e-05 3.40300903e-05 3.52612333e-05 2.68988460e-05
      2.30976348e-05 2.67741616e-05 2.09281261e-05 6.98677195e-06
      -1.20037921e-05 -1.95864923e-05 -1.65097972e-05 -1.35139289e-05
      -1.70259977e-06 3.47533478e-06 3.12690213e-06 1.16394540e-06
      -9.58593500e-06 -1.85992649e-05 -2.93908943e-05 -2.85001952e-05
      -1.09393377e-05 -1.61537409e-05 -1.81840496e-05 -1.76827361e-05
      1.15146368e-05 2.03136242e-05 4.41707489e-05 4.91203464e-05
      5.83404617e-05 6.26511392e-05 5.34622268e-05 2.29586658e-05
      -1.51088727e-06 -1.57458599e-05 -2.06821314e-05 -9.09603114e-06
      -2.39545843e-05 -3.07052687e-05 -2.90883618e-05 -5.67316783e-06
      2.88489514e-06 3.82822436e-05 6.73743198e-05 7.42744378e-05
      7.98668698e-05 6.92802423e-05 4.85312630e-05 3.37168931e-05
      1.06902489e-05 -6.56217344e-06 -2.50790126e-05 -3.66554268e-05
      -2.20018283e-05 6.67272661e-06 1.89549573e-05 3.22153101e-05
      4.25492181e-05 5.27507582e-05 4.28963795e-05 3.59978621e-05
      3.99951423e-05 4.78842703e-05 3.98708908e-05 3.22792112e-05
      1.44973246e-05 -1.84718556e-05 -1.45936474e-05 -2.47455810e-05
      -1.87444057e-05 -5.86476972e-06 -1.41787241e-05 -1.65875663e-05
      -1.13642554e-05 1.42927338e-05 1.37926181e-05 3.07654882e-05
      3.29262984e-05 4.81871648e-05 3.69921509e-05 3.72673130e-05
      1.81378709e-05 -5.01147088e-06 -1.14613440e-05 -2.16702538e-05
      -1.34680658e-05 -1.21197572e-05 -1.22953079e-05 -7.50994604e-06
      -1.20021841e-05 -1.68367860e-05 -2.50477387e-05 -3.28985407e-05
      -2.99225940e-05 -2.45650917e-05 3.43502984e-06 3.25937035e-05
      8.47990759e-06 -1.40466991e-05 -1.27456287e-05 -2.89834247e-06
      -3.70040880e-07 -1.30909339e-05 -2.30713140e-05 -2.26081975e-05
      -1.03457105e-05 -5.34593573e-06 -3.94610879e-06 -5.75134391e-06
      -4.78325455e-06 -4.08072083e-06 -3.60291438e-06 -1.01701989e-05
      -4.34343519e-06 2.89217878e-05 4.83274089e-05 4.29882821e-05
      2.00555878e-05 -2.73071646e-06 -5.29470435e-06 -4.07997231e-06
      -3.25083261e-06 -2.08023685e-05 -2.20705297e-05 -2.60715551e-05
      -1.18208281e-05 1.47555857e-05 3.68944711e-05 3.30424227e-05
      1.52305611e-05 -6.77957587e-07 -2.75832144e-06 2.29485559e-05
      3.45402768e-05 3.21753396e-05 2.30521673e-05 -1.36925628e-05
      -1.66815353e-05 -1.78111895e-05 -3.63101935e-05 -2.45097872e-05
      1.87979049e-06 4.19060234e-05 3.33219687e-05 3.04380574e-05
      3.39838334e-05 5.38183267e-05 5.40646324e-05 5.11683211e-05
      3.19307255e-05 2.30513415e-05 1.62626184e-05 1.43426478e-05
      -1.12874322e-05 -2.92542409e-05 -2.57602060e-05 -1.28763922e-05
      -6.26510700e-06 -3.75949162e-06 -8.97837708e-06 -1.22099591e-05
      -1.33013800e-05 -2.55721006e-05 -3.92981347e-05 -4.06369181e-05
      -3.02573499e-05 -3.20282415e-05 -2.86303784e-05 2.95208679e-06
      1.96925885e-05 1.80490770e-05 2.93416906e-05 2.86112299e-05
      5.05226708e-05 7.22299665e-05 6.94548435e-05 2.67648884e-05
      -4.88314618e-06 -3.47213900e-05 -3.40322695e-05 -1.43020707e-05
      -2.90880926e-05 -3.19372775e-05 -2.15566979e-05 7.87082354e-06
      3.32698291e-05 7.40450341e-05 8.33778977e-05 8.88203358e-05
      7.55614965e-05 7.50336112e-05 4.23329875e-05 2.12317736e-05
      4.47222374e-06 -2.45244955e-05 -3.65221749e-05 -1.70432904e-05
      -4.49838035e-06 9.53689869e-06 1.97189474e-05 3.68392248e-05
      3.98153279e-05 4.77859357e-05 3.41128507e-05 2.98485847e-05
      2.74682807e-05 3.23763306e-05 4.40064468e-05 3.79529993e-05
      7.12871815e-06 -2.04961434e-05 -7.27693850e-06 3.49377757e-07
      -3.84289751e-06 -5.31657543e-06 -1.27674348e-05 1.46249386e-05
      9.54030475e-06 1.67353153e-06 1.77423158e-06 4.11047804e-05
      3.36038829e-05 4.19974567e-05 3.96692449e-05 5.11380567e-05
      2.94285983e-05 -1.03355160e-05 -3.01270138e-05 -3.19084975e-05
      -2.82071178e-05 -2.32733582e-05 -1.70452331e-05 -1.14296363e-05
      -1.78780192e-05 -1.97530662e-05 -2.93105822e-05 -3.68712717e-05
      -3.16772384e-05 -1.95418725e-05 5.27477960e-06 3.64360021e-05
      1.48699301e-05 -1.85231274e-05 -1.79669496e-05 -7.90508147e-06
      -1.69169161e-05 -2.49759651e-05 -3.76054923e-05 -2.72585185e-05
      -1.22933807e-05 -6.42093573e-06 -7.35255207e-06 -8.60858654e-06
      -9.94871971e-06 1.53081396e-06 1.71501833e-05 1.91786457e-05
      3.31892625e-05 6.99462107e-05 7.83486030e-05 6.58594872e-05
      4.57691131e-05 2.24030482e-05 3.80584697e-06 -1.86257494e-05
      -1.44738524e-05 -3.73694565e-05 -3.64157822e-05 -2.31784288e-05
      -4.75419938e-06 1.14536015e-05 1.64933645e-05 -6.39710663e-07
      1.44172316e-06 1.01233863e-05 7.77615151e-06 5.48341177e-06
      2.25985946e-06 5.62696596e-06 6.36727054e-06 -3.94129820e-05
      -5.03200536e-05 -4.98446389e-05 -4.31860644e-05 -2.87430848e-05
      -7.91546609e-06 -1.31047909e-06 -2.82037627e-06 1.59492356e-05
      4.10760949e-05 3.05827634e-05 2.40526188e-05 2.68030908e-05
      2.80517652e-05 3.29662216e-05 9.34644231e-06 4.60160709e-06
      -1.59486317e-05 -2.50478115e-05 -2.49899622e-05 -1.68954466e-05
      -9.15331566e-06 -1.36269273e-05 -2.04346725e-05 -2.50515677e-05
      -2.23634379e-05 -2.91278848e-05 -3.77817523e-05 -4.63036486e-05
      -5.19449059e-05 -5.01849499e-05 -4.15141185e-05 5.48036087e-06
      1.97185614e-06 -5.81604627e-06 -3.71485953e-06 6.57143437e-06
      2.84793568e-05 6.75409101e-05 7.27680381e-05 4.81728493e-05
      -1.14404804e-06 -2.56305466e-05 -2.76142164e-05 -3.00384472e-05
      -5.15532629e-05 -4.84457159e-05 -2.25785152e-05 2.24618270e-05
      5.09277379e-05 7.82735005e-05 6.33243544e-05 5.52016900e-05
      1.51234526e-05 1.01863170e-05 -3.79940843e-07 7.27090628e-06
      1.23063110e-05 -2.56592248e-05 -1.27416770e-05 -1.43113084e-05
      2.76391916e-06 8.96750498e-06 1.15793946e-05 1.94462882e-05
      2.10986218e-05 3.18010498e-05 1.66865011e-05 2.65354920e-05
      7.53401991e-06 5.76898401e-06 2.55457107e-05 2.00167979e-05
      8.43436680e-07 -1.17650552e-05 -8.80215111e-07 -5.22777555e-06
      -1.81215855e-05 -2.41658090e-05 1.31918944e-06 3.72001523e-05
      2.45250449e-05 1.11691461e-05 -1.46073344e-05 1.12114267e-05
      2.80782861e-05 2.21211485e-05 1.15396306e-05 3.78085460e-05
      3.87201544e-05 -1.01648175e-05 -2.38134762e-05 -3.98461088e-05
      -3.46301167e-05 -3.39387298e-05 -3.20680738e-05 -2.79316264e-05
      -2.67261767e-05 -1.90998890e-05 -2.00284303e-05 -2.52623158e-05
      -1.79363924e-05 -7.81063409e-06 1.80511488e-05 4.70321174e-05
      1.36193521e-05 -2.03763902e-05 -2.28330900e-05 -1.99972401e-05
      -2.45604915e-05 -2.58425061e-05 -4.01642210e-05 -3.03522411e-05
      -2.23549687e-05 -1.23438695e-05 -6.93837683e-06 -6.51917480e-06
      -1.19195174e-05 -1.24595972e-05 -7.35592550e-07 7.65155346e-06
      4.41937809e-05 8.44281458e-05 1.09743829e-04 9.64291030e-05
      7.48440070e-05 4.92258987e-05 1.69091436e-05 -7.94344396e-06
      -1.19790730e-05 -3.75062118e-05 -4.03091435e-05 -3.83915904e-05
      -3.27487646e-06 1.71288066e-05 8.99688712e-06 -5.24451434e-06
      8.41226301e-06 9.39760321e-06 1.24245544e-05 -5.92729634e-07
      8.93249035e-06 1.63437198e-05 2.09755399e-05 -6.27523059e-06
      -2.84232028e-05 -3.04392815e-05 -6.91598234e-06 1.05075815e-05
      1.63807454e-05 -6.20266701e-06 5.00829083e-06 2.39304536e-05
      3.40483966e-05 4.60742740e-06 3.97628901e-06 1.27591411e-05
      3.32276359e-05 4.56564267e-05 2.97819897e-05 7.56829877e-06
      -1.12558419e-05 -2.14678548e-05 -2.18763143e-05 -1.42778517e-05
      -1.10297469e-05 -1.50092519e-05 -2.58719665e-05 -2.56136918e-05
      -2.57286192e-05 -3.12055345e-05 -3.76234857e-05 -4.39178766e-05
      -5.64233269e-05 -5.39378307e-05 -2.55157520e-05 1.14949462e-05
      -4.95061931e-06 -5.52404526e-06 -1.36298431e-05 -1.09902358e-05
      -2.50432786e-05 -4.11608698e-06 6.87041393e-07 1.12275557e-05
      1.83293087e-05 -5.92602646e-06 -2.36716278e-06 -2.86402264e-05
      -3.97746771e-05 -2.67942069e-05 -4.52834684e-06 4.66936435e-05
      3.96825744e-05 3.26926674e-05 9.57838256e-06 1.16897481e-05
      -1.33571211e-05 -2.32380426e-05 -2.64608734e-05 -1.68896913e-05
      1.34545735e-05 -1.11933241e-05 1.52055854e-05 -1.02790982e-05
      -1.71364027e-05 -7.35616686e-06 2.80965196e-06 1.28937218e-05
      6.02098680e-06 -3.40952170e-06 8.33831382e-06 3.27415146e-05
      8.35808532e-06 7.57830867e-06 2.17940360e-05 1.90484770e-05
      3.41897476e-06 9.75198509e-06 5.48329297e-07 -1.30207327e-05
      -3.45686094e-05 -3.12164048e-05 3.42818817e-06 2.52374939e-05
      3.53666619e-05 9.41522103e-06 -5.22529319e-07 -6.23442759e-07
      2.42740116e-05 8.58192379e-06 1.12267776e-06 2.51630736e-05
      3.73633593e-05 -9.05921388e-06 -2.44822095e-05 -4.68514445e-05
      -4.50650768e-05 -4.65092126e-05 -4.17397860e-05 -3.84455452e-05
      -2.88844640e-05 -2.25326257e-05 -1.86154721e-05 -1.96380806e-05
      -1.56179085e-05 -2.53903090e-06 1.57783234e-05 4.32892921e-05
      7.50960407e-06 -3.59788100e-05 -4.00197750e-05 -3.05864014e-05
      -2.38194116e-05 -1.76752364e-05 -2.99532530e-05 -2.92201003e-05
      -2.39895689e-05 -1.40258953e-05 -5.93194272e-06 -1.04600404e-05
      -1.83427546e-05 -2.30257738e-05 -1.92063253e-05 5.41796999e-06
      4.92427462e-05 5.48241915e-05 8.04048104e-05 7.04695631e-05
      5.90453747e-05 4.24950922e-05 8.84413475e-06 4.02872320e-06
      4.02851765e-06 -3.47696696e-05 -4.46588565e-05 -3.96962387e-05
      6.92399169e-07 3.24064931e-05 3.05849680e-05 2.14759748e-05
      2.39189176e-05 2.29933412e-05 2.67519736e-05 3.54750250e-06
      1.08463573e-05 3.00310130e-05 3.28314090e-05 3.04510991e-06
      -1.67759008e-05 -1.98172402e-05 2.35240805e-05 3.20117542e-05
      4.90108250e-05 2.11321512e-05 3.99923592e-05 4.20489523e-05
      1.64384692e-05 -7.56098530e-07 6.94035634e-06 2.47072221e-05
      4.47306011e-05 4.91284991e-05 2.97274128e-05 1.41508790e-05
      -1.26388813e-05 -2.24013002e-05 -1.41662495e-05 -1.02739559e-05
      -1.83701923e-05 -3.02720873e-05 -3.75420495e-05 -3.12510456e-05
      -2.27308337e-05 -3.57240060e-05 -3.37102283e-05 -3.62577121e-05
      -5.03367010e-05 -5.03411575e-05 -2.20894417e-05 1.77087459e-05
      1.23160964e-06 -9.10288873e-06 -2.21203827e-05 -2.71887329e-05
      -3.61308776e-05 -2.27751534e-05 6.88311786e-07 1.02460153e-05
      1.96762776e-05 1.78870159e-05 2.29668112e-05 -1.84583005e-05
      -2.32773600e-05 -8.60234559e-06 1.43820544e-05 4.43149002e-05
      3.56101882e-05 1.79498802e-05 9.31189697e-06 1.53079582e-05
      1.01794330e-05 6.32553292e-06 -6.09470590e-06 -1.65534311e-05
      8.06644857e-06 7.79743630e-07 1.69582090e-05 -1.23735372e-05
      -3.25434958e-05 -1.91973304e-05 8.02519025e-06 2.03417367e-05
      3.69617624e-06 1.99406668e-06 1.20985542e-05 2.80616368e-05
      1.04990377e-05 1.93849755e-05 3.13966120e-05 3.19141836e-05
      1.25444312e-05 1.29111986e-05 6.97185897e-06 -2.01010971e-05
      -4.14815804e-05 -3.25527326e-05 9.08472975e-06 3.56032688e-05
      2.87422918e-05 2.67774249e-05 1.35801602e-05 6.18179911e-06
      1.17634418e-05 1.72422460e-05 1.37434408e-05 3.03523557e-05
      3.66092499e-05 -1.76993472e-05 -3.65781780e-05 -5.55873521e-05
      -5.42038179e-05 -5.78341933e-05 -4.46914164e-05 -3.22154519e-05
      -3.03798661e-05 -2.71225017e-05 -3.16159276e-05 -2.84535035e-05
      -1.93551368e-05 -9.73990063e-06 1.27745243e-05 4.56722883e-05
      -3.63143545e-06 -4.44189027e-05 -4.20210927e-05 -3.89467968e-05
      -1.30117796e-05 -1.70696094e-05 -1.63838758e-05 -9.64085666e-06
      -1.68918032e-05 -1.35199316e-05 -1.36492781e-05 -1.61067874e-05
      -1.96063302e-05 -1.40610928e-05 -8.72788860e-06 2.72893139e-05
      5.34648025e-05 2.51391411e-05 3.77732977e-05 2.53461949e-05
      4.12347217e-05 2.93522644e-05 8.98286362e-06 1.41953042e-05
      5.87981867e-06 -3.28665155e-05 -4.71566818e-05 -4.11780275e-05
      5.10828932e-06 3.34911347e-05 3.69833142e-05 2.57129959e-05
      3.06387446e-05 3.62613100e-05 2.74604517e-05 8.84885685e-06
      7.41849226e-06 2.29618490e-05 2.72147408e-05 -6.79250343e-06
      -2.09822283e-05 -1.83871398e-05 2.80777622e-05 4.99438393e-05
      6.86929561e-05 6.31688818e-05 6.75712145e-05 4.85915916e-05
      8.95518588e-06 6.87857437e-06 2.77993295e-05 5.55245861e-05
      8.22868169e-05 7.32004628e-05 5.91239441e-05 4.48684186e-05
      7.85730208e-06 -1.18425760e-05 -8.47297815e-06 -3.44206728e-06
      -1.26865671e-05 -1.68423558e-05 -2.32071034e-05 -2.25325948e-05
      -2.41226298e-05 -2.75609418e-05 -2.34012132e-05 -2.43891900e-05
      -3.57389254e-05 -4.05198916e-05 -2.40003610e-05 2.41053840e-05
      3.22983469e-05 1.82489275e-05 -1.85896261e-05 -1.53787259e-05
      -2.14275296e-05 -5.82489747e-06 1.91346044e-05 1.47124074e-05
      2.07897210e-05 3.03974321e-05 3.41471350e-05 -1.59023093e-05
      -3.10651812e-05 -2.12445320e-05 -1.16065223e-06 9.59926001e-06
      5.83948213e-06 -1.23193004e-05 4.78734762e-07 5.19118385e-06
      1.64029746e-06 -7.12017663e-06 -1.80634033e-05 -6.43859039e-06
      1.74107645e-05 -1.27966787e-05 -1.05845834e-06 -7.63208300e-06
      -2.96021335e-05 -2.21116934e-05 -1.31634106e-05 -6.52153676e-06
      -1.72919390e-05 1.96460060e-05 2.76333994e-05 2.89898217e-05
      2.06778113e-05 3.69567933e-05 5.82878238e-05 5.56220184e-05
      1.58570438e-05 -1.17047443e-06 -4.94923052e-06 -2.64154460e-05
      -3.18076636e-05 -1.59299616e-05 -4.56707448e-06 2.08597648e-05
      1.21415305e-05 6.57920509e-06 -9.91008073e-06 -1.85070548e-05
      -5.33075217e-06 1.11337476e-05 1.92027310e-05 3.74228002e-05
      3.32876625e-05 -2.10818362e-05 -3.56595010e-05 -4.87753678e-05
      -5.01847389e-05 -5.11339022e-05 -4.23624406e-05 -2.80406657e-05
      -2.22945582e-05 -2.01641651e-05 -2.64743685e-05 -2.27334276e-05
      -1.25990136e-05 -8.18475655e-06 2.08830461e-05 5.13106388e-05
      1.10890496e-05 -2.85876813e-05 -2.82099463e-05 -2.55344366e-05
      -3.19894752e-05 -1.12806129e-05 -1.17595318e-05 -1.17744230e-05
      -5.98121096e-06 -1.29444461e-05 -1.74257784e-05 -2.59160661e-05
      -3.05235335e-05 -1.90797473e-05 -1.48510830e-08 3.24232387e-05
      4.74921035e-05 1.42621402e-05 2.08522997e-05 4.00838871e-06
      2.30854021e-05 7.52351207e-06 5.26620306e-06 1.92666630e-05
      1.07783017e-05 -3.29143113e-05 -4.81798561e-05 -3.24177345e-05
      1.01273918e-05 4.01776342e-05 3.82150465e-05 2.56961903e-05
      2.77667878e-05 3.03400211e-05 2.77517047e-05 7.94652169e-06
      1.54848876e-05 3.52130373e-05 3.93336704e-05 5.54249755e-06
      -1.95141401e-05 -2.72500165e-05 2.45877236e-05 3.71955393e-05
      5.38724707e-05 4.66097517e-05 5.89100127e-05 3.45998851e-05
      1.08453505e-05 1.46235398e-05 2.72580528e-05 4.65896919e-05
      7.41648837e-05 7.06410719e-05 6.04225097e-05 3.83102451e-05
      -4.30417913e-07 -1.89676375e-05 -4.97286101e-06 7.42757129e-06
      3.83036968e-06 -1.12397981e-06 -1.00472807e-05 -1.45551412e-05
      -1.92071766e-05 -1.53390683e-05 -1.57259510e-05 -2.30503992e-05
      -2.56742442e-05 -2.75435887e-05 -2.03766940e-05 3.38252357e-05
      5.88520670e-05 4.70671366e-05 4.02834303e-06 -1.06701873e-06
      -4.20823926e-06 2.21609680e-05 4.70122104e-05 2.28818153e-05
      2.23255774e-05 3.39016624e-05 3.21224907e-05 -1.32364321e-05
      -2.62265912e-05 -1.75087207e-05 1.56737553e-06 8.92858316e-06
      5.96127620e-07 -4.21926416e-06 3.55811267e-06 2.18433361e-05
      2.29078232e-05 2.05337419e-05 7.16385784e-06 -4.67395751e-07
      2.01216171e-05 -1.94674067e-05 2.56418571e-06 -6.31097373e-06
      -2.04401767e-05 -2.27728706e-05 -1.34853362e-05 -1.21895926e-06
      -5.80429196e-06 2.57505599e-05 1.43806883e-05 1.19624583e-05
      5.28281589e-06 2.55486575e-05 4.83240256e-05 4.66530655e-05
      2.26346237e-05 -8.49436219e-06 -1.66194859e-05 -3.13197888e-05
      -2.58027958e-05 -4.26628702e-07 1.47465207e-05 2.74190825e-05
      2.24969408e-05 1.16540723e-05 -7.48270486e-06 -1.32027490e-05
      -1.04349429e-05 1.37334182e-05 3.84471205e-05 5.15201173e-05
      4.54620749e-05 -1.05612189e-05 -3.49367765e-05 -4.79798618e-05
      -4.04317871e-05 -3.85508501e-05 -2.77037088e-05 -1.48132240e-05
      -9.94645961e-06 -1.22906431e-05 -1.39015319e-05 -1.89688199e-05
      -1.35504142e-05 -5.07010645e-06 1.63151526e-05 4.58497780e-05
      1.15472367e-05 -1.67994294e-05 -3.11401818e-05 -2.42382230e-05
      -2.13536186e-05 4.31258286e-06 -4.82757230e-07 -5.00510805e-06
      8.31138368e-06 6.65294283e-06 -1.15867824e-05 -3.54631848e-05
      -3.86723586e-05 -1.43932139e-05 -2.58331033e-06 2.63683087e-05
      2.57147130e-05 -2.87902822e-06 9.92102014e-06 8.42564896e-06
      -3.00452598e-06 -2.34606669e-05 -2.19852991e-05 1.86799514e-06
      2.68631447e-06 -4.19390744e-05 -5.27528064e-05 -3.76883836e-05
      -4.33474042e-06 7.87438603e-06 4.71579142e-06 -1.62344350e-05
      -9.79991796e-07 2.43577415e-05 2.92618606e-05 2.09296559e-05
      1.03284292e-05 1.13520082e-05 2.98441992e-05 1.41126957e-05
      -1.69722789e-05 -3.01140244e-05 1.79692688e-06 1.67616508e-05
      3.84766063e-05 1.52693174e-05 3.63124964e-05 2.21539249e-05
      1.16478013e-05 7.10959830e-06 5.34578885e-06 2.27148048e-05
      3.92479560e-05 5.29288773e-05 5.44945797e-05 2.02442625e-05
      -1.57247196e-05 -2.37372496e-05 -1.07255009e-05 8.95171797e-06
      7.22722734e-06 8.69030714e-07 -4.94870483e-06 -1.12054804e-05
      -1.76046342e-05 -3.02599005e-06 -6.76469517e-06 -1.81193373e-05
      -2.73283313e-05 -2.92760960e-05 -1.43893694e-05 2.67408450e-05
      5.39942375e-05 4.45672085e-05 1.62379492e-05 7.87040153e-06
      2.26837528e-05 4.44310972e-05 6.39515347e-05 3.14961580e-05
      3.13012315e-05 3.43665743e-05 3.01354758e-05 -2.37142049e-05
      -3.04635832e-05 -2.04412609e-05 7.89562819e-06 -7.71186308e-07
      -1.96307265e-05 -1.72180316e-05 -3.21972220e-06 1.50276719e-05
      2.48038596e-05 3.30956791e-05 2.60229081e-05 3.41246996e-05
      2.86940085e-05 -2.68199510e-05 -1.03303082e-05 -8.00985799e-06
      -7.09135429e-06 -2.01026523e-05 -2.60600391e-05 -8.06980097e-06
      8.04721458e-06 3.70584639e-05 1.57386894e-05 2.10820435e-05
      5.80817095e-06 2.79760461e-05 5.50579898e-05 5.05804383e-05
      2.94750753e-05 -1.19202650e-06 -6.14360124e-06 -3.61127677e-05
      -2.45447809e-05 -1.65199637e-07 2.14882566e-05 3.02472363e-05
      3.33448879e-05 2.10698981e-05 4.83780968e-06 4.76478635e-06
      1.72890577e-05 3.02705048e-05 6.08941955e-05 6.65023035e-05
      5.81054592e-05 -2.64978212e-06 -1.63025325e-05 -3.11587646e-05
      -2.04570279e-05 -1.58611474e-05 3.43072816e-06 1.15016492e-05
      2.65588113e-07 -1.08870463e-05 -1.85313838e-05 -1.46665770e-05
      -1.09358170e-05 6.76072477e-06 1.38372234e-05 4.29051688e-05
      7.94727839e-06 -1.44303040e-05 -2.31137692e-05 -3.00608535e-05
      -2.22270155e-05 -4.51701027e-07 -5.20043204e-06 -4.05016181e-06
      9.13203894e-06 1.06513608e-05 -9.06430978e-06 -1.94849217e-05
      -2.39149194e-05 -2.68629037e-06 -1.39507426e-06 9.96407471e-06
      6.33337913e-06 -6.64607342e-06 2.09775062e-05 3.29823488e-05
      7.68941027e-06 -1.33804760e-05 -1.23867158e-05 6.85044142e-06
      3.50656956e-06 -3.64291809e-05 -4.66695819e-05 -3.86410866e-05
      -9.79386823e-06 1.11664385e-05 5.22298342e-06 -2.35129410e-05
      -1.42841309e-05 2.24684827e-05 2.69357661e-05 7.63856769e-06
      -1.49903926e-05 -1.61336557e-05 1.79367180e-06 -9.22430843e-07
      -1.91341715e-05 -3.51032904e-05 -2.35170774e-05 -1.33156927e-05
      1.15862031e-05 -1.01743226e-05 1.20689601e-05 2.00186259e-05
      3.30305047e-05 5.04483160e-06 -1.80802510e-06 -7.85429279e-07
      2.07409721e-05 5.58097418e-05 6.29153583e-05 2.11376064e-05
      -1.40451630e-05 -2.00799095e-05 -1.53965757e-05 -6.89843546e-06
      -1.65997051e-06 -4.32721390e-06 -1.05212330e-05 -1.10975543e-05
      -9.95604751e-06 -5.33982256e-06 -1.13679553e-05 -2.83044628e-05
      -3.60314771e-05 -3.83164988e-05 -7.63154367e-06 2.86161012e-05
      4.78269321e-05 4.32757806e-05 -5.87869090e-06 -7.75726130e-06
      1.08408303e-05 3.63696672e-05 4.54553883e-05 2.38441735e-05
      3.44224718e-05 3.27970120e-05 2.08949659e-05 -2.33176725e-05
      -3.15641919e-05 -1.37620627e-05 6.85049145e-06 1.95505777e-06
      -2.27278269e-05 -3.11066578e-05 -2.11606584e-05 -6.35000288e-06
      4.73284814e-07 3.03086999e-05 3.40450351e-05 3.13008932e-05
      -5.03488627e-06 -2.72280613e-05 -1.96692054e-05 -1.05929382e-06
      -8.43279850e-06 -1.97213431e-05 -2.03237614e-05 7.56651025e-06
      2.88927040e-05 3.86962856e-05 1.82108142e-05 2.06029272e-05
      -7.46934620e-06 3.40543352e-06 2.75369694e-05 2.09543814e-05
      2.36212836e-05 -4.03594368e-06 -3.16644469e-06 -4.07004118e-05
      -2.41510497e-05 1.79364065e-06 2.35230182e-05 2.32422863e-05
      2.06391596e-05 1.71198990e-05 7.61976298e-06 1.42708950e-05
      1.93682336e-05 2.30084170e-05 4.51072774e-05 5.48726493e-05
      4.66805323e-05 -8.26016912e-06 -9.72164526e-06 -2.22006329e-05
      -1.43845564e-05 -1.52782868e-05 1.60259049e-06 1.51864369e-05
      1.51423446e-05 1.18699199e-05 1.14123786e-05 7.61987394e-06
      7.83701671e-06 4.30123828e-06 1.61870594e-05 4.40343974e-05
      6.49380627e-06 -2.31475497e-05 -1.84011951e-05 -1.88705199e-05
      -5.36018388e-06 -8.13156930e-06 -1.88706290e-05 -1.77235745e-06
      6.96645111e-06 8.66345908e-06 -1.10975009e-06 -9.14684733e-06
      -1.23262080e-05 2.00306895e-05 1.17693535e-05 1.27782750e-05
      2.18344962e-06 6.00694284e-06 3.47154310e-05 4.03481281e-05
      3.32244708e-05 1.59960309e-05 -7.25876134e-06 -1.37150555e-05
      -2.09392765e-05 -3.73328439e-05 -4.46422746e-05 -3.93429800e-05
      -1.58176827e-05 9.35216212e-06 2.85973726e-07 -2.76924293e-05
      -2.34752242e-05 1.26707600e-05 -3.48409708e-06 -3.18292005e-05
      -4.68541948e-05 -3.16451333e-05 -1.33915346e-05 -1.58236471e-05
      -1.85224362e-05 -3.35810109e-05 -2.42807528e-05 -1.59179854e-05
      2.43346803e-05 6.89123999e-06 1.26794630e-05 2.10764983e-06
      3.82546859e-05 3.44029249e-05 1.34466300e-05 6.96947245e-06
      2.68142758e-05 4.83839649e-05 6.34255412e-05 3.25119727e-05
      1.84701003e-05 -7.57276030e-06 -1.22652546e-05 -1.13394399e-05
      -9.21850460e-06 -1.51779304e-05 -1.66797436e-05 -7.17733019e-06
      -3.12972611e-06 -1.45248191e-06 -1.27395215e-05 -3.33999633e-05
      -4.53094544e-05 -4.40081640e-05 2.11588508e-06 4.75369779e-05
      5.21986512e-05 1.86105062e-05 -2.18642108e-05 -7.00171449e-06
      3.10434393e-06 1.26902469e-05 1.79616072e-05 2.10267008e-05
      4.17244264e-05 2.63699003e-05 6.63880382e-06 -3.09498646e-05
      -3.92955444e-05 -2.24999221e-05 -5.65509117e-06 -1.30775688e-05
      -3.57579265e-05 -4.04354832e-05 -2.22363215e-05 2.10025661e-07
      1.05609997e-05 3.79277226e-05 3.64047555e-05 1.09436041e-05
      -3.31655865e-05 -3.06722759e-05 -3.55402226e-05 -3.04305249e-05
      -2.11748302e-05 -2.84069829e-05 -1.29591317e-05 1.32444629e-05
      1.30497046e-05 1.53950998e-06 8.41887049e-06 6.97545556e-06
      -8.50876313e-06 -1.27013425e-06 1.70243275e-05 -2.94947540e-06
      7.58764281e-06 1.32043954e-06 -5.31216665e-06 -5.48354619e-05
      -5.23886192e-05 -1.86861871e-05 6.29107763e-06 1.25395718e-05
      1.60057371e-05 1.70050280e-05 1.87133219e-06 1.44784042e-06
      9.56205531e-06 1.92954158e-05 3.30788862e-05 4.57416245e-05
      3.61321254e-05 -7.39255938e-06 -1.49353518e-05 -2.05609595e-05
      -8.50817742e-06 -1.04496894e-05 -6.99747670e-06 6.55439999e-06
      1.54852441e-05 2.59827029e-05 1.31453480e-05 5.22591063e-06
      5.23940525e-06 7.34489913e-06 1.92540338e-05 4.39100695e-05
      -1.91703862e-06 -4.04434359e-05 -4.23000492e-05 -2.26374177e-05
      -1.10722849e-05 -2.26873344e-05 -2.11126699e-05 4.48643641e-06
      1.21912326e-05 9.40401878e-06 6.08332539e-06 1.21686060e-06
      -2.36725214e-06 2.60064498e-05 2.87668008e-05 3.53112555e-05
      1.43761245e-05 1.51408276e-05 4.02309452e-05 4.63228098e-05
      3.77814904e-05 1.60803356e-05 -1.45764370e-05 -1.60277705e-05
      -1.92533171e-05 -3.84306040e-05 -4.71962303e-05 -3.60734921e-05
      -2.02331958e-05 7.03128126e-06 -4.15616751e-06 -2.38977573e-05
      -2.33295959e-05 -5.31812304e-07 -1.57053582e-05 -3.85850180e-05
      -4.29087449e-05 -2.57175889e-05 -1.07004653e-05 -1.63144196e-05
      -2.08832116e-05 -3.29208087e-05 -1.77859220e-05 -5.68168889e-06
      3.15583457e-05 1.49137513e-05 8.44032820e-06 -1.40010216e-05
      2.23671341e-05 3.03518445e-05 2.77996896e-05 1.91128020e-05
      3.04015430e-05 4.69724400e-05 5.91973367e-05 2.83520349e-05
      2.10997405e-05 -2.36691199e-06 -1.05525696e-05 -1.38303440e-05
      -1.11963000e-05 -1.01539636e-05 -1.87270980e-05 -1.11020472e-05
      -4.04095999e-06 -5.55948691e-06 -2.29076995e-05 -4.88056394e-05
      -5.46491792e-05 -3.46983797e-05 6.66235474e-06 3.94719827e-05
      2.85493279e-05 -7.63511071e-06 -1.65373149e-05 -5.90617856e-06
      -1.04655157e-06 -9.91841443e-06 -5.15696092e-06 2.36394026e-05
      6.02569162e-05 5.91093594e-05 3.07401824e-05 -2.26513002e-05
      -3.47556052e-05 -3.08474591e-05 -2.64089831e-05 -2.37937311e-05
      -3.45890294e-05 -2.42791757e-05 -9.84681446e-06 2.04837784e-06
      1.49999887e-05 2.70142518e-05 2.40621212e-05 1.59623614e-05
      -2.01131006e-05 -2.98087471e-05 -3.01891541e-05 -3.23012137e-05
      -3.32758100e-05 -2.55115865e-05 -1.58004696e-05 -3.84689974e-06
      -9.24628785e-06 -1.65107303e-05 -1.32621180e-05 -1.01925380e-05
      -2.58229720e-05 -9.06453897e-06 6.30271552e-06 -1.32878531e-05
      7.26335429e-06 1.07520382e-05 -1.69218833e-06 -5.21757611e-05
      -4.14191418e-05 -1.44445003e-05 5.15169313e-06 1.73157769e-05
      2.86987961e-05 2.43602262e-05 3.76945036e-06 -6.69337805e-06
      6.09223798e-06 1.72092969e-05 3.25852197e-05 3.61359562e-05
      3.92851398e-05 -1.01595588e-05 -1.61282751e-05 -2.21123537e-05
      -1.09620896e-05 -7.37627488e-06 -8.11971950e-06 3.02927617e-07
      -7.00088151e-07 1.81708256e-05 1.20345294e-05 2.67485939e-06
      1.03713055e-05 1.65712190e-05 2.95773316e-05 5.07370969e-05
      5.72430599e-06 -2.14872089e-05 -2.28172521e-05 -1.84950513e-05
      -1.30286699e-05 -6.26759538e-06 -1.69908083e-06 4.68685357e-06
      1.52995799e-05 1.49544549e-05 6.76301397e-06 -1.20923971e-06
      1.92045627e-05 4.01430734e-05 5.95660676e-05 5.95680904e-05
      3.90915957e-05 3.16724727e-05 4.23084530e-05 5.17475055e-05
      6.86702188e-05 3.82645667e-05 -4.32364175e-07 -9.69925622e-06
      -2.39857081e-06 -3.94379786e-05 -3.76489515e-05 -2.69040193e-05
      -3.43387183e-06 1.00239286e-05 1.69789728e-05 -8.25394636e-06
      -1.26498335e-05 1.51947352e-05 8.12845610e-06 -1.67242870e-05
      -3.04054756e-05 -2.87546591e-05 5.80750020e-06 -7.27114457e-06
      -2.01119055e-05 -2.32016428e-05 -6.35125298e-06 -1.38527430e-05
      2.25154909e-05 -5.97343217e-07 -2.25388067e-05 -4.11157998e-05
      4.71523163e-06 1.53736200e-05 3.62939172e-05 2.77293111e-05
      -3.76451385e-06 2.30514306e-05 4.66277197e-05 1.73088774e-05
      -1.21078870e-06 -1.40919319e-05 -2.28638364e-05 -2.87716266e-05
      -3.00857646e-05 -2.84052712e-05 -3.14243152e-05 -2.21762621e-05
      -1.67079215e-05 -2.35075950e-05 -3.98828342e-05 -5.36718799e-05
      -5.42955822e-05 -2.90712196e-05 -5.21066750e-06 2.77139516e-05
      1.72087221e-05 2.85456426e-05 9.75424973e-06 1.30063772e-05
      6.10309007e-06 3.67740859e-06 3.83552697e-06 3.98073535e-05
      7.76190573e-05 7.85398006e-05 5.18123888e-05 -8.36105755e-06
      -2.49855784e-05 -2.10424914e-05 -1.88973318e-05 -2.25681797e-05
      -3.01029158e-05 -9.03091768e-06 6.55608392e-06 6.25531493e-06
      3.32786403e-05 1.32284158e-05 2.05582473e-05 4.09879885e-06
      -1.65190116e-07 -1.22947522e-05 -1.68272236e-05 -2.01120893e-05
      -2.01775438e-05 -1.48498805e-06 1.73279241e-05 -3.16297474e-07
      -7.52075175e-06 -1.16318097e-05 -1.40701886e-05 -1.49462612e-05
      -1.36990302e-05 7.60353532e-06 1.62987908e-05 3.11707936e-06
      3.29905633e-05 4.14683454e-05 1.78677710e-05 -3.42587991e-05
      -2.15750642e-05 5.60326725e-06 1.44418309e-05 1.49595289e-05
      2.28632598e-05 2.71115696e-05 1.60944837e-05 7.60937837e-06
      1.86037341e-05 2.32202674e-05 3.16032638e-05 3.77422257e-05
      4.74605513e-05 -3.87182718e-06 -1.19356955e-05 -1.94205240e-05
      -4.73116370e-06 -1.46804405e-05 -1.73842764e-05 -1.74026918e-05
      -1.83509364e-05 2.82142287e-06 4.21708546e-06 8.46291186e-06
      5.57422391e-06 1.67568251e-05 3.22065753e-05 4.64153927e-05
      1.03276489e-05 -1.22000947e-05 -8.41457313e-06 -9.18755359e-06
      -4.55746658e-06 -5.54969392e-06 -8.22073162e-06 -1.27132689e-05
      -1.36868607e-06 3.15593320e-06 -7.99140980e-06 -2.60506768e-05
      -1.86299246e-06 8.24883955e-06 3.49620896e-05 3.95831630e-05
      2.88826723e-05 1.74761008e-05 2.31575250e-05 4.17072333e-05
      5.47515119e-05 2.21318751e-05 9.40497011e-06 -1.03490174e-05
      -9.64505216e-06 -5.25434880e-05 -3.77624274e-05 -2.92518653e-05
      -1.41417092e-06 2.38196571e-05 4.12916779e-05 2.32915500e-05
      1.35018618e-05 2.93262019e-05 1.68545539e-05 3.57068438e-06
      -8.46667990e-06 -4.54727706e-06 2.17093329e-05 3.94049266e-06
      -7.03016030e-06 -9.45182910e-06 6.75886383e-07 -1.24346179e-05
      2.50407229e-05 7.36242055e-06 -3.80573556e-06 -1.06271646e-05
      1.82951371e-05 2.72299676e-05 4.34777648e-05 2.46797317e-05
      3.91663980e-06 2.14704869e-05 4.79232658e-05 1.76117865e-05
      2.38958660e-06 -9.57350039e-06 -2.59915178e-05 -2.63498314e-05
      -2.73490332e-05 -2.62400299e-05 -2.97415500e-05 -1.81991545e-05
      -1.19673678e-05 -2.47789176e-05 -2.82129804e-05 -4.13836424e-05
      -4.20235228e-05 -2.23742791e-05 -5.89961701e-06 1.46439033e-05
      1.59644187e-05 3.13796336e-05 -5.10110885e-06 -5.16631644e-06
      -1.22144238e-05 -4.36842220e-06 -6.03881233e-07 2.12229388e-05
      6.11371215e-05 6.60933656e-05 4.86945137e-05 -1.14048225e-05
      -2.45215524e-05 -1.90664414e-05 -4.77922276e-06 -1.47111195e-05
      -3.31594638e-05 -4.17014689e-06 2.20357651e-05 2.00301347e-05
      3.70239250e-05 1.63471923e-05 1.12084654e-05 3.55170710e-06
      1.26589930e-05 -6.74271678e-06 -1.44884598e-05 -3.45428234e-05
      -2.93310495e-05 -6.27266490e-06 1.05694871e-05 3.04129753e-05
      2.52882874e-05 2.50924950e-06 -1.01453979e-05 -3.14209842e-06
      -1.06179832e-05 1.54453937e-05 2.82741494e-05 1.32059195e-05
      3.93399387e-05 5.36831467e-05 2.62731028e-05 -3.05911999e-05
      -2.60272773e-05 4.83161386e-07 4.35524589e-06 1.72027212e-05
      1.80331335e-05 1.81709711e-05 1.03069897e-06 1.16955528e-06
      1.90767041e-05 2.26540924e-05 2.08544079e-05 2.79859196e-05
      2.30194582e-05 -1.60883446e-05 -1.96459932e-05 -2.43264640e-05
      -2.00524919e-05 -2.28930003e-05 -2.79450214e-05 -2.47052394e-05
      -2.36995438e-05 -1.20570649e-05 -4.82380301e-06 -3.50435948e-06
      -5.14167186e-06 -1.09416112e-06 1.94565637e-05 5.03643969e-05
      1.09557432e-05 -1.20756913e-05 -1.05220197e-05 -1.32253335e-05
      -1.84833480e-05 -1.53717465e-05 -1.85027875e-05 -3.04415626e-05
      -1.93755259e-05 -8.58470503e-06 -1.90220071e-05 -2.42239257e-05
      1.64178698e-06 6.36347295e-06 2.12378454e-05 1.09191924e-05
      2.57599513e-05 3.36862940e-05 4.32801280e-05 4.45423502e-05
      4.19756034e-05 2.29922298e-05 3.03556808e-05 2.91209744e-05
      2.64968203e-05 -2.51755937e-05 -2.85082660e-05 -2.42782389e-05
      -2.20347429e-05 1.40652519e-05 3.84680498e-05 5.18627130e-05
      5.00639944e-05 6.83394392e-05 4.29931861e-05 3.83595288e-05
      3.28123642e-05 3.51220842e-05 3.36099256e-05 2.04858243e-05
      1.53890396e-05 1.57928253e-06 1.08763779e-05 -1.27380754e-05
      1.87929709e-05 -4.98592544e-06 -4.09046038e-07 -1.46878383e-05
      1.24105372e-05 2.70982546e-05 4.69410770e-05 2.22495019e-05
      -3.32216871e-07 5.91081334e-06 2.85030183e-05 4.72603642e-06
      -4.19089474e-06 -1.32211226e-05 -1.73377975e-05 -1.90346000e-05
      -2.23732095e-05 -1.62115630e-05 -1.50147107e-05 -9.72343423e-06
      -1.33884423e-05 -2.17695433e-05 -3.15655598e-05 -3.90119712e-05
      -4.23797464e-05 -3.16115256e-05 -2.86108116e-05 5.13582154e-06
      3.13693236e-05 2.57821885e-05 -1.38367632e-05 -3.40781735e-05
      -3.90502864e-05 -1.74330726e-05 5.60240187e-06 2.37331678e-05
      4.76714886e-05 4.52897257e-05 2.83637237e-05 -5.05511298e-06
      -9.72268936e-06 -3.88307399e-06 1.10969959e-05 6.86891417e-06
      -1.62155247e-05 9.26955363e-06 2.10473445e-05 3.46366905e-05
      2.39178989e-05 1.07777951e-05 1.91375984e-05 6.40857843e-06
      5.98054726e-07 -2.12802861e-05 -2.53639901e-05 -3.11321346e-05
      -1.58738439e-05 -3.83908809e-06 7.13291047e-06 4.05339306e-05
      2.84064990e-05 1.39127615e-05 -4.71662730e-07 1.26746590e-05
      -4.08896454e-07 1.63310178e-05 3.94390227e-05 4.85696946e-05
      6.20550563e-05 5.03547271e-05 2.42609512e-05 -3.57009230e-05
      -3.13731725e-05 -9.25760378e-06 -4.51067905e-07 1.77661732e-05
      1.77710917e-05 5.34434803e-05 4.71639105e-05 4.01534235e-05
      4.54305591e-05 5.09522506e-05 3.69320442e-05 3.06296097e-05
      4.97430938e-06 -2.28794106e-05 -1.97269565e-05 -2.07222201e-05
      -2.15529799e-05 -2.74282083e-05 -2.79734850e-05 -1.96503606e-05
      -1.90686369e-05 -1.25835058e-05 -4.47556977e-06 -2.39307769e-06
      -2.69374226e-07 5.73732541e-06 3.13745295e-05 5.68509568e-05
      4.98715144e-06 -3.31188457e-05 -3.11235890e-05 -2.80283020e-05
      -2.61231271e-05 -2.23390762e-05 -2.22390045e-05 -3.02879780e-05
      -8.95987159e-06 2.11041493e-06 4.19930018e-07 -4.14388069e-06
      2.04996741e-05 4.16388830e-05 3.87325272e-05 2.19639765e-06
      5.38707991e-06 2.97571169e-05 4.78496877e-05 4.78335096e-05
      5.72564059e-05 4.29175052e-05 4.72008105e-05 3.41026280e-05
      2.52317714e-05 -2.02464234e-05 -2.62259291e-05 -3.12895645e-05
      -3.42789463e-05 -1.15801149e-05 2.07199573e-05 3.60615559e-05
      5.53768805e-05 9.07835056e-05 7.15357892e-05 7.57390662e-05
      5.27293450e-05 4.11779765e-05 2.69026950e-05 2.21452192e-05
      3.06806141e-05 1.77331622e-05 1.46379916e-05 -3.79571475e-07
      2.91701617e-05 4.04132152e-05 3.54835392e-05 3.28651222e-05
      5.41022055e-05 6.63074461e-05 8.88705181e-05 6.77830394e-05
      3.96062751e-05 2.82592082e-05 1.53106939e-05 -1.20138554e-06
      -1.64451740e-05 -2.39662259e-05 -2.60998731e-05 -2.01804614e-05
      -1.94104887e-05 -1.71456795e-05 -1.52064149e-05 -1.01637070e-05
      -1.79095750e-05 -2.01904277e-05 -2.72725956e-05 -3.36254598e-05
      -2.89060808e-05 -3.56573291e-05 -3.67864923e-05 1.34758493e-05
      3.77718170e-05 6.69539877e-05 1.73759527e-05 5.88292224e-08
      -3.16364531e-05 -2.12888663e-05 -2.68507347e-06 1.15989023e-05
      2.91410870e-05 1.62942415e-05 9.97811094e-06 -9.40231257e-06
      -1.38581872e-05 -1.44585083e-05 -4.28595513e-06 1.22927504e-05
      -3.08896642e-06 2.43893082e-05 3.58493126e-05 3.58061588e-05
      2.06229888e-05 2.62128724e-05 3.14424760e-05 2.40617901e-05
      8.50823744e-06 -1.25616061e-05 -1.82612785e-05 -2.70838373e-05
      -2.00029008e-05 -2.21717801e-05 -1.01446512e-05 1.31240649e-05
      7.55853421e-07 1.00486795e-05 1.44343421e-05 3.54422154e-05
      3.86938591e-05 4.85028395e-05 5.65057017e-05 6.17102050e-05
      4.28830208e-05 6.87569991e-06 5.06597598e-06 -2.77208001e-05
      -3.96619507e-05 -4.11471083e-05 -2.79013602e-05 -1.83037719e-05
      -7.97995381e-06 5.54885701e-05 7.41991535e-05 6.07302354e-05
      5.85408670e-05 5.11907128e-05 3.71282877e-05 1.24263697e-05
      -1.88121994e-05 -3.74092706e-05 -3.06455877e-05 -1.82711919e-05
      -1.89192233e-05 -3.49082729e-05 -3.55563825e-05 -2.41805028e-05
      -1.96339988e-05 -1.90795054e-05 -2.09150076e-05 -2.15100426e-05
      -1.15336443e-05 2.45009346e-06 2.07463763e-05 5.40073015e-05
      5.19180730e-06 -3.75867094e-05 -4.67096652e-05 -3.77734323e-05
      -2.81526627e-05 -2.59991793e-05 -2.97521074e-05 -3.60323575e-05
      -1.68845509e-05 -5.47228092e-06 -7.27439783e-06 -7.35793492e-06
      1.97857971e-05 3.23293680e-05 2.43506838e-05 -9.32906551e-06
      -1.94767654e-06 1.68445658e-05 2.87255280e-05 2.11552924e-05
      3.64836051e-05 1.25573706e-05 3.26045265e-05 3.03054512e-05
      2.25973763e-05 -2.37991935e-05 -2.75619786e-05 -2.46669551e-05
      -2.56184958e-05 -1.02435661e-05 1.06027819e-05 1.81468022e-05
      3.65174201e-05 8.19748529e-05 7.97835382e-05 7.36001457e-05
      3.65500127e-05 2.13958374e-05 5.17784338e-06 2.15519121e-05
      2.69993016e-05 8.04132014e-06 3.88154240e-06 5.39261782e-06
      3.14141544e-05 5.22642258e-05 5.75633567e-05 4.12690497e-05
      4.58263239e-05 5.26322256e-05 5.09130950e-05 3.64750267e-05
      4.32251436e-05 4.69187762e-05 2.66435309e-05 2.46145873e-06
      -8.09118865e-06 -3.41558443e-05 -3.25406327e-05 -2.16731169e-05
      -1.78213013e-05 -2.19242083e-05 -9.11733696e-06 -6.94784194e-06
      -1.62783945e-05 -1.81525411e-05 -2.68340646e-05 -2.97331935e-05
      -2.19691483e-05 -3.17605300e-05 -2.55812629e-05 1.57064787e-05
      3.67490175e-05 6.47482666e-05 2.44396633e-05 2.29444340e-05
      -9.82880192e-06 -1.66011050e-05 -1.70826843e-05 -6.88402724e-06
      1.78367354e-05 7.27957240e-06 6.33276159e-06 -1.41885648e-05
      -2.50262401e-05 -2.35927018e-05 -1.69356408e-05 -2.04426897e-06
      -1.01886208e-05 2.33560586e-05 3.65855121e-05 3.31772098e-05
      9.48767865e-06 2.02202173e-05 1.69529740e-05 8.46156308e-06
      5.10827704e-06 -1.50801861e-05 -2.00070426e-05 -2.44578841e-05
      -2.16883218e-05 -1.92209900e-05 -2.05247889e-05 -1.79847848e-06
      -1.78381906e-05 3.08159770e-06 5.93411733e-06 8.72816963e-06
      7.19827767e-06 3.53001014e-05 4.81370589e-05 5.52642196e-05
      3.00331958e-05 -7.07746494e-06 6.37137134e-07 -1.88745908e-05
      -3.97488184e-05 -4.83970325e-05 -4.46398517e-05 -2.49044733e-05
      1.36251469e-06 3.91257599e-05 3.75065792e-05 3.56434612e-05
      4.70122395e-05 3.99802011e-05 3.57352037e-05 1.23539139e-05
      -1.74663965e-05 -2.72717007e-05 -2.51696838e-05 -2.31686627e-05
      -2.73637597e-05 -3.26445916e-05 -3.12790689e-05 -2.07181201e-05
      -3.03729921e-05 -1.97615136e-05 -1.46623279e-05 -2.08471938e-05
      -1.24964035e-05 2.43769841e-06 1.59084029e-05 5.64153561e-05
      6.54632095e-06 -3.71527749e-05 -6.04643537e-05 -6.65795160e-05
      -5.85590533e-05 -4.82264659e-05 -4.80595190e-05 -5.03393967e-05
      -3.85252642e-05 -3.45278022e-05 -3.01942255e-05 -2.80260538e-05
      -8.83457597e-06 1.66592290e-05 2.05338456e-05 6.05356036e-06
      -6.46543322e-06 -7.22826644e-06 -7.95634060e-06 -1.18743155e-05
      1.65370711e-05 -3.01747832e-07 1.64755074e-05 7.71328359e-06
      -9.38631104e-07 -4.70684099e-05 -4.07341577e-05 -3.98250595e-05
      -2.52971622e-05 -1.53874462e-05 -3.28590954e-06 -6.76927766e-06
      -3.24853340e-06 3.75755917e-05 4.18422351e-05 3.76028838e-05
      1.20087170e-05 9.77072796e-06 2.53157486e-06 1.06878797e-05
      1.41101591e-05 -4.55656846e-06 -6.75265164e-06 -3.54924123e-06
      2.07971516e-06 1.46998973e-05 1.33917101e-05 5.45497460e-06
      1.33740550e-05 8.55280996e-06 1.80955362e-06 9.48326579e-06
      1.57413797e-05 2.47948519e-05 9.39012898e-06 -1.43148573e-05
      -1.29503160e-05 -3.02367407e-05 -3.01709442e-05 -2.27611781e-05
      -1.71317006e-05 -1.30579319e-05 -9.35683875e-06 -3.65883034e-06
      -6.33505033e-06 -3.51741141e-06 -1.61172848e-05 -2.48602191e-05
      -2.56712028e-05 -3.05383146e-05 -1.35300597e-05 -3.75952396e-07
      9.22247455e-06 4.08224078e-05 5.24087300e-05 5.14555832e-05
      3.34184660e-05 2.12940540e-05 1.87081550e-05 3.66099594e-05
      2.81654866e-05 1.10486671e-05 1.08208087e-05 -3.12572683e-06
      -8.67480048e-06 -1.83401153e-05 -1.50759770e-05 3.32248464e-06
      -5.65948130e-06 3.21158550e-05 2.59176413e-05 2.88882566e-05
      8.44241094e-06 1.98889393e-05 1.83015309e-05 2.43518662e-05
      2.70256405e-05 1.61230746e-05 9.92756213e-06 -2.35376392e-05
      -1.42819345e-05 1.04450128e-05 -9.56698477e-06 -9.85073370e-07
      -1.70931344e-05 1.45667798e-06 6.41736642e-06 2.76905007e-06
      1.98997968e-05 4.32375928e-05 5.43270908e-05 3.31431074e-05
      4.42816884e-07 -2.93540015e-05 -3.12601151e-05 -2.18728183e-05
      -2.31480881e-05 -2.47149565e-05 -2.06112163e-05 -1.54796671e-05
      -7.04437025e-06 -5.89297588e-06 -7.27106635e-06 2.88619071e-06
      1.86491707e-05 1.35013834e-05 -1.47317508e-06 -2.18228870e-05
      -3.20584804e-05 -2.99289677e-05 -2.87274106e-05 -3.15329453e-05
      -3.09665302e-05 -3.21644948e-05 -2.14739739e-05 -1.69199484e-05
      -2.53621383e-05 -1.40577149e-05 -8.94663663e-06 -1.82350050e-05
      -6.44631700e-06 1.05744621e-05 2.41712332e-05 5.95827369e-05
      8.14233226e-06 -1.67495455e-05 -4.14204478e-05 -5.23289091e-05
      -5.76533675e-05 -4.15900104e-05 -3.48010180e-05 -4.19838798e-05
      -4.10278844e-05 -2.97898805e-05 -1.69991436e-05 -1.51036611e-05
      -1.49873940e-05 5.86098213e-06 9.19726790e-06 3.12844240e-05
      3.15681536e-05 1.80421375e-05 1.91056060e-05 2.59149165e-05
      3.79699704e-05 2.55469931e-05 -4.83979056e-06 -2.05417709e-05
      -1.69672749e-05 -4.49064755e-05 -3.64613952e-05 -3.21356492e-05
      -3.05887552e-05 -2.16737299e-05 -1.82374552e-05 -1.42872177e-05
      -1.17067721e-05 5.08262156e-06 8.75300088e-07 -3.03729757e-06
      -2.58389737e-05 -1.72283162e-05 -2.23354928e-05 -2.05840006e-05
      -2.16302687e-05 -1.69432642e-05 -1.52475550e-05 -2.01069452e-05
      -2.67006981e-05 -3.44228065e-05 -3.80901474e-05 -3.37637939e-05
      -4.05517967e-05 -5.53429636e-05 -5.07867662e-05 -3.79407138e-05
      -2.50267822e-05 -3.18754392e-05 -3.52079696e-05 -4.66290403e-05
      -3.82173930e-05 -3.76223834e-05 -3.07821902e-05 -1.94079330e-05
      -1.02752037e-05 -1.34014335e-05 -1.42758363e-05 -1.75722125e-05
      -1.50785745e-05 -1.60139443e-05 -1.92378648e-05 -1.88433914e-05
      -2.36097585e-05 -2.67041160e-05 -1.33540734e-05 -8.47336469e-06
      -7.59297245e-06 -4.20407650e-06 2.40123718e-05 2.65180479e-05
      3.43169377e-05 2.51463134e-05 1.98900052e-05 1.75909263e-05
      1.11577219e-05 -6.56096336e-06 -9.83513746e-06 -1.11411373e-05
      -2.03901600e-05 -2.32114362e-05 -2.58692835e-05 -2.30749683e-05
      -2.28203025e-05 4.13971611e-06 3.12568727e-06 -5.05953176e-06
      -4.93196831e-06 6.34153321e-06 1.13933065e-05 6.78299557e-06
      -5.72677754e-06 -7.66508583e-06 -4.44474836e-06 -2.93299381e-05
      -2.10942198e-05 -1.47563651e-05 -6.00023259e-06 -2.34556592e-05
      -2.53096805e-05 -1.76787526e-05 -1.65704823e-05 -1.07171609e-05
      -1.02019794e-06 -1.32146738e-06 -1.57120382e-06 -1.20212408e-05
      -2.29953548e-05 -3.09550123e-05 -5.00635178e-05 -3.89025590e-05
      -2.73873484e-05 -2.44814037e-05 -1.76273315e-05 -1.56863807e-05
      -1.83714528e-05 -2.32294587e-05 -2.96268063e-05 -1.92143798e-05
      -1.28379370e-05 -1.32438536e-05 -1.96836645e-05 -2.80522090e-05
      -3.00637366e-05 -2.79949800e-05 -2.41594353e-05 -2.37456970e-05
      -2.08562215e-05 -2.05083888e-05 -1.28586853e-05 -3.67644384e-06
      -2.20759648e-06 4.01754960e-06 8.65623804e-08 -4.55880945e-06
      1.07634360e-05 2.00159302e-05 3.67992907e-05 5.92828328e-05
      6.21929985e-06 -7.54202392e-06 -1.77628808e-05 -2.30520400e-05
      -3.27056187e-05 -2.74869417e-05 -2.15029831e-05 -2.00610975e-05
      -1.20520044e-05 -1.67402195e-05 -2.00017021e-05 -1.10987630e-05
      -8.96796246e-06 -4.79544133e-06 -3.81840118e-06 1.93177038e-05
      3.66253516e-05 3.61221537e-05 3.19871724e-05 2.44258554e-05
      1.52258553e-05 7.06177934e-06 -1.47619994e-05 -2.01241219e-05
      -2.38140419e-05 -2.13827589e-05 -1.66654918e-05 -1.63308141e-05
      -1.57424474e-05 -1.92801090e-05 -1.60257714e-05 -5.20332514e-06
      -1.03664379e-05 1.86703090e-07 -1.19349988e-05 -1.29052105e-05
      -2.89238742e-05 -1.78668088e-05 -2.28264380e-05 -1.74223569e-05
      -2.16806820e-05 -2.52508744e-05 -2.74989106e-05 -2.85451169e-05
      -2.81097346e-05 -2.68387794e-05 -3.12468073e-05 -2.87088696e-05
      -3.65338237e-05 -3.61261955e-05 -3.82153230e-05 -3.39581820e-05
      -2.29737198e-05 -2.61776859e-05 -3.05382928e-05 -3.59529877e-05
      -3.44340151e-05 -2.66407696e-05 -1.97716272e-05 -1.17853424e-05
      -6.52484005e-06 -6.96836969e-06 -9.48452544e-06 -1.34447491e-05
      -1.37677707e-05 -8.34513958e-06 -1.13101296e-05 -6.10951975e-06
      -3.51705836e-07 -5.17619901e-06 -5.55624320e-06 -7.90723880e-06
      -7.79126276e-06 -7.23400490e-06 -2.13738917e-06 -1.77510947e-06
      3.39066469e-06 4.05491210e-06 -5.79326695e-07 -1.04541505e-05
      -1.60811269e-05 -1.27901312e-05 -2.16698863e-05 -1.14021186e-05
      -1.07274791e-05 -8.80924654e-06 -1.39252816e-05 -1.87294463e-05
      -2.59354347e-05 -2.98299274e-05 -2.90232165e-05 -2.99864478e-05
      -3.00052270e-05 -2.55786144e-05 -2.01656549e-05 -1.36093659e-05
      -1.71432730e-05 -1.25102370e-05 -1.49925172e-05 -1.42126491e-05
      -1.75319128e-05 -2.02552801e-05 -1.45543463e-05 -2.21717273e-05
      -1.55935086e-05 -7.20706521e-06 -2.25867484e-06 -5.55821225e-06
      -1.24879452e-05 -1.33422900e-05 -1.86173547e-05 -1.86014076e-05
      -7.87436238e-06 -1.64288958e-05 -3.17766135e-05 -2.53133894e-05
      -2.74152208e-05 -3.23471177e-05 -3.12592492e-05 -2.78053631e-05
      -1.56630613e-05 -1.55342750e-05 -5.76728644e-06 -1.05815780e-05
      -1.32461673e-05 -2.54868155e-05 -2.32682250e-05 -1.79074013e-05
      -1.55187408e-05 -2.05560737e-05 -2.04578100e-05 -1.26443492e-05
      -8.74412126e-06 -4.68098324e-06 3.99346163e-06 1.40442780e-05
      1.75490932e-05 2.75430903e-05 3.30978728e-05 3.78560326e-05
      3.18839448e-05 3.76747303e-05 4.76237401e-05 6.65362095e-05
      1.81487230e-05 -7.28311397e-06 -1.59392093e-05 -1.76442791e-05
      -2.45593892e-05 -2.59983535e-05 -1.86217330e-05 -1.06972111e-05
      -7.83404448e-06 -1.23177642e-05 -1.44565965e-05 -1.41908395e-05
      -1.34830807e-05 -1.51037748e-05 -1.61470507e-05 -1.35865594e-05
      -1.11506270e-05 -7.97252233e-06 -6.77251501e-06 -8.91486889e-06
      -1.48138242e-05 -1.85064928e-05 -2.05868309e-05 -2.07019057e-05
      -2.83218214e-05 -1.56405786e-05 -6.16367061e-06 -8.71159727e-07
      5.28650025e-06 3.59560499e-06 2.21230403e-06 3.32370018e-06
      -5.82639132e-06 -3.21159223e-06 1.12940756e-06 -3.17670265e-06
      1.68969692e-07 7.54551274e-06 9.20997809e-06 6.18657305e-06
      -2.72493207e-06 -5.67451116e-06 -1.01811183e-05 -1.27671565e-05
      -1.19426941e-05 -1.63466993e-05 -1.94874374e-05 -1.96532910e-05
      -1.65687925e-05 -1.93875694e-05 -2.04712851e-05 -2.02178690e-05
      -1.29997652e-05 -2.02674364e-05 -2.47194621e-05 -1.58621842e-05
      -1.50639571e-05 -1.21903895e-05 -1.56592178e-05 -1.36939434e-05
      -1.13131764e-05 -1.24231592e-05 -1.15656658e-05 -1.00751276e-05
      -9.02237571e-06 -8.92191201e-06 -9.90750141e-06 -4.64105324e-06
      2.17762462e-07 2.10959911e-06 3.37301026e-06 5.79776315e-06
      9.71801455e-06 9.28849204e-06 5.24436064e-06 1.04069086e-05
      5.39198709e-06 8.24508606e-06 1.82008444e-06 -6.34446042e-06
      -7.27130237e-06 -3.57955264e-06 -9.63282764e-06 -1.36584722e-05
      -1.36382987e-05 -1.86149082e-05 -2.15117034e-05 -2.14685715e-05
      -1.72019609e-05 -2.13248913e-05 -2.07879457e-05 -1.72806303e-05
      -1.06038970e-05 -7.43820328e-06 -4.10607890e-06 -5.30744319e-06
      -7.67845540e-06 -1.68084280e-05 -1.21323974e-05 -5.36189555e-06
      7.91483728e-07 -4.40655367e-06 -5.15009287e-06 -1.44489195e-06
      3.81917789e-06 -1.82354813e-06 -5.19641799e-06 -4.38303141e-06
      -9.32962030e-06 -6.33972240e-06 -1.06437562e-06 5.55019824e-07
      -2.68309350e-06 -1.00993748e-05 -6.00163548e-06 1.62671972e-06
      4.39085488e-06 7.22094637e-06 -5.92823937e-07 1.71017894e-06
      1.70007567e-07 6.75619140e-06 9.97234838e-06 3.55908878e-06
      -9.90187061e-08 6.02608452e-06 1.69389943e-06 3.04806895e-06
      1.74147885e-06 -5.71764531e-06 -3.12683733e-06 -6.43068597e-06
      -6.52498466e-06 -6.78533797e-06 -6.93463775e-08 9.83023256e-06
      1.32115529e-05 1.74350262e-05 2.21849368e-05 1.75234982e-05
      9.75846888e-06 2.31981794e-05 4.34535032e-05 4.79150767e-05
      3.90161040e-05 1.40650518e-05 2.83110353e-06 3.74488963e-07
      4.43532235e-06 2.77788513e-06 8.29167402e-06 1.32483583e-05
      2.62172398e-05 2.36779924e-05 2.09144146e-05 1.25741262e-05
      1.25163524e-05 1.76597314e-05 1.88351914e-05 2.23497009e-05
      2.37509739e-05 2.45090323e-05 2.57278207e-05 2.49429831e-05
      2.33646006e-05 2.27174460e-05 2.61160967e-05 2.22942654e-05
      1.47707515e-05 5.68660471e-06 1.10068113e-05 1.34601842e-05
      7.86142846e-06 3.76265416e-06 4.24692826e-06 8.04228966e-06
      1.65575038e-05 2.23698516e-05 1.73380849e-05 1.45067133e-05
      1.58408129e-05 2.34369800e-05 1.99334227e-05 1.64744633e-05
      9.55139694e-06 5.80767392e-06 1.92763923e-06 1.20980962e-06
      2.88373343e-07 5.01746081e-06 1.57023419e-06 -2.74778040e-06
      -1.17672616e-05 -1.81420492e-05 -1.87265014e-05 -2.27825531e-05
      -2.17122470e-05 -2.28992449e-05 -2.78945608e-05 -2.46059917e-05
      -1.40343855e-05 -5.82717530e-06 -6.56486600e-06 -5.69613394e-06
      -9.65347044e-06 -1.53611782e-05 -1.42660410e-05 -1.49771968e-05
      -1.06270227e-05 -7.33921479e-06 -9.88264219e-06 -1.41320670e-05
      -1.55475100e-05 -1.49327334e-05 -7.33249408e-06 -7.75265744e-06
      -9.45085674e-07 -6.93638140e-06 -1.02577394e-06 -4.40833264e-06
      -7.71077066e-06 -5.72118688e-06 -9.61276874e-06 -1.53489000e-05
      -1.58624862e-05 -1.86253365e-05 -1.96415131e-05 -1.61915013e-05
      -1.19348788e-05 -1.42682666e-05 -1.92254647e-05 -2.39498695e-05
      -2.45981973e-05 -1.84897981e-05 -1.35374248e-05 -1.39667927e-05
      -1.39414642e-05 -1.26140194e-05 -7.69876988e-06 -1.69003238e-06
      4.09841533e-07 9.89898922e-07 3.17470585e-06 6.03977060e-06
      8.28805150e-06 3.40973338e-06 5.87230090e-07 -6.54759924e-06
      -8.18377339e-06 -1.15380999e-05 -1.34489592e-05 -1.75620517e-05
      -1.76077028e-05 -1.18067692e-05 5.34508388e-07 4.55884992e-06
      1.53189569e-06 -5.79543439e-07 1.79474512e-06 9.42314364e-06
      1.21260355e-05 1.40487600e-05 1.71345746e-05 1.21596713e-05
      1.15380371e-05 1.17197033e-05 7.78296544e-06 6.33031459e-06
      6.72480974e-06 1.04731162e-05 1.68971419e-05 9.18671958e-06
      8.37127845e-06 3.02440321e-06 -1.10648188e-07 -5.47613399e-06
      -4.32024672e-06 -1.94126028e-06 7.10483664e-06 1.49663365e-05
      1.55856287e-05 2.37235927e-05 2.62554095e-05 1.54741538e-05
      1.64319554e-05 2.36375345e-05 3.03316810e-05 2.70598939e-05
      5.18726265e-05 4.08107553e-05 3.84772684e-05 3.40525185e-05
      3.61223101e-05 4.04041130e-05 3.71206152e-05 3.76260068e-05
      4.15201648e-05 4.55716399e-05 5.12027218e-05 4.99597299e-05
      5.30236866e-05 5.56816340e-05 5.62001696e-05 5.41546033e-05
      5.10553582e-05 5.13725099e-05 4.92269573e-05 4.88618716e-05
      4.82018622e-05 4.90670573e-05 5.07432305e-05 5.05449607e-05
      4.14571150e-05 2.57649244e-05 2.04173721e-05 1.71589691e-05
      1.69503001e-05 1.59377068e-05 1.30658509e-05 1.24406488e-05
      3.14441204e-05 3.22955602e-05 2.97316656e-05 3.11671720e-05
      3.78228251e-05 4.09873719e-05 4.25919170e-05 4.15494542e-05
      3.85072053e-05 3.69613663e-05 3.14820027e-05 2.71398530e-05
      2.92806853e-05 2.94173751e-05 2.89627042e-05 3.37891543e-05
      2.61959758e-05 2.95338905e-05 2.65505223e-05 2.18275218e-05
      1.90800874e-05 2.21278133e-05 1.76289868e-05 1.67130002e-05
      1.96479596e-05 2.29067882e-05 2.27881155e-05 2.24110954e-05
      2.58482305e-05 2.39359179e-05 1.93365813e-05 1.75688747e-05
      2.11483512e-05 2.17561956e-05 1.53692836e-05 1.17823010e-05
      2.08833785e-06 4.61046557e-06 -1.88638001e-06 3.94139897e-06
      -2.36030591e-08 1.61938760e-06 8.18681087e-07 -4.95835729e-06
      -9.61771320e-07 3.71660644e-06 3.87599994e-06 5.04016725e-06
      6.26047631e-06 6.83499138e-06 9.95669325e-06 1.43010293e-05
      8.07903689e-06 8.55032067e-06 1.55530652e-05 1.26848381e-05
      1.52735993e-05 1.60644922e-05 1.54670761e-05 1.25136303e-05
      1.03599778e-05 1.22190013e-05 1.43928237e-05 1.56503738e-05
      1.69861414e-05 1.84994442e-05 1.89617822e-05 1.75518271e-05
      1.97720929e-05 2.06863006e-05 2.08494257e-05 2.35730568e-05
      1.96927776e-05 1.25484548e-05 1.03584071e-05 8.03291641e-06
      6.73519207e-06 6.96493316e-06 4.79477603e-06 4.63676179e-06
      6.88786758e-06 4.17361798e-06 1.36061760e-06 -4.76187324e-06
      -5.01853492e-06 -5.43156784e-06 6.08539040e-07 -2.55632386e-07
      -2.85473249e-07 -1.60412731e-06 -3.27458724e-06 -3.26018198e-06
      2.16835292e-06 3.14225463e-06 3.18899333e-06 8.25446386e-06
      1.07257629e-05 1.14843651e-05 1.45768527e-05 1.21434587e-05
      1.30392109e-05 1.26674749e-05 1.26681734e-05 1.07146761e-05
      1.90639894e-05 2.42221231e-05 1.78557366e-05 8.31285706e-06
      1.23857862e-05 -4.20588685e-06 -2.85994588e-06 -6.16330135e-06</_></support_vectors>
  <uncompressed_sv_total>52</uncompressed_sv_total>
  <uncompressed_support_vectors>
    <_>
      22. 47. 92. 103. 100. 100. 103. 103. 103. 103. 103. 103. 103. 103.
      103. 103. 100. 100. 103. 108. 110. 108. 105. 103. 103. 100. 100.
      100. 103. 100. 100. 103. 108. 108. 110. 108. 103. 98. 96. 96. 96.
      98. 98. 98. 100. 98. 98. 98. 98. 98. 98. 98. 98. 98. 96. 98. 96.
      96. 94. 94. 96. 96. 98. 98. 98. 98. 98. 98. 98. 98. 98. 98. 98.
      98. 98. 98. 100. 105. 100. 98. 98. 96. 98. 98. 100. 103. 110. 116.
      119. 116. 112. 105. 103. 103. 103. 103. 103. 103. 103. 103. 103.
      103. 103. 103. 103. 103. 103. 103. 103. 103. 103. 103. 103. 103.
      103. 103. 103. 108. 108. 108. 108. 110. 110. 112. 114. 114. 114.
      114. 116. 112. 110. 114. 116. 116. 119. 121. 124. 128. 130. 131.
      129. 108. 46. 25. 41. 86. 131. 128. 126. 124. 123. 120. 119. 117.
      117. 116. 114. 114. 112. 112. 110. 110. 105. 94. 91. 96. 110. 112.
      112. 112. 112. 110. 112. 112. 116. 112. 96. 87. 78. 85. 94. 108.
      112. 108. 108. 108. 110. 110. 108. 108. 110. 110. 110. 110. 110.
      112. 112. 110. 110. 110. 108. 108. 105. 108. 108. 110. 110. 110.
      108. 105. 108. 110. 108. 108. 105. 110. 108. 108. 108. 105. 91.
      74. 77. 94. 105. 105. 108. 105. 105. 108. 114. 119. 121. 120. 116.
      112. 100. 84. 65. 74. 91. 103. 110. 108. 108. 108. 108. 108. 110.
      108. 100. 80. 53. 58. 90. 108. 108. 108. 110. 110. 93. 77. 68. 68.
      70. 74. 75. 77. 78. 80. 84. 87. 96. 124. 135. 138. 139. 141. 144.
      148. 152. 155. 157. 160. 153. 133. 60. 33. 53. 116. 157. 155. 153.
      150. 148. 147. 143. 141. 139. 136. 134. 132. 131. 130. 129. 130.
      94. 45. 28. 47. 94. 120. 119. 119. 119. 117. 119. 119. 92. 49. 32.
      19. 15. 21. 33. 49. 90. 112. 112. 112. 116. 120. 121. 123. 124.
      124. 124. 124. 123. 119. 117. 119. 117. 117. 114. 112. 112. 112.
      112. 112. 112. 114. 114. 112. 114. 116. 116. 116. 116. 116. 114.
      114. 117. 96. 45. 17. 29. 72. 112. 114. 116. 117. 116. 119. 120.
      124. 128. 128. 124. 119. 65. 26. 10. 24. 58. 116. 120. 123. 123.
      124. 124. 126. 126. 128. 105. 44. 11. 26. 78. 130. 131. 132. 136.
      133. 70. 28. 13. 13. 13. 13. 14. 15. 15. 15. 17. 18. 40. 112. 160.
      207. 237. 247. 247. 255. 255. 255. 255. 255. 155. 130. 63. 35. 55.
      119. 247. 247. 237. 237. 237. 237. 237. 207. 163. 160. 157. 157.
      157. 157. 157. 149. 82. 22. 5. 38. 114. 141. 138. 138. 138. 136.
      136. 116. 46. 13. 2. 1. 3. 2. 3. 12. 45. 96. 131. 131. 129. 112.
      92. 87. 85. 85. 84. 85. 93. 121. 132. 116. 68. 55. 88. 120. 126.
      124. 124. 124. 126. 126. 126. 126. 129. 129. 129. 130. 131. 132.
      133. 135. 133. 85. 23. 1. 22. 84. 133. 133. 135. 136. 136. 138.
      139. 141. 144. 143. 144. 116. 41. 3. 0. 12. 63. 139. 147. 144.
      147. 149. 150. 150. 150. 143. 86. 25. 1. 25. 93. 155. 155. 157.
      163. 153. 65. 12. 0. 1. 4. 7. 7. 7. 7. 3. 0. 0. 22. 94. 207. 237.
      247. 247. 247. 247. 255. 255. 255. 255. 155. 129. 60. 34. 54. 117.
      237. 237. 237. 237. 237. 237. 237. 237. 237. 247. 247. 237. 151.
      138. 124. 80. 31. 6. 5. 44. 135. 247. 163. 163. 160. 160. 148. 77.
      18. 5. 16. 41. 49. 44. 22. 6. 16. 61. 143. 160. 138. 60. 29. 23.
      22. 21. 19. 20. 38. 94. 152. 105. 36. 18. 55. 135. 151. 149. 149.
      149. 149. 149. 149. 149. 150. 150. 151. 152. 151. 138. 123. 96.
      65. 34. 6. 1. 31. 114. 157. 157. 160. 157. 160. 160. 163. 163.
      207. 237. 152. 74. 18. 1. 1. 17. 85. 160. 207. 237. 237. 207. 150.
      130. 94. 56. 26. 5. 1. 29. 108. 247. 237. 207. 247. 160. 70. 13.
      2. 26. 50. 65. 66. 66. 63. 42. 9. 2. 35. 124. 247. 237. 237. 247.
      247. 247. 255. 255. 255. 255. 153. 128. 61. 33. 54. 114. 207. 237.
      237. 237. 237. 237. 237. 237. 237. 237. 247. 149. 90. 41. 28. 14.
      3. 1. 7. 44. 135. 247. 207. 207. 207. 237. 129. 44. 9. 16. 56.
      133. 148. 138. 77. 24. 8. 37. 121. 255. 147. 70. 36. 29. 29. 28.
      16. 6. 18. 78. 157. 110. 30. 12. 50. 140. 237. 207. 207. 207. 207.
      207. 163. 163. 163. 163. 163. 207. 152. 92. 43. 24. 12. 3. 0. 1.
      33. 119. 207. 207. 207. 207. 207. 207. 207. 207. 207. 237. 128.
      39. 7. 1. 1. 16. 82. 155. 207. 207. 207. 160. 110. 44. 21. 10. 2.
      0. 1. 28. 100. 237. 207. 207. 247. 160. 72. 14. 8. 47. 134. 157.
      160. 160. 147. 61. 11. 9. 50. 147. 247. 237. 237. 247. 247. 247.
      247. 255. 255. 255. 153. 128. 61. 35. 54. 114. 207. 237. 237. 237.
      237. 237. 237. 237. 237. 237. 247. 141. 55. 16. 9. 8. 5. 2. 7. 44.
      134. 255. 207. 207. 207. 237. 98. 30. 8. 37. 119. 255. 237. 247.
      134. 45. 8. 23. 91. 163. 160. 139. 123. 119. 121. 117. 54. 15. 18.
      80. 157. 112. 31. 12. 51. 140. 237. 207. 207. 207. 207. 207. 163.
      163. 163. 163. 163. 163. 152. 84. 30. 15. 16. 11. 2. 2. 34. 119.
      207. 207. 207. 207. 207. 207. 207. 207. 237. 150. 72. 17. 2. 1. 1.
      17. 84. 157. 207. 207. 207. 157. 105. 43. 24. 25. 17. 6. 1. 28.
      105. 237. 207. 207. 247. 163. 96. 42. 36. 86. 150. 255. 247. 255.
      126. 39. 7. 25. 93. 207. 247. 237. 247. 247. 247. 247. 247. 255.
      255. 255. 152. 124. 60. 36. 53. 110. 207. 237. 237. 237. 237. 237.
      237. 237. 237. 237. 237. 155. 119. 72. 60. 60. 39. 10. 6. 43. 134.
      255. 207. 207. 207. 207. 123. 51. 41. 75. 143. 237. 207. 237. 139.
      47. 9. 21. 88. 163. 237. 207. 207. 207. 237. 237. 90. 24. 20. 82.
      160. 117. 33. 12. 51. 140. 247. 207. 207. 207. 207. 207. 207. 163.
      163. 163. 163. 163. 160. 138. 103. 90. 93. 57. 18. 3. 34. 119.
      207. 207. 207. 207. 207. 207. 207. 207. 163. 117. 41. 13. 17. 12.
      3. 17. 84. 157. 207. 207. 207. 207. 149. 128. 114. 117. 72. 25. 3.
      28. 105. 237. 207. 207. 237. 237. 148. 129. 126. 144. 163. 237.
      247. 163. 82. 18. 9. 46. 135. 255. 237. 237. 247. 247. 247. 237.
      237. 237. 237. 247. 152. 121. 59. 36. 54. 112. 163. 237. 237. 237.
      237. 237. 237. 237. 237. 237. 237. 237. 207. 160. 157. 157. 86.
      20. 6. 43. 132. 247. 207. 207. 207. 207. 153. 139. 133. 144. 160.
      207. 207. 207. 124. 40. 8. 26. 96. 163. 207. 247. 255. 255. 255.
      255. 91. 23. 19. 74. 132. 75. 24. 12. 49. 139. 247. 207. 207. 207.
      207. 207. 207. 207. 207. 207. 163. 207. 207. 207. 237. 237. 255.
      120. 30. 4. 33. 117. 207. 207. 207. 207. 207. 207. 207. 237. 141.
      63. 25. 30. 56. 42. 8. 17. 82. 155. 207. 207. 207. 207. 237. 247.
      247. 255. 121. 36. 4. 28. 103. 237. 207. 207. 237. 237. 237. 255.
      255. 247. 237. 237. 247. 139. 45. 8. 20. 85. 153. 237. 237. 237.
      247. 237. 163. 157. 207. 237. 160. 207. 151. 120. 59. 40. 55. 108.
      160. 237. 207. 163. 207. 237. 237. 237. 237. 237. 237. 237. 237.
      237. 237. 207. 90. 22. 6. 42. 131. 247. 207. 207. 207. 207. 207.
      237. 237. 237. 207. 207. 207. 141. 60. 18. 10. 45. 133. 237. 157.
      133. 98. 92. 91. 87. 45. 13. 19. 50. 49. 22. 8. 11. 49. 138. 247.
      207. 207. 207. 207. 207. 207. 207. 207. 207. 207. 207. 207. 207.
      207. 207. 255. 119. 30. 5. 31. 114. 207. 207. 207. 207. 207. 207.
      207. 157. 100. 41. 28. 61. 129. 55. 10. 16. 80. 155. 207. 207.
      207. 207. 207. 207. 207. 255. 117. 35. 4. 28. 100. 207. 207. 207.
      237. 237. 237. 237. 237. 237. 237. 237. 163. 96. 25. 6. 39. 126.
      237. 237. 237. 237. 237. 157. 134. 124. 136. 144. 131. 126. 131.
      119. 70. 52. 53. 98. 157. 153. 147. 148. 149. 153. 237. 237. 237.
      237. 237. 237. 237. 237. 237. 207. 86. 22. 6. 43. 131. 247. 207.
      207. 207. 207. 207. 207. 207. 207. 207. 237. 153. 86. 26. 9. 29.
      92. 153. 247. 149. 66. 28. 20. 21. 21. 13. 7. 22. 52. 48. 22. 9.
      11. 49. 139. 247. 207. 207. 207. 207. 207. 207. 207. 207. 207.
      207. 207. 207. 207. 207. 207. 247. 119. 30. 4. 31. 114. 207. 207.
      207. 207. 207. 207. 163. 135. 55. 30. 45. 120. 144. 53. 10. 17.
      82. 155. 207. 207. 207. 207. 207. 207. 207. 255. 117. 35. 5. 29.
      100. 207. 207. 207. 237. 237. 237. 237. 237. 237. 237. 237. 148.
      56. 9. 11. 59. 150. 247. 237. 207. 237. 237. 141. 84. 59. 94. 121.
      91. 66. 86. 108. 77. 74. 47. 94. 153. 144. 134. 132. 129. 141.
      207. 237. 237. 237. 237. 237. 237. 237. 237. 207. 86. 21. 6. 42.
      132. 247. 207. 207. 207. 207. 207. 207. 207. 207. 207. 155. 105.
      36. 9. 21. 74. 147. 237. 247. 143. 49. 12. 12. 31. 43. 43. 43. 55.
      112. 134. 74. 25. 12. 49. 139. 247. 207. 207. 207. 207. 207. 207.
      207. 207. 207. 207. 207. 207. 207. 207. 207. 255. 119. 29. 3. 31.
      114. 207. 207. 207. 207. 207. 207. 148. 84. 35. 37. 87. 152. 148.
      51. 9. 16. 82. 155. 207. 207. 207. 207. 207. 207. 207. 255. 117.
      33. 5. 28. 103. 237. 207. 237. 237. 237. 237. 237. 237. 237. 237.
      207. 120. 36. 5. 28. 108. 237. 237. 237. 237. 237. 237. 124. 47.
      42. 77. 105. 75. 46. 59. 96. 70. 55. 47. 94. 155. 135. 103. 82.
      91. 134. 237. 237. 237. 237. 237. 237. 237. 237. 237. 237. 90. 23.
      7. 42. 131. 247. 207. 207. 207. 207. 207. 207. 207. 207. 237. 123.
      45. 11. 13. 47. 133. 163. 207. 247. 147. 50. 13. 26. 87. 134. 135.
      135. 141. 153. 247. 117. 35. 12. 47. 138. 237. 207. 207. 207. 207.
      207. 207. 207. 207. 207. 207. 207. 207. 207. 207. 207. 255. 120.
      30. 3. 30. 110. 163. 207. 207. 207. 207. 163. 114. 43. 27. 55.
      132. 237. 148. 52. 9. 15. 78. 153. 207. 207. 207. 207. 207. 207.
      207. 255. 120. 36. 4. 27. 98. 207. 237. 237. 237. 237. 237. 237.
      237. 237. 247. 155. 80. 17. 8. 46. 139. 247. 237. 237. 237. 237.
      247. 123. 45. 30. 45. 55. 45. 44. 75. 108. 70. 59. 51. 103. 157.
      134. 85. 57. 91. 148. 247. 237. 237. 237. 237. 237. 237. 237. 237.
      207. 91. 24. 7. 41. 130. 247. 207. 207. 207. 207. 207. 207. 207.
      237. 136. 48. 13. 10. 43. 117. 163. 207. 207. 247. 147. 50. 12.
      31. 114. 207. 237. 247. 237. 207. 255. 119. 36. 12. 46. 135. 237.
      207. 207. 207. 207. 207. 207. 207. 207. 207. 207. 207. 207. 207.
      207. 207. 255. 121. 31. 3. 29. 108. 163. 207. 207. 207. 237. 140.
      52. 22. 38. 105. 157. 255. 149. 53. 9. 15. 82. 155. 237. 207. 207.
      207. 207. 207. 207. 255. 117. 35. 4. 28. 98. 207. 237. 237. 237.
      237. 237. 237. 237. 237. 255. 132. 44. 8. 23. 86. 160. 247. 237.
      237. 237. 237. 255. 141. 59. 29. 23. 24. 28. 52. 116. 120. 65. 59.
      55. 112. 207. 149. 121. 108. 134. 160. 237. 237. 237. 237. 237.
      237. 237. 237. 237. 207. 91. 23. 6. 40. 130. 247. 207. 207. 207.
      207. 207. 207. 237. 147. 70. 18. 8. 33. 96. 152. 207. 207. 207.
      247. 147. 50. 13. 33. 117. 247. 255. 255. 255. 255. 255. 123. 36.
      12. 46. 135. 237. 207. 207. 207. 207. 207. 207. 207. 207. 207.
      207. 207. 207. 207. 207. 207. 255. 121. 32. 4. 29. 108. 163. 207.
      207. 207. 157. 93. 27. 12. 42. 98. 130. 130. 108. 41. 7. 12. 51.
      120. 141. 163. 207. 207. 207. 207. 207. 255. 119. 35. 4. 28. 98.
      207. 237. 237. 237. 237. 237. 237. 237. 247. 237. 92. 24. 7. 41.
      128. 237. 237. 237. 237. 237. 237. 255. 155. 103. 49. 34. 32. 45.
      93. 138. 123. 65. 54. 57. 116. 207. 207. 160. 157. 207. 237. 237.
      237. 237. 237. 237. 237. 237. 237. 247. 247. 91. 24. 5. 40. 130.
      247. 207. 207. 207. 207. 207. 237. 150. 84. 25. 7. 25. 87. 151.
      207. 207. 207. 207. 247. 148. 52. 13. 26. 85. 132. 134. 134. 133.
      134. 136. 88. 27. 11. 46. 135. 237. 207. 207. 207. 207. 207. 207.
      207. 207. 207. 207. 207. 207. 207. 207. 207. 247. 121. 32. 3. 29.
      110. 163. 207. 207. 237. 141. 51. 10. 9. 25. 40. 43. 37. 27. 11.
      2. 4. 14. 33. 82. 151. 207. 207. 207. 207. 207. 255. 119. 35. 4.
      28. 100. 237. 237. 237. 237. 237. 237. 237. 237. 247. 147. 49. 9.
      14. 68. 150. 237. 237. 237. 237. 237. 247. 247. 207. 144. 116. 85.
      80. 103. 143. 151. 123. 72. 70. 55. 114. 207. 237. 247. 237. 237.
      237. 237. 237. 237. 237. 237. 237. 237. 237. 247. 247. 93. 24. 6.
      38. 128. 247. 207. 207. 207. 207. 207. 207. 110. 37. 9. 19. 59.
      140. 207. 207. 207. 207. 207. 237. 153. 72. 19. 11. 26. 37. 39.
      39. 39. 39. 39. 28. 10. 9. 46. 134. 237. 207. 207. 207. 207. 207.
      207. 207. 207. 207. 207. 207. 207. 207. 207. 207. 255. 123. 34. 3.
      28. 105. 163. 207. 207. 237. 140. 53. 18. 18. 26. 30. 29. 24. 14.
      7. 2. 2. 8. 22. 66. 150. 207. 207. 207. 207. 207. 255. 120. 36. 3.
      26. 96. 237. 237. 237. 237. 237. 237. 237. 237. 237. 121. 32. 4.
      28. 112. 207. 237. 237. 237. 237. 237. 247. 247. 247. 207. 151.
      139. 138. 148. 207. 155. 126. 66. 53. 52. 116. 237. 237. 237. 237.
      237. 237. 237. 237. 237. 237. 237. 237. 237. 237. 247. 247. 93.
      25. 6. 38. 128. 247. 207. 207. 207. 207. 163. 129. 45. 12. 13. 49.
      134. 163. 160. 160. 160. 163. 207. 207. 207. 126. 51. 27. 22. 22.
      22. 22. 22. 23. 23. 15. 8. 9. 46. 134. 237. 207. 207. 207. 207.
      207. 207. 207. 207. 207. 207. 207. 207. 207. 207. 207. 255. 123.
      34. 3. 28. 105. 163. 207. 207. 207. 152. 120. 82. 78. 90. 92. 91.
      87. 66. 32. 5. 8. 38. 82. 130. 160. 207. 207. 207. 207. 207. 255.
      119. 35. 4. 27. 98. 237. 237. 237. 237. 237. 237. 237. 237. 151.
      72. 14. 9. 48. 144. 247. 237. 237. 237. 237. 237. 247. 247. 247.
      247. 255. 255. 247. 255. 255. 155. 126. 63. 54. 57. 116. 207. 237.
      237. 237. 237. 237. 237. 237. 237. 237. 237. 237. 237. 237. 247.
      247. 93. 25. 6. 39. 126. 247. 207. 207. 237. 237. 134. 54. 15. 5.
      11. 40. 63. 68. 68. 68. 66. 87. 132. 160. 207. 157. 135. 100. 91.
      91. 90. 90. 91. 92. 93. 55. 22. 10. 46. 133. 237. 207. 207. 207.
      207. 207. 207. 207. 207. 207. 207. 207. 207. 207. 207. 207. 255.
      123. 34. 4. 28. 105. 163. 207. 207. 207. 207. 163. 157. 157. 163.
      160. 163. 163. 143. 51. 9. 14. 72. 152. 207. 207. 207. 207. 207.
      207. 207. 255. 119. 36. 4. 27. 98. 237. 237. 237. 237. 237. 237.
      237. 247. 129. 42. 7. 23. 88. 160. 247. 237. 237. 237. 237. 247.
      247. 247. 247. 247. 255. 255. 255. 255. 255. 157. 126. 63. 56. 55.
      116. 163. 237. 237. 237. 237. 237. 237. 237. 237. 237. 237. 237.
      237. 237. 237. 247. 94. 26. 8. 40. 129. 237. 207. 207. 237. 247.
      103. 30. 3. 2. 2. 8. 10. 10. 10. 11. 11. 26. 84. 153. 207. 207.
      237. 237. 207. 207. 207. 207. 207. 207. 255. 132. 52. 36. 68. 143.
      207. 207. 207. 207. 207. 207. 207. 207. 207. 207. 207. 207. 207.
      207. 207. 207. 255. 126. 37. 8. 33. 112. 163. 207. 207. 207. 207.
      207. 207. 207. 207. 207. 207. 237. 149. 57. 12. 20. 82. 153. 237.
      207. 207. 207. 207. 207. 207. 255. 126. 42. 10. 34. 108. 237. 237.
      237. 237. 237. 237. 237. 237. 96. 30. 13. 45. 130. 247. 237. 237.
      237. 237. 237. 247. 247. 247. 247. 247. 255. 255. 255. 255. 255.
      157. 128. 59. 43. 52. 116. 207. 237. 237. 237. 237. 237. 237. 237.
      237. 237. 237. 237. 237. 237. 237. 255. 128. 52. 38. 65. 139. 247.
      207. 207. 207. 247. 128. 53. 35. 31. 31. 31. 31. 33. 33. 34. 36.
      45. 103. 160. 207. 207. 207. 207. 207. 207. 207. 207. 207. 207.
      207. 153. 131. 116. 135. 157. 207. 207. 207. 207. 207. 207. 207.
      207. 207. 207. 207. 207. 207. 207. 207. 207. 237. 141. 77. 46. 70.
      134. 163. 207. 207. 207. 207. 207. 207. 207. 207. 207. 207. 237.
      155. 100. 48. 54. 120. 160. 207. 207. 207. 207. 207. 207. 207.
      247. 143. 90. 54. 85. 138. 237. 237. 237. 237. 237. 237. 247. 207.
      128. 74. 68. 117. 153. 247. 237. 237. 237. 237. 237. 247. 247.
      237. 247. 247. 255. 255. 255. 255. 255. 157. 128. 59. 39. 54. 117.
      207. 237. 237. 237. 237. 237. 237. 237. 237. 237. 237. 237. 237.
      237. 237. 237. 155. 138. 131. 143. 157. 207. 207. 207. 207. 207.
      153. 139. 129. 126. 128. 124. 124. 126. 128. 126. 128. 134. 151.
      163. 207. 207. 207. 207. 207. 207. 207. 207. 207. 207. 207. 207.
      237. 237. 207. 207. 207. 207. 207. 207. 207. 207. 207. 207. 207.
      207. 207. 207. 207. 207. 207. 207. 207. 160. 149. 143. 150. 160.
      207. 207. 207. 207. 207. 207. 207. 207. 207. 207. 207. 207. 163.
      153. 144. 147. 155. 207. 207. 207. 207. 207. 207. 207. 207. 207.
      163. 157. 151. 155. 207. 237. 237. 237. 237. 237. 237. 237. 237.
      163. 155. 157. 207. 207. 237. 237. 237. 237. 237. 237. 247. 247.
      237. 247. 247. 255. 255. 255. 255. 255. 157. 128. 61. 40. 52. 116.
      207. 255. 247. 255. 255. 255. 255. 255. 255. 255. 255. 255. 255.
      255. 255. 255. 255. 247. 247. 247. 237. 237. 237. 237. 237. 237.
      237. 247. 247. 247. 255. 247. 255. 237. 237. 247. 237. 237. 237.
      207. 207. 207. 207. 207. 207. 207. 207. 207. 207. 207. 207. 207.
      207. 207. 207. 207. 207. 207. 207. 207. 207. 207. 207. 207. 207.
      207. 207. 207. 207. 207. 207. 207. 207. 207. 207. 207. 207. 207.
      207. 207. 207. 207. 207. 207. 207. 207. 207. 207. 237. 237. 237.
      237. 237. 237. 237. 237. 237. 237. 237. 237. 237. 237. 207. 237.
      207. 207. 247. 255. 255. 255. 255. 255. 255. 255. 255. 255. 255.
      255. 255. 255. 255. 247. 255. 255. 255. 255. 255. 255. 255. 255.
      255. 247. 255. 247. 255. 247. 247. 247. 140. 94. 58. 44. 47. 75.
      126. 140. 143. 147. 148. 148. 147. 147. 147. 144. 144. 144. 143.
      141. 141. 143. 147. 144. 143. 147. 147. 147. 144. 147. 148. 148.
      149. 148. 144. 143. 143. 144. 150. 153. 155. 155. 153. 151. 149.
      147. 144. 144. 148. 148. 144. 144. 147. 147. 144. 147. 147. 147.
      147. 147. 147. 147. 144. 144. 147. 147. 143. 143. 143. 143. 141.
      140. 140. 139. 139. 139. 139. 138. 138. 138. 138. 138. 136. 136.
      138. 138. 136. 136. 136. 135. 138. 138. 140. 143. 141. 140. 139.
      138. 138. 139. 139. 138. 134. 133. 132. 129. 123. 130. 141. 149.
      150. 148. 138. 131. 132. 132. 131. 131. 132. 130. 129. 128. 128.
      126. 124. 124. 124. 124. 126. 126. 126. 124. 124. 123. 123. 123.
      121. 121. 121. 120. 119. 112. 114. 96. 65. 55. 58. 49. 58. 53. 55.
      58. 60. 66. 77. 78. 80. 84. 80. 77. 77. 70. 65. 63. 63. 65. 66.
      70. 74. 74. 74. 74. 77. 80. 77. 78. 84. 82. 77. 74. 63. 56. 63.
      85. 90. 88. 86. 68. 55. 58. 70. 74. 78. 80. 80. 82. 82. 82. 80.
      80. 82. 80. 80. 80. 80. 80. 80. 80. 80. 82. 82. 82. 82. 78. 75.
      74. 72. 72. 74. 75. 77. 75. 70. 68. 68. 68. 66. 68. 72. 74. 72.
      72. 72. 68. 66. 75. 87. 92. 91. 88. 84. 78. 75. 77. 80. 80. 72.
      63. 59. 52. 49. 63. 88. 93. 94. 90. 63. 55. 59. 61. 63. 65. 65.
      63. 63. 63. 63. 63. 60. 61. 61. 61. 60. 60. 60. 58. 58. 58. 56.
      55. 53. 53. 53. 50. 47. 45. 45. 44. 47. 66. 82. 55. 92. 93. 72.
      55. 52. 55. 60. 65. 72. 75. 72. 70. 72. 68. 65. 66. 65. 61. 61.
      68. 77. 72. 68. 70. 77. 77. 70. 68. 80. 82. 77. 70. 58. 48. 49.
      58. 61. 60. 60. 50. 44. 47. 59. 66. 70. 72. 72. 72. 74. 70. 70.
      72. 68. 65. 68. 68. 66. 65. 66. 65. 66. 68. 72. 70. 68. 66. 63.
      61. 59. 61. 66. 72. 74. 72. 70. 68. 68. 66. 65. 63. 65. 68. 70.
      68. 65. 63. 63. 70. 84. 90. 91. 88. 85. 82. 82. 82. 84. 84. 80.
      75. 70. 63. 61. 77. 90. 90. 88. 84. 65. 63. 68. 72. 74. 82. 80.
      77. 80. 85. 86. 87. 87. 87. 88. 88. 85. 80. 78. 77. 77. 78. 77.
      75. 74. 75. 78. 75. 66. 63. 60. 70. 92. 98. 75. 45. 56. 91. 93.
      91. 88. 87. 87. 87. 87. 86. 85. 85. 86. 90. 93. 93. 90. 84. 77.
      80. 84. 84. 82. 85. 91. 93. 90. 87. 90. 90. 87. 87. 88. 84. 82.
      82. 78. 75. 77. 70. 70. 82. 90. 87. 86. 84. 80. 82. 82. 80. 78.
      78. 80. 80. 74. 70. 70. 75. 70. 75. 78. 70. 60. 57. 54. 52. 52.
      49. 51. 51. 49. 47. 47. 47. 48. 49. 50. 49. 47. 47. 48. 49. 48.
      48. 49. 49. 50. 54. 63. 75. 80. 78. 77. 78. 84. 88. 91. 91. 91.
      90. 90. 85. 82. 85. 85. 78. 74. 72. 63. 59. 58. 56. 55. 56. 58.
      57. 57. 57. 59. 61. 63. 60. 59. 58. 55. 50. 50. 53. 54. 54. 54.
      55. 55. 57. 58. 59. 59. 57. 58. 60. 63. 52. 38. 23. 24. 32. 38.
      42. 43. 43. 43. 42. 42. 41. 41. 41. 41. 43. 43. 43. 40. 37. 36.
      35. 36. 36. 37. 38. 43. 44. 43. 41. 39. 38. 38. 40. 42. 42. 42.
      40. 38. 38. 37. 36. 38. 43. 43. 41. 39. 37. 36. 36. 37. 37. 36.
      36. 37. 37. 35. 32. 33. 36. 34. 35. 36. 30. 26. 26. 24. 22. 22.
      22. 24. 24. 18. 14. 14. 14. 14. 15. 15. 15. 14. 15. 17. 17. 16.
      17. 17. 17. 19. 24. 29. 37. 38. 37. 35. 32. 31. 34. 36. 36. 36.
      35. 34. 33. 30. 30. 29. 28. 26. 26. 24. 22. 22. 21. 20. 19. 21.
      20. 20. 19. 20. 22. 22. 20. 19. 18. 17. 15. 15. 17. 17. 17. 17.
      17. 18. 18. 19. 19. 20. 19. 18. 19. 21. 18. 13. 11.</_>
    <_>
      93. 143. 169. 169. 169. 169. 169. 157. 169. 157. 157. 157. 169.
      157. 157. 143. 132. 132. 125. 132. 125. 132. 132. 125. 132. 132.
      125. 125. 125. 125. 125. 118. 125. 118. 110. 118. 132. 125. 132.
      125. 125. 132. 132. 132. 132. 125. 125. 125. 125. 125. 125. 125.
      125. 125. 125. 118. 118. 118. 118. 118. 118. 106. 106. 110. 118.
      118. 118. 118. 125. 125. 118. 125. 132. 118. 125. 125. 118. 125.
      125. 118. 118. 118. 125. 118. 110. 118. 110. 118. 110. 118. 118.
      118. 118. 118. 143. 157. 132. 118. 110. 110. 110. 110. 106. 106.
      106. 110. 110. 106. 106. 110. 110. 110. 110. 110. 118. 110. 110.
      110. 110. 110. 110. 118. 118. 118. 118. 118. 110. 118. 118. 110.
      110. 118. 125. 118. 118. 118. 118. 110. 118. 110. 118. 110. 88.
      46. 132. 169. 184. 184. 199. 199. 199. 184. 184. 199. 199. 209.
      209. 199. 199. 184. 169. 169. 199. 199. 199. 184. 169. 169. 169.
      169. 169. 157. 157. 169. 169. 169. 157. 157. 143. 143. 157. 143.
      143. 143. 143. 143. 143. 143. 143. 143. 157. 157. 143. 143. 143.
      143. 143. 157. 143. 143. 143. 143. 143. 157. 157. 143. 143. 143.
      143. 143. 143. 157. 143. 143. 143. 143. 143. 143. 143. 132. 132.
      143. 143. 143. 132. 143. 143. 157. 143. 132. 132. 132. 157. 143.
      157. 157. 157. 169. 248. 254. 239. 157. 132. 125. 125. 125. 125.
      118. 118. 118. 118. 118. 118. 118. 125. 118. 118. 118. 132. 132.
      125. 125. 118. 118. 118. 118. 125. 118. 118. 118. 118. 125. 125.
      143. 125. 125. 125. 125. 125. 125. 125. 132. 132. 132. 132. 132.
      106. 63. 157. 184. 199. 199. 199. 199. 199. 209. 184. 118. 118.
      110. 110. 110. 106. 132. 199. 209. 110. 94. 100. 143. 169. 169.
      169. 169. 169. 169. 169. 132. 93. 87. 101. 157. 157. 169. 157.
      157. 157. 169. 125. 110. 110. 118. 118. 118. 110. 110. 118. 110.
      125. 132. 157. 157. 157. 157. 157. 157. 157. 157. 157. 157. 157.
      157. 157. 157. 157. 157. 157. 157. 157. 143. 143. 143. 157. 143.
      157. 157. 143. 157. 106. 86. 87. 106. 199. 157. 143. 143. 143.
      157. 157. 157. 169. 125. 97. 87. 84. 86. 99. 125. 132. 125. 132.
      125. 143. 103. 93. 91. 91. 90. 88. 90. 90. 91. 91. 90. 88. 93.
      110. 132. 125. 125. 132. 125. 125. 125. 132. 106. 91. 87. 95. 118.
      132. 132. 132. 132. 132. 132. 132. 143. 143. 132. 118. 67. 143.
      199. 209. 199. 209. 199. 209. 199. 84. 49. 44. 45. 44. 42. 43. 73.
      97. 85. 54. 35. 52. 99. 199. 184. 184. 184. 184. 184. 199. 90. 39.
      34. 72. 132. 169. 169. 169. 169. 157. 88. 56. 52. 52. 54. 54. 54.
      52. 52. 50. 52. 77. 110. 169. 157. 184. 209. 184. 157. 169. 184.
      199. 184. 169. 157. 132. 157. 157. 157. 157. 157. 157. 157. 157.
      157. 157. 157. 157. 157. 157. 143. 80. 35. 34. 78. 157. 157. 157.
      157. 157. 157. 143. 132. 93. 67. 41. 39. 36. 34. 45. 77. 101. 143.
      132. 157. 118. 73. 37. 35. 35. 34. 33. 33. 33. 33. 33. 32. 32. 41.
      81. 132. 132. 143. 132. 132. 132. 125. 125. 77. 34. 29. 52. 101.
      143. 132. 132. 143. 143. 143. 143. 143. 143. 143. 110. 66. 157.
      199. 199. 209. 209. 209. 209. 209. 95. 75. 72. 72. 59. 30. 16. 44.
      74. 42. 28. 16. 37. 91. 199. 199. 199. 199. 209. 209. 132. 72. 25.
      21. 56. 118. 169. 169. 169. 199. 157. 70. 23. 10. 13. 13. 13. 10.
      13. 13. 10. 16. 43. 99. 169. 169. 95. 82. 94. 157. 169. 103. 82.
      90. 106. 79. 57. 85. 157. 169. 169. 169. 157. 157. 157. 157. 157.
      157. 169. 184. 169. 103. 50. 10. 21. 69. 132. 157. 157. 157. 157.
      157. 132. 86. 44. 26. 26. 28. 27. 16. 13. 27. 61. 100. 143. 143.
      99. 45. 7. 4. 3. 3. 1. 3. 1. 1. 3. 3. 1. 23. 73. 132. 143. 143.
      143. 132. 132. 143. 93. 37. 1. 16. 61. 125. 143. 132. 143. 143.
      143. 143. 143. 157. 143. 157. 118. 63. 157. 184. 199. 209. 199.
      209. 209. 209. 248. 251. 239. 184. 82. 33. 28. 72. 87. 59. 34. 18.
      38. 93. 209. 209. 199. 125. 103. 90. 69. 34. 18. 23. 57. 125. 184.
      184. 184. 184. 157. 77. 32. 30. 30. 30. 30. 29. 23. 16. 16. 18.
      49. 103. 184. 125. 56. 28. 59. 110. 157. 77. 31. 46. 84. 47. 23.
      63. 125. 184. 169. 169. 169. 169. 169. 169. 169. 169. 118. 100.
      85. 57. 27. 10. 25. 73. 157. 157. 157. 169. 169. 169. 99. 47. 25.
      25. 32. 46. 54. 38. 23. 10. 26. 73. 110. 157. 100. 45. 7. 7. 25.
      33. 35. 37. 37. 35. 27. 7. 4. 28. 79. 132. 143. 143. 143. 143.
      157. 125. 70. 18. 4. 37. 93. 184. 143. 143. 143. 143. 157. 157.
      157. 157. 157. 157. 118. 63. 143. 199. 209. 209. 209. 222. 222.
      222. 209. 157. 99. 75. 39. 28. 56. 97. 85. 43. 29. 18. 37. 91.
      209. 222. 103. 66. 43. 36. 27. 18. 18. 23. 59. 132. 184. 199. 199.
      199. 199. 103. 85. 84. 84. 85. 85. 79. 39. 10. 16. 31. 80. 157.
      199. 106. 46. 16. 45. 101. 143. 69. 21. 37. 79. 46. 21. 61. 125.
      184. 184. 184. 184. 184. 169. 169. 169. 95. 66. 43. 33. 23. 10.
      10. 25. 73. 169. 169. 184. 169. 184. 157. 80. 29. 18. 32. 74. 100.
      118. 88. 46. 21. 7. 40. 91. 184. 100. 45. 7. 16. 50. 88. 94. 95.
      94. 90. 49. 13. 7. 41. 93. 143. 157. 157. 143. 143. 169. 90. 37.
      1. 25. 72. 143. 169. 157. 143. 143. 157. 157. 157. 157. 157. 157.
      157. 118. 61. 143. 199. 222. 222. 222. 222. 239. 184. 84. 59. 45.
      40. 46. 77. 99. 157. 106. 84. 54. 32. 49. 99. 222. 239. 91. 36.
      13. 18. 16. 16. 18. 23. 59. 132. 199. 209. 209. 209. 209. 222.
      222. 209. 209. 239. 209. 88. 35. 10. 27. 69. 125. 199. 199. 118.
      47. 16. 44. 100. 143. 69. 18. 37. 80. 47. 21. 61. 125. 199. 199.
      199. 199. 199. 184. 184. 157. 80. 28. 7. 10. 7. 10. 10. 25. 77.
      184. 184. 184. 184. 169. 132. 61. 21. 25. 56. 118. 184. 184. 157.
      84. 32. 7. 29. 79. 169. 101. 45. 3. 18. 73. 157. 169. 169. 169.
      103. 46. 7. 21. 70. 125. 143. 143. 143. 143. 157. 118. 63. 16. 4.
      43. 95. 169. 157. 157. 132. 143. 143. 143. 132. 132. 132. 143.
      157. 110. 57. 132. 209. 222. 222. 222. 222. 222. 184. 86. 70. 69.
      69. 69. 63. 56. 56. 67. 77. 77. 79. 94. 169. 209. 239. 110. 74.
      56. 56. 49. 33. 18. 25. 61. 143. 199. 209. 222. 222. 209. 209.
      199. 199. 199. 209. 95. 44. 16. 23. 57. 106. 209. 199. 209. 118.
      46. 10. 42. 99. 125. 69. 21. 39. 81. 49. 21. 59. 125. 184. 199.
      199. 184. 184. 184. 184. 184. 91. 56. 44. 45. 42. 28. 10. 26. 77.
      184. 184. 184. 184. 169. 118. 50. 13. 26. 73. 169. 199. 184. 184.
      95. 41. 7. 28. 77. 169. 118. 74. 41. 46. 85. 143. 157. 157. 157.
      82. 28. 4. 33. 88. 157. 132. 143. 143. 143. 169. 87. 33. 1. 27.
      79. 157. 157. 157. 157. 143. 132. 125. 125. 118. 118. 118. 132.
      132. 110. 57. 132. 199. 209. 209. 222. 222. 239. 239. 199. 86. 49.
      39. 44. 52. 56. 54. 50. 43. 37. 45. 81. 143. 209. 222. 222. 184.
      157. 157. 118. 61. 18. 25. 63. 143. 199. 222. 222. 222. 222. 209.
      209. 209. 222. 125. 57. 23. 16. 42. 95. 199. 199. 199. 209. 125.
      49. 13. 30. 54. 66. 39. 16. 39. 82. 49. 18. 56. 125. 199. 199.
      199. 184. 184. 199. 199. 199. 184. 132. 125. 132. 97. 41. 4. 26.
      77. 184. 184. 184. 184. 199. 125. 54. 13. 23. 63. 132. 199. 199.
      199. 94. 40. 4. 29. 79. 169. 169. 132. 103. 106. 143. 169. 169.
      169. 125. 66. 16. 16. 54. 118. 169. 157. 157. 157. 169. 118. 54.
      13. 4. 47. 103. 169. 157. 157. 143. 143. 118. 110. 101. 95. 94.
      97. 101. 118. 103. 57. 118. 184. 184. 169. 184. 209. 239. 239.
      125. 54. 18. 34. 79. 118. 157. 157. 132. 88. 43. 21. 42. 97. 222.
      239. 239. 239. 222. 222. 184. 72. 21. 25. 61. 143. 209. 222. 222.
      222. 222. 222. 222. 222. 184. 79. 29. 13. 16. 47. 97. 184. 209.
      209. 209. 125. 50. 13. 13. 16. 16. 16. 13. 40. 84. 49. 16. 50.
      118. 199. 199. 199. 199. 199. 199. 199. 199. 199. 199. 209. 209.
      125. 45. 7. 26. 77. 184. 184. 199. 199. 199. 169. 74. 25. 18. 37.
      86. 157. 222. 132. 75. 30. 7. 38. 90. 184. 169. 169. 184. 184.
      184. 169. 169. 169. 99. 41. 3. 27. 78. 184. 169. 169. 169. 169.
      184. 86. 29. 3. 16. 57. 95. 118. 157. 169. 143. 143. 110. 97. 91.
      88. 87. 87. 90. 97. 99. 57. 106. 169. 209. 222. 110. 118. 209.
      239. 169. 79. 38. 32. 45. 69. 77. 77. 73. 56. 37. 35. 72. 118.
      222. 239. 239. 239. 239. 222. 199. 70. 21. 23. 59. 143. 209. 239.
      222. 222. 222. 239. 222. 239. 97. 38. 10. 13. 16. 26. 43. 84. 169.
      209. 209. 143. 50. 16. 23. 35. 39. 28. 13. 40. 85. 50. 10. 32. 73.
      125. 199. 199. 209. 209. 209. 199. 199. 209. 209. 209. 199. 125.
      46. 4. 26. 77. 184. 199. 199. 199. 199. 199. 95. 40. 13. 18. 38.
      69. 79. 63. 32. 13. 21. 69. 125. 199. 184. 184. 199. 184. 184.
      169. 184. 132. 79. 26. 4. 40. 94. 184. 184. 184. 169. 169. 118.
      56. 7. 3. 7. 26. 36. 47. 77. 103. 157. 132. 103. 90. 86. 99. 101.
      99. 94. 86. 87. 54. 103. 184. 254. 255. 254. 95. 118. 251. 251.
      222. 99. 80. 63. 52. 49. 49. 52. 66. 79. 94. 157. 239. 239. 239.
      239. 239. 239. 239. 209. 72. 21. 23. 59. 143. 222. 239. 222. 222.
      239. 239. 222. 239. 95. 45. 33. 31. 25. 13. 13. 36. 91. 222. 209.
      143. 52. 16. 39. 90. 100. 57. 18. 40. 85. 50. 7. 13. 36. 91. 199.
      209. 209. 222. 209. 209. 209. 209. 222. 209. 209. 125. 46. 7. 25.
      77. 199. 199. 209. 199. 199. 199. 184. 80. 30. 13. 18. 26. 28. 23.
      16. 7. 40. 95. 184. 184. 184. 184. 184. 184. 169. 184. 184. 106.
      54. 7. 18. 70. 143. 184. 184. 184. 184. 169. 81. 28. 3. 3. 1. 0.
      0. 1. 23. 47. 88. 125. 97. 84. 90. 110. 106. 97. 99. 88. 81. 49.
      100. 110. 254. 255. 255. 95. 99. 222. 95. 81. 99. 222. 222. 169.
      143. 143. 143. 97. 86. 100. 209. 239. 248. 248. 239. 239. 222.
      248. 209. 72. 21. 23. 59. 143. 222. 239. 239. 239. 239. 239. 239.
      239. 209. 106. 95. 91. 77. 34. 16. 21. 67. 157. 209. 143. 54. 16.
      43. 106. 169. 74. 21. 41. 85. 50. 10. 21. 43. 95. 209. 222. 222.
      222. 209. 209. 209. 222. 222. 209. 209. 132. 47. 7. 25. 77. 199.
      199. 199. 199. 209. 209. 169. 78. 29. 10. 13. 21. 21. 16. 13. 10.
      36. 90. 169. 184. 199. 199. 184. 184. 184. 184. 184. 87. 34. 3.
      32. 86. 199. 184. 184. 184. 184. 103. 47. 7. 3. 13. 32. 42. 34.
      21. 1. 10. 40. 86. 97. 86. 99. 125. 110. 103. 101. 95. 82. 46. 99.
      97. 125. 254. 254. 94. 132. 143. 61. 28. 56. 110. 248. 248. 248.
      251. 169. 63. 31. 61. 157. 251. 239. 239. 239. 239. 239. 239. 209.
      73. 21. 23. 59. 157. 222. 239. 239. 239. 239. 239. 222. 239. 248.
      248. 248. 251. 209. 75. 27. 13. 44. 101. 222. 157. 52. 13. 42.
      103. 169. 73. 21. 40. 84. 49. 13. 40. 86. 169. 222. 222. 222. 222.
      222. 222. 222. 222. 222. 222. 209. 143. 49. 7. 26. 77. 184. 209.
      209. 222. 209. 222. 91. 38. 13. 16. 36. 57. 66. 49. 29. 10. 18.
