<?xml version="1.0"?>
<opencv_storage>
<opencv_ml_svm>
  <format>3</format>
  <svmType>C_SVC</svmType>
  <kernel>
    <type>LINEAR</type></kernel>
  <C>1.</C>
  <term_criteria><iterations>1000</iterations></term_criteria>
  <var_count>1600</var_count>
  <class_count>10</class_count>
  <class_labels type_id="opencv-matrix">
    <rows>10</rows>
    <cols>1</cols>
    <dt>i</dt>
    <data>
      0 1 2 3 4 5 6 7 8 9</data></class_labels>
  <sv_total>45</sv_total>
  <support_vectors>
    <_>
      3.38813179e-21 -9.70265319e-07 -3.99194869e-06 -6.98590975e-06
      -7.06907531e-06 -7.06907531e-06 -7.06907531e-06 -7.06907531e-06
      -7.06907531e-06 -7.42208022e-06 -9.54010920e-06 -1.16360752e-05
      -1.26950899e-05 -1.26950899e-05 -1.26950899e-05 -1.37652260e-05
      -1.50360138e-05 -1.61061489e-05 -1.61061489e-05 -1.61061489e-05
      -1.61061489e-05 -1.61061489e-05 -1.61061489e-05 -1.35532791e-05
      -1.09936736e-05 -7.90024296e-06 -2.54078327e-06 3.01580803e-06
      4.81058487e-06 5.43072974e-06 5.66568133e-06 6.24127188e-06
      6.97653741e-06 7.51865400e-06 8.43736052e-06 1.14590439e-05
      1.43698398e-05 1.43698398e-05 1.43698398e-05 1.43698398e-05
      3.38813179e-21 -9.70265319e-07 -3.96422683e-06 -6.98590975e-06
      -7.32088847e-06 -7.81356630e-06 -8.31719262e-06 -8.77887214e-06
      -9.24039250e-06 -9.93233243e-06 -1.16760530e-05 -1.34429429e-05
      -1.43136713e-05 -1.43136713e-05 -1.43136713e-05 -1.48754925e-05
      -1.55443286e-05 -1.61061489e-05 -1.61061489e-05 -1.61061489e-05
      -1.60769632e-05 -1.60208347e-05 -1.58625699e-05 -1.30424905e-05
      -1.02211179e-05 -7.08080051e-06 -2.82103292e-06 1.42121849e-06
      2.47228650e-06 2.84364796e-06 2.97732731e-06 4.28958265e-06
      5.86137094e-06 7.21213110e-06 8.04315732e-06 9.94123275e-06
      1.16336514e-05 1.27254980e-05 1.39262893e-05 1.43698398e-05
      -4.43549823e-07 -1.38026815e-06 -4.31155740e-06 -7.27056840e-06
      -7.98889687e-06 -9.11689312e-06 -1.02558388e-05 -1.12858488e-05
      -1.22829579e-05 -1.33104186e-05 -1.44206851e-05 -1.55443286e-05
      -1.61061489e-05 -1.59559804e-05 -1.58058119e-05 -1.55566213e-05
      -1.53409583e-05 -1.51328422e-05 -1.51238619e-05 -1.51171262e-05
      -1.50439155e-05 -1.49105254e-05 -1.45574395e-05 -1.15815174e-05
      -8.60422824e-06 -5.61365732e-06 -2.83712757e-06 -2.74437042e-07
      -8.50686348e-08 0. 0. 1.80845564e-06 3.95295592e-06 5.93020604e-06
      6.72508259e-06 7.29908515e-06 7.56249392e-06 1.03399552e-05
      1.33630274e-05 1.43698398e-05 -4.85132614e-06 -5.30085981e-06
      -7.13984309e-06 -8.96919937e-06 -1.03666034e-05 -1.22436941e-05
      -1.41098362e-05 -1.47125666e-05 -1.50565693e-05 -1.53838082e-05
      -1.56780952e-05 -1.59590054e-05 -1.61061489e-05 -1.43541802e-05
      -1.26022096e-05 -1.03116154e-05 -7.83022551e-06 -5.45961893e-06
      -5.37205824e-06 -5.28225291e-06 -5.13837131e-06 -4.93997413e-06
      -4.51963615e-06 -3.08455856e-06 -1.66258610e-06 -4.60714659e-07
      -5.56451374e-09 2.21902553e-07 -2.83562116e-08 0. 0.
      4.80131234e-07 1.04116509e-06 1.72448244e-06 2.68720055e-06
      3.43070747e-06 4.48352603e-06 8.67793278e-06 1.31313291e-05
      1.43698398e-05 -2.95234418e-06 -3.28729743e-06 -5.28099736e-06
      -7.25169321e-06 -8.93957713e-06 -1.03118527e-05 -1.16939209e-05
      -1.19220358e-05 -1.19220358e-05 -1.19220358e-05 -1.19220358e-05
      -1.18936796e-05 -1.14416862e-05 -8.32230126e-06 -4.78708944e-06
      -1.56626163e-06 9.19178831e-07 3.29733393e-06 3.48246635e-06
      3.75387140e-06 4.05958554e-06 4.40546592e-06 4.78134007e-06
      4.79511664e-06 4.73389537e-06 3.73623016e-06 2.26990028e-06
      1.09683549e-06 6.36556308e-07 3.42761069e-07 4.89658696e-08 0. 0.
      1.92350356e-07 1.21029859e-06 2.11114434e-06 3.61442790e-06
      7.67468373e-06 1.18474627e-05 1.28874690e-05 4.95341465e-06
      4.42430019e-06 1.28380634e-06 -1.82403869e-06 -3.39708936e-06
      -3.42180306e-06 -3.46694401e-06 -3.47673722e-06 -3.47673722e-06
      -3.46578895e-06 -3.38915015e-06 -3.21649418e-06 -1.99227202e-06
      1.90452567e-06 7.01860881e-06 1.01365276e-05 1.04579804e-05
      1.07463566e-05 1.09596085e-05 1.13680790e-05 1.17824047e-05
      1.21962921e-05 1.24099588e-05 1.15314224e-05 1.04797018e-05
      7.30537249e-06 4.27642954e-06 2.46724835e-06 1.89987566e-06
      1.02828324e-06 1.46897605e-07 0. 0. 1.68189672e-07 1.15675209e-06
      2.15626301e-06 3.79290418e-06 6.29715714e-06 8.78555693e-06
      9.22646632e-06 4.48469746e-06 4.07018570e-06 1.70687895e-06
      -4.65701191e-07 -1.40015868e-06 -1.08694201e-06 -9.30333613e-07
      -9.30333613e-07 -9.30333613e-07 -7.02886837e-07 6.32911963e-07
      3.56032297e-06 6.40052895e-06 8.74366287e-06 1.09231951e-05
      1.29902537e-05 1.39172971e-05 1.46931461e-05 1.47544279e-05
      1.48701820e-05 1.49927446e-05 1.51084987e-05 1.51697805e-05
      1.48654963e-05 1.45055283e-05 1.28479851e-05 9.81509675e-06
      6.61719969e-06 3.84402711e-06 1.88028935e-06 1.46897605e-06
      9.69524194e-07 4.40692816e-07 4.37935945e-08 3.39400373e-07
      6.24058714e-07 1.85697036e-06 4.01607258e-06 6.19966568e-06
      6.56238399e-06 3.54151484e-06 3.25105702e-06 1.65786798e-06
      1.90467489e-07 -4.08543599e-07 -1.36181200e-07 0. 3.28451961e-07
      8.61203659e-07 2.04818070e-06 4.31671151e-06 8.31246962e-06
      1.18547177e-05 1.34174325e-05 1.38989935e-05 1.46347120e-05
      1.54373138e-05 1.61061489e-05 1.61061489e-05 1.61061489e-05
      1.61061489e-05 1.61061489e-05 1.61061489e-05 1.61061489e-05
      1.61061489e-05 1.58417588e-05 1.42554145e-05 1.13397427e-05
      7.13908184e-06 3.51891367e-06 2.64320988e-06 1.71380543e-06
      7.73660702e-07 0. 0. 0. 9.70875931e-07 2.90035814e-06
      4.83231679e-06 5.15594229e-06 2.49725940e-06 2.34056847e-06
      1.40042380e-06 4.70072337e-07 0. 0. 0. 8.64923493e-07
      2.55357259e-06 6.04679917e-06 9.58232158e-06 1.14245477e-05
      1.31545585e-05 1.46480888e-05 1.58921230e-05 1.61061489e-05
      1.61061489e-05 1.61061489e-05 1.61061489e-05 1.61061489e-05
      1.61061489e-05 1.61061489e-05 1.61061489e-05 1.61061489e-05
      1.61061489e-05 1.60850104e-05 1.59581723e-05 1.45020058e-05
      1.02770200e-05 5.22167102e-06 2.88646106e-06 1.71380543e-06
      7.73660702e-07 0. 0. 0. 6.77080720e-07 2.01897251e-06
      3.37313395e-06 3.59882756e-06 -3.81419954e-06 -3.97089025e-06
      -4.91103492e-06 -5.84138661e-06 -6.31145895e-06 -6.31145895e-06
      -6.31145895e-06 -5.32937884e-06 -3.35897130e-06 9.58335363e-07
      5.95023630e-06 8.18978970e-06 9.35215121e-06 9.76682895e-06
      1.01815067e-05 1.02483900e-05 1.02483900e-05 1.02483900e-05
      1.02483900e-05 1.02483900e-05 1.02775775e-05 1.03337052e-05
      1.03898337e-05 1.15972571e-05 1.27523790e-05 1.38364412e-05
      1.48873223e-05 1.45561762e-05 1.03311904e-05 5.25073801e-06
      2.89042464e-06 1.71380543e-06 7.83453913e-07 0. 0. 0.
      5.75729871e-07 1.71756244e-06 2.86902218e-06 3.06137258e-06
      -1.24377320e-05 -1.25944225e-05 -1.35345672e-05 -1.44649193e-05
      -1.49349917e-05 -1.49349917e-05 -1.49349917e-05 -1.37922707e-05
      -1.16290776e-05 -7.08125617e-06 -1.63297898e-06 1.01395392e-06
      2.13932049e-06 2.13932049e-06 2.13932049e-06 2.13932049e-06
      2.13932049e-06 2.13932049e-06 2.20741094e-06 2.35040125e-06
      2.55850068e-06 2.82946371e-06 3.02777244e-06 5.70861584e-06
      8.38272445e-06 1.09478342e-05 1.34864331e-05 1.46997545e-05
      1.04922938e-05 5.33926050e-06 2.90363687e-06 1.71380543e-06
      7.73660702e-07 0. 0. 0. 3.92940564e-07 1.18844889e-06
      1.97300892e-06 2.10719804e-06 -1.35680357e-05 -1.37247271e-05
      -1.46648717e-05 -1.55952239e-05 -1.60652962e-05 -1.60652962e-05
      -1.60652962e-05 -1.50339101e-05 -1.30082190e-05 -8.56133101e-06
      -3.27993894e-06 -7.47228853e-07 3.64925342e-07 3.64925342e-07
      3.64925342e-07 3.64925342e-07 3.64925342e-07 3.64925342e-07
      5.76006187e-07 1.00497698e-06 1.49224775e-06 2.04238245e-06
      2.38368148e-06 5.06452488e-06 7.74673481e-06 1.04575902e-05
      1.31724955e-05 1.45527010e-05 1.04897517e-05 5.36832749e-06
      2.90760067e-06 1.71380543e-06 7.83453913e-07 0. 0. 0.
      3.34123143e-07 1.01331784e-06 1.67177086e-06 1.77949585e-06
      -1.36088902e-05 -1.37655816e-05 -1.47057262e-05 -1.56360766e-05
      -1.61061489e-05 -1.61061489e-05 -1.61061489e-05 -1.51245795e-05
      -1.31827528e-05 -8.80878088e-06 -3.61368120e-06 -1.11215422e-06
      3.38813179e-21 3.38813179e-21 3.38813179e-21 3.38813179e-21
      3.38813179e-21 3.38813179e-21 8.17087198e-08 2.45126159e-07
      4.73652648e-07 7.65043069e-07 1.11315103e-06 4.05954779e-06
      7.01817089e-06 1.00783554e-05 1.29983073e-05 1.44514297e-05
      1.03144976e-05 4.90463071e-06 2.17311253e-06 1.18497405e-06
      5.38624533e-07 0. 0. 0. 4.70072337e-07 1.40042380e-06
      2.34056847e-06 2.49725940e-06 -1.36088902e-05 -1.37655816e-05
      -1.47057262e-05 -1.56360766e-05 -1.61061489e-05 -1.61061489e-05
      -1.61061489e-05 -1.51245795e-05 -1.31550305e-05 -8.80878088e-06
      -3.61368120e-06 -1.11215422e-06 3.38813179e-21 3.38813179e-21
      3.38813179e-21 3.38813179e-21 3.38813179e-21 3.38813179e-21
      3.38813179e-21 3.38813179e-21 6.51090488e-08 1.93082016e-07
      5.41190047e-07 3.65781329e-06 6.77304479e-06 9.99664644e-06
      1.29983073e-05 1.44554806e-05 1.00207026e-05 4.02192381e-06
      7.13929694e-07 1.07724908e-07 4.89658696e-08 0. 0. 0.
      4.70072337e-07 1.40042380e-06 2.34056847e-06 2.49725940e-06
      -1.36088902e-05 -1.37655816e-05 -1.47057262e-05 -1.56360766e-05
      -1.61061489e-05 -1.61061489e-05 -1.61061489e-05 -1.51368495e-05
      -1.31550305e-05 -8.80878088e-06 -3.60388799e-06 -1.11215422e-06
      3.38813179e-21 3.38813179e-21 3.38813179e-21 3.38813179e-21
      3.38813179e-21 3.38813179e-21 3.38813179e-21 3.38813179e-21
      1.29923251e-07 3.87524608e-07 8.67066774e-07 4.11556357e-06
      7.35508002e-06 1.04381934e-05 1.33102258e-05 1.46337188e-05
      1.00399338e-05 3.94357858e-06 5.67032089e-07 0. 0. 0. 0. 0.
      4.83284623e-07 1.43873945e-06 2.40398754e-06 2.56464205e-06
      -1.36088902e-05 -1.37655816e-05 -1.47057262e-05 -1.56360766e-05
      -1.61061489e-05 -1.61061489e-05 -1.61061489e-05 -1.51259010e-05
      -1.31550305e-05 -8.80878088e-06 -3.61368120e-06 -1.11215422e-06
      3.38813179e-21 3.38813179e-21 3.38813179e-21 3.38813179e-21
      3.38813179e-21 3.38813179e-21 3.38813179e-21 3.38813179e-21
      1.82584785e-07 5.41458348e-07 1.12451778e-06 4.47204184e-06
      7.79386846e-06 1.07825190e-05 1.35532791e-05 1.47754999e-05
      1.00804427e-05 3.93378514e-06 5.67032089e-07 0. 0. 0. 0. 0.
      5.20279059e-07 1.55236523e-06 2.59292324e-06 2.76679020e-06
      -1.36088902e-05 -1.37655816e-05 -1.47057262e-05 -1.56360766e-05
      -1.61061489e-05 -1.61061489e-05 -1.61061489e-05 -1.51245795e-05
      -1.31550305e-05 -8.80878088e-06 -3.61368120e-06 -1.11215422e-06
      3.38813179e-21 3.38813179e-21 3.38813179e-21 3.38813179e-21
      3.38813179e-21 3.38813179e-21 3.38813179e-21 3.38813179e-21
      1.82584785e-07 5.41458348e-07 1.12451778e-06 4.47204184e-06
      7.79386846e-06 1.07825190e-05 1.35532791e-05 1.47754999e-05
      1.00804427e-05 3.93378514e-06 5.67032089e-07 0. 0. 0. 0. 0.
      5.33491345e-07 1.58935961e-06 2.65634230e-06 2.83417285e-06
      -1.36088902e-05 -1.37655816e-05 -1.47057262e-05 -1.56360766e-05
      -1.61061489e-05 -1.61061489e-05 -1.61061489e-05 -1.51355280e-05
      -1.31550305e-05 -8.80878088e-06 -3.60388799e-06 -1.11215422e-06
      3.38813179e-21 3.38813179e-21 3.38813179e-21 3.38813179e-21
      3.38813179e-21 3.38813179e-21 3.38813179e-21 3.38813179e-21
      1.82584785e-07 5.41458348e-07 1.11822180e-06 4.47204184e-06
      7.80067785e-06 1.07825190e-05 1.35532791e-05 1.47754999e-05
      1.00804427e-05 3.94489962e-06 5.67032089e-07 0. 0. 0. 0. 0.
      5.33491345e-07 1.58935961e-06 2.65634230e-06 2.83417285e-06
      -1.36088902e-05 -1.37655816e-05 -1.47057262e-05 -1.56360766e-05
      -1.61061489e-05 -1.61061489e-05 -1.61061489e-05 -1.51245795e-05
      -1.31550305e-05 -8.80878088e-06 -3.60030458e-06 -1.11215422e-06
      3.38813179e-21 3.38813179e-21 3.38813179e-21 3.38813179e-21
      3.38813179e-21 3.38813179e-21 3.38813179e-21 3.38813179e-21
      1.82584785e-07 5.41458348e-07 1.12451778e-06 4.47204184e-06
      7.80067785e-06 1.07825190e-05 1.35532791e-05 1.47754999e-05
      1.00804427e-05 3.95811048e-06 5.67032089e-07 0. 0. 0. 0. 0.
      5.33491345e-07 1.58935961e-06 2.65634230e-06 2.83417285e-06
      -1.36088902e-05 -1.37655816e-05 -1.47057262e-05 -1.56360766e-05
      -1.61061489e-05 -1.61061489e-05 -1.61061489e-05 -1.51259010e-05
      -1.31827528e-05 -8.80878088e-06 -3.60030458e-06 -1.11215422e-06
      3.38813179e-21 3.38813179e-21 3.38813179e-21 3.38813179e-21
      3.38813179e-21 3.38813179e-21 3.38813179e-21 3.38813179e-21
      1.82584785e-07 5.41458348e-07 1.12451778e-06 4.47204184e-06
      7.80067785e-06 1.07825190e-05 1.35532791e-05 1.47754999e-05
      1.00804427e-05 3.95811048e-06 5.67032089e-07 0. 0. 0. 0. 0.
      5.33491345e-07 1.58935961e-06 2.65634230e-06 2.83417285e-06
      -1.36088902e-05 -1.37655816e-05 -1.47057262e-05 -1.56360766e-05
      -1.61061489e-05 -1.61061489e-05 -1.61061489e-05 -1.51259010e-05
      -1.31827528e-05 -8.80878088e-06 -3.60030458e-06 -1.11215422e-06
      3.38813179e-21 3.38813179e-21 3.38813179e-21 3.38813179e-21
      3.38813179e-21 3.38813179e-21 3.38813179e-21 3.38813179e-21
      1.82584785e-07 5.41458348e-07 1.12451778e-06 4.47204184e-06
      7.80067785e-06 1.07825190e-05 1.35532791e-05 1.47754999e-05
      1.00804427e-05 3.95811048e-06 5.67032089e-07 0. 0. 0. 0. 0.
      5.33491345e-07 1.58935961e-06 2.65634230e-06 2.83417285e-06
      -1.36088902e-05 -1.37655816e-05 -1.47057262e-05 -1.56360766e-05
      -1.61061489e-05 -1.61061489e-05 -1.61061489e-05 -1.51245795e-05
      -1.31550305e-05 -8.80878088e-06 -3.60030458e-06 -1.11215422e-06
      3.38813179e-21 3.38813179e-21 3.38813179e-21 3.38813179e-21
      3.38813179e-21 3.38813179e-21 3.38813179e-21 3.38813179e-21
      1.82584785e-07 5.41458348e-07 1.12451778e-06 4.47204184e-06
      7.80067785e-06 1.07825190e-05 1.35532791e-05 1.47754999e-05
      1.00804427e-05 3.95811048e-06 5.67032089e-07 0. 0. 0. 0. 0.
      5.33491345e-07 1.58935961e-06 2.65634230e-06 2.83417285e-06
      -1.36088902e-05 -1.37655816e-05 -1.47057262e-05 -1.56360766e-05
      -1.61061489e-05 -1.61061489e-05 -1.61061489e-05 -1.51355280e-05
      -1.31550305e-05 -8.80878088e-06 -3.60388799e-06 -1.11215422e-06
      3.38813179e-21 3.38813179e-21 3.38813179e-21 3.38813179e-21
      3.38813179e-21 3.38813179e-21 3.38813179e-21 3.38813179e-21
      1.82584785e-07 5.41458348e-07 1.11822180e-06 4.47204184e-06
      7.80067785e-06 1.07825190e-05 1.35532791e-05 1.47754999e-05
      1.01461328e-05 4.14197075e-06 8.95484050e-07 2.40864779e-07
      1.09483985e-07 0. 0. 0. 5.33491345e-07 1.58935961e-06
      2.65634230e-06 2.83417285e-06 -1.36088902e-05 -1.37655816e-05
      -1.47057262e-05 -1.56360766e-05 -1.61061489e-05 -1.61061489e-05
      -1.61061489e-05 -1.51245795e-05 -1.31550305e-05 -8.80878088e-06
      -3.61368120e-06 -1.11215422e-06 3.38813179e-21 3.38813179e-21
      3.38813179e-21 3.38813179e-21 3.38813179e-21 3.38813179e-21
      3.38813179e-21 3.38813179e-21 1.82584785e-07 5.41458348e-07
      1.12451778e-06 4.47204184e-06 7.79386846e-06 1.07825190e-05
      1.35532791e-05 1.47754999e-05 1.04855335e-05 5.16000591e-06
      2.59248600e-06 1.48898221e-06 6.78800745e-07 0. 0. 0.
      5.33491345e-07 1.58935961e-06 2.65634230e-06 2.83417285e-06
      -1.36088902e-05 -1.37655816e-05 -1.47057262e-05 -1.56360766e-05
      -1.61061489e-05 -1.61061489e-05 -1.61061489e-05 -1.54981462e-05
      -1.39652120e-05 -9.92551759e-06 -4.28153362e-06 -1.33112212e-06
      3.38813179e-21 3.38813179e-21 3.38813179e-21 3.38813179e-21
      3.38813179e-21 3.38813179e-21 3.38813179e-21 3.38813179e-21
      1.82584785e-07 5.41458348e-07 1.12451778e-06 4.47204184e-06
      7.79386846e-06 1.07825190e-05 1.35532791e-05 1.47754999e-05
      1.06059661e-05 5.51035464e-06 3.18369939e-06 1.91596973e-06
      8.75871876e-07 0. 0. 0. 5.33491345e-07 1.58935961e-06
      2.65634230e-06 2.83417285e-06 -1.47057262e-05 -1.47938645e-05
      -1.53129022e-05 -1.58417333e-05 -1.61061489e-05 -1.61061489e-05
      -1.61061489e-05 -1.60017735e-05 -1.50710002e-05 -1.14254481e-05
      -5.18045726e-06 -1.63767731e-06 3.38813179e-21 3.38813179e-21
      3.38813179e-21 3.38813179e-21 3.38813179e-21 3.38813179e-21
      3.38813179e-21 3.38813179e-21 1.82584785e-07 5.41458348e-07
      1.11822180e-06 4.47204184e-06 7.80067785e-06 1.07825190e-05
      1.35532791e-05 1.47754999e-05 1.06059661e-05 5.52014808e-06
      3.18369939e-06 1.91596973e-06 8.64923493e-07 -1.62035487e-08
      -1.17475736e-07 -2.18747914e-07 2.13471239e-07 1.16401645e-06
      2.20264292e-06 2.38047346e-06 -1.61061489e-05 -1.61061489e-05
      -1.61061489e-05 -1.61061489e-05 -1.61061489e-05 -1.61061489e-05
      -1.59952615e-05 -1.56955102e-05 -1.46828943e-05 -1.12313955e-05
      -5.16252885e-06 -1.63767731e-06 3.38813179e-21 3.38813179e-21
      3.38813179e-21 3.38813179e-21 3.38813179e-21 3.38813179e-21
      3.38813179e-21 3.38813179e-21 1.82584785e-07 5.41458348e-07
      1.12451778e-06 4.47204184e-06 7.79386846e-06 1.07825190e-05
      1.35532791e-05 1.47754999e-05 1.06059661e-05 5.51035464e-06
      3.18369939e-06 1.91596973e-06 8.75871876e-07 -3.64579869e-08
      -2.71409448e-07 -5.02310058e-07 -2.03770156e-07 6.21197557e-07
      1.62336607e-06 1.80119650e-06 -1.61061489e-05 -1.61061489e-05
      -1.61061489e-05 -1.61061489e-05 -1.61061489e-05 -1.61061489e-05
      -1.48309437e-05 -1.26461055e-05 -1.07741116e-05 -9.17997750e-06
      -4.99619773e-06 -1.63767731e-06 3.38813179e-21 3.38813179e-21
      3.38813179e-21 3.38813179e-21 3.38813179e-21 3.38813179e-21
      3.38813179e-21 3.38813179e-21 1.82584785e-07 5.41458348e-07
      1.12451778e-06 4.47204184e-06 7.79386846e-06 1.07825190e-05
      1.35532791e-05 1.47754999e-05 1.06059661e-05 5.51167614e-06
      3.18369939e-06 1.91596973e-06 8.75871876e-07 -3.64579869e-08
      -2.71409448e-07 -5.02310058e-07 -2.03770156e-07 6.21197557e-07
      1.62336607e-06 1.80119650e-06 -1.61061489e-05 -1.61061489e-05
      -1.61061489e-05 -1.61061489e-05 -1.51913282e-05 -1.42487852e-05
      -1.26131945e-05 -1.05194977e-05 -8.94458844e-06 -8.34452567e-06
      -5.00233273e-06 -1.67599296e-06 3.38813179e-21 3.38813179e-21
      3.38813179e-21 3.38813179e-21 3.38813179e-21 3.38813179e-21
      3.38813179e-21 3.38813179e-21 1.82584785e-07 5.41458348e-07
      1.12451778e-06 4.47204184e-06 7.80067785e-06 1.07693068e-05
      1.34647571e-05 1.46103466e-05 1.04421333e-05 5.43653005e-06
      3.17048716e-06 1.91596973e-06 8.64923493e-07 -4.31934062e-08
      -3.18557397e-07 -5.89870467e-07 -3.31743109e-07 4.52812088e-07
      1.44375485e-06 1.62158528e-06 -1.61061489e-05 -1.61061489e-05
      -1.61061489e-05 -1.61061489e-05 -1.33616850e-05 -1.05617764e-05
      -9.36973629e-06 -9.17568377e-06 -9.03707405e-06 -8.47004230e-06
      -5.07896402e-06 -1.70109638e-06 3.38813179e-21 3.38813179e-21
      3.38813179e-21 3.38813179e-21 3.38813179e-21 3.38813179e-21
      3.38813179e-21 3.38813179e-21 1.82584785e-07 5.41458348e-07
      1.12451778e-06 4.47204184e-06 7.79386846e-06 1.07613796e-05
      1.34053016e-05 1.45020058e-05 1.03324710e-05 5.37707501e-06
      3.16255978e-06 1.91596973e-06 8.75871876e-07 -5.66642449e-08
      -4.12853268e-07 -7.62746254e-07 -5.85443900e-07 1.18286259e-07
      1.08677762e-06 1.26460816e-06 -9.83278187e-06 -9.97566258e-06
      -1.08341010e-05 -1.17023328e-05 -1.08667173e-05 -9.53606741e-06
      -1.00905054e-05 -1.17815389e-05 -1.30013013e-05 -1.24342687e-05
      -9.03339696e-06 -4.14062060e-06 -7.48490322e-07 3.38813179e-21
      3.38813179e-21 3.38813179e-21 3.38813179e-21 3.38813179e-21
      3.38813179e-21 3.38813179e-21 1.82584785e-07 5.41458348e-07
      1.05013123e-06 4.26096085e-06 7.44660656e-06 8.87359420e-06
      9.40499558e-06 1.00359593e-05 7.67272650e-06 4.82383939e-06
      3.09567622e-06 1.91596973e-06 8.75871876e-07 -5.66642449e-08
      -4.21833818e-07 -7.80707353e-07 -3.36618541e-07 2.45979186e-06
      5.53174959e-06 6.30317891e-06 -3.81366362e-06 -4.14552869e-06
      -6.10387451e-06 -8.05242689e-06 -9.59151112e-06 -1.01459491e-05
      -1.18647049e-05 -1.43042289e-05 -1.61061489e-05 -1.55684975e-05
      -1.23439031e-05 -6.93435641e-06 -2.79373603e-06 -1.53630617e-06
      -1.36002905e-06 -1.33064952e-06 -1.33064952e-06 -1.33064952e-06
      -1.33064952e-06 -1.33064952e-06 -1.14806471e-06 -7.89191176e-07
      -4.17212533e-07 2.50814969e-06 5.40781457e-06 5.76922639e-06
      4.54650490e-06 4.62414710e-06 3.87073578e-06 3.51206972e-06
      2.91915285e-06 1.91596973e-06 8.64923493e-07 -6.29602681e-08
      -4.21833818e-07 -7.80707353e-07 9.94851419e-08 5.03447473e-06
      1.02664380e-05 1.16285610e-05 -3.74797332e-06 -4.07983862e-06
      -6.07102947e-06 -8.04147840e-06 -1.14211543e-05 -1.38606783e-05
      -1.51358845e-05 -1.56903225e-05 -1.61061489e-05 -1.59096799e-05
      -1.47308610e-05 -1.30266480e-05 -1.07954393e-05 -8.33236209e-06
      -6.10898815e-06 -5.73842590e-06 -5.73842590e-06 -5.73842590e-06
      -5.73842590e-06 -5.73842590e-06 -5.55584120e-06 -5.19696778e-06
      -4.83179792e-06 -1.92005405e-06 9.72801899e-07 2.71964450e-06
      2.73337650e-06 3.26670806e-06 2.19165372e-06 1.79425251e-06
      1.17896138e-06 7.22594336e-07 3.28451961e-07 -6.29602681e-08
      -4.21833818e-07 -7.80707353e-07 1.12861848e-07 5.07460481e-06
      1.03466982e-05 1.17088211e-05 -2.60945581e-06 -2.89569425e-06
      -4.61644640e-06 -6.32382171e-06 -1.04326327e-05 -1.41502878e-05
      -1.59938045e-05 -1.61061489e-05 -1.61061489e-05 -1.60982217e-05
      -1.60466952e-05 -1.59964875e-05 -1.48555901e-05 -1.26483264e-05
      -1.04508563e-05 -9.53566450e-06 -8.90321098e-06 -8.29950659e-06
      -6.73689919e-06 -5.22434766e-06 -4.11442170e-06 -3.42679414e-06
      -2.67573364e-06 -1.03104708e-06 7.60570572e-07 1.90087439e-06
      1.74212312e-06 1.84284613e-06 9.88590045e-07 6.68930397e-07
      1.31380787e-07 0. 0. 2.51002650e-08 6.45547630e-07 2.10394705e-06
      4.35611037e-06 7.81645758e-06 1.15668854e-05 1.24752087e-05
      -2.54157385e-07 -4.86896056e-07 -1.86752288e-06 -3.27115367e-06
      -7.81859035e-06 -1.27548255e-05 -1.57852337e-05 -1.61061489e-05
      -1.61061489e-05 -1.61061489e-05 -1.61061489e-05 -1.61061489e-05
      -1.60088493e-05 -1.58385737e-05 -1.56682981e-05 -1.38439154e-05
      -1.17033060e-05 -9.75635066e-06 -6.32209458e-06 -2.89763148e-06
      -7.50751326e-07 9.88735493e-08 9.58377996e-07 9.69703365e-07
      1.30968874e-06 1.13208614e-06 2.92880003e-07 -3.39384599e-07
      -4.71686320e-07 -1.30302723e-07 1.09483986e-08 7.01055356e-08
      1.53967946e-07 3.31482823e-07 2.07491553e-06 5.72084582e-06
      9.88118245e-06 1.17675036e-05 1.39143904e-05 1.42926438e-05
      3.38813179e-21 -2.35166951e-07 -1.64616870e-06 -3.04247237e-06
      -7.65436471e-06 -1.26672385e-05 -1.57742852e-05 -1.61061489e-05
      -1.61061489e-05 -1.61061489e-05 -1.61061489e-05 -1.61061489e-05
      -1.61061489e-05 -1.61061489e-05 -1.61061489e-05 -1.52790963e-05
      -1.43060925e-05 -1.34300726e-05 -1.05834069e-05 -7.73674128e-06
      -5.26882013e-06 -3.19931610e-06 -1.11013946e-06 -8.93868673e-07
      -5.53883240e-07 -6.19573598e-07 -8.50568028e-07 -8.63672540e-07
      -6.53669758e-07 -2.17889919e-07 0. 6.23183212e-07 1.36994618e-06
      2.09999189e-06 3.92603624e-06 7.64346350e-06 1.15168041e-05
      1.27330968e-05 1.42318513e-05 1.45006625e-05 3.38813179e-21
      -1.73732758e-07 -1.25229576e-06 -2.31880313e-06 -5.73646457e-06
      -9.53870040e-06 -1.26345140e-05 -1.43550051e-05 -1.56219703e-05
      -1.61061489e-05 -1.61061489e-05 -1.61061489e-05 -1.61061489e-05
      -1.61061489e-05 -1.61061489e-05 -1.61061489e-05 -1.61061489e-05
      -1.61061489e-05 -1.35532791e-05 -1.10004084e-05 -8.26495307e-06
      -5.35320942e-06 -2.43516934e-06 -2.07629569e-06 -1.73631031e-06
      -1.73631031e-06 -1.51842039e-06 -1.08264055e-06 -4.81668792e-07
      3.81278568e-07 1.88703507e-06 3.71950273e-06 4.97156998e-06
      5.97542066e-06 7.60625608e-06 1.05295412e-05 1.31975803e-05
      1.36488889e-05 1.43692823e-05 1.45006625e-05 3.38813179e-21
      -2.67534102e-08 -1.87273869e-07 -3.47794327e-07 -1.27899909e-06
      -2.74573677e-06 -5.88916282e-06 -1.05146091e-05 -1.44995756e-05
      -1.61061489e-05 -1.61061489e-05 -1.61061489e-05 -1.61061489e-05
      -1.61061489e-05 -1.61061489e-05 -1.61061489e-05 -1.61061489e-05
      -1.61061489e-05 -1.35532791e-05 -1.10004084e-05 -8.26495307e-06
      -5.35320942e-06 -2.43516934e-06 -2.07629569e-06 -1.73631031e-06
      -1.73631031e-06 -1.51842039e-06 -1.08264055e-06 -1.42748874e-07
      1.53282792e-06 5.58657166e-06 9.53985273e-06 1.14573686e-05
      1.25660708e-05 1.33642525e-05 1.42409481e-05 1.46756147e-05
      1.44481219e-05 1.44787664e-05 1.45006625e-05 3.38813179e-21
      3.38813179e-21 3.38813179e-21 3.38813179e-21 -3.07664209e-07
      -9.09615949e-07 -2.32887851e-06 -4.55424470e-06 -6.47870775e-06
      -7.40017776e-06 -8.06901244e-06 -1.02625509e-05 -1.28546499e-05
      -1.47547016e-05 -1.59172123e-05 -1.61061489e-05 -1.61061489e-05
      -1.61061489e-05 -1.49548550e-05 -1.38536170e-05 -1.26346085e-05
      -1.13041251e-05 -9.92358491e-06 -7.78640697e-06 -5.50812365e-06
      -3.32147965e-06 -8.90173453e-07 2.54419274e-06 5.63952244e-06
      8.68466668e-06 1.11138388e-05 1.29704686e-05 1.37991246e-05
      1.27907133e-05 1.16572228e-05 1.04690234e-05 9.03995897e-06
      7.40689256e-06 7.34261403e-06 7.34261403e-06 3.38813179e-21
      3.38813179e-21 3.38813179e-21 3.38813179e-21 3.38813179e-21
      3.38813179e-21 3.38813179e-21 3.38813179e-21 3.38813179e-21
      -2.14027281e-07 -1.49819095e-06 -5.51344237e-06 -1.02085005e-05
      -1.36462304e-05 -1.57531449e-05 -1.61061489e-05 -1.61061489e-05
      -1.61061489e-05 -1.61061489e-05 -1.61061489e-05 -1.60410400e-05
      -1.59130686e-05 -1.57828490e-05 -1.22239680e-05 -8.47072533e-06
      -4.57972328e-06 -2.93898722e-07 5.53113978e-06 1.03593866e-05
      1.45202584e-05 1.55582929e-05 1.54985173e-05 1.52676166e-05
      1.24978515e-05 9.81700850e-06 7.13616464e-06 4.45307614e-06
      1.77223251e-06 1.73631031e-06 1.73631031e-06</_>
    <_>
      -1.01643954e-20 -1.31960771e-08 -5.42924319e-08 -9.50117567e-08
      -1.58388946e-08 1.43096017e-07 3.03703928e-07 3.30471920e-07
      3.30471920e-07 -5.01894135e-07 -5.49609013e-06 -1.04382634e-05
      -1.18123717e-05 -9.58978853e-06 -7.34380865e-06 -4.78297579e-06
      -2.18650302e-06 0. 0. 0. 0. 0. 0. -2.18650302e-06 -4.78297579e-06
      -6.33908667e-06 -2.57067654e-06 1.18621699e-06 2.73801265e-06
      2.06632308e-06 1.38756320e-06 2.17905699e-06 3.33387447e-06
      4.00104318e-06 2.38791290e-06 7.83277642e-07 -1.01643954e-20
      -1.01643954e-20 -1.01643954e-20 -1.01643954e-20 -1.01643954e-20
      1.87915142e-10 3.47535476e-08 7.06151511e-08 -2.74802744e-07
      -1.01860064e-06 -1.77911318e-06 -1.10222686e-06 -1.76426809e-07
      1.33642345e-07 -2.62417234e-06 -5.40168094e-06 -6.21251547e-06
      -5.04273430e-06 -3.84955774e-06 -2.51447864e-06 -1.14791419e-06 0.
      0. 0. 0. 0. 0. -1.14791419e-06 -2.51447864e-06 -3.31931415e-06
      -1.22629172e-06 8.41272595e-07 1.70526494e-06 1.35174412e-06
      9.98223300e-07 1.91430900e-06 3.09554707e-06 3.91702679e-06
      3.06872607e-06 2.26689122e-06 1.51854317e-06 8.16255977e-07
      1.13968774e-07 -1.01643954e-20 -6.03249228e-09 -2.84819812e-08
      -1.26606921e-07 -2.26781907e-07 -7.84939971e-07 -1.82056135e-06
      -2.87457033e-06 -2.09169798e-06 -9.58540795e-07 0. 0. 0. 0. 0. 0.
      1.84184188e-07 4.05205213e-07 5.72246336e-07 4.69388112e-07
      3.66529889e-07 3.15100777e-07 3.15100777e-07 3.15100777e-07
      3.15100777e-07 3.15100777e-07 2.95406977e-07 1.77244175e-07
      5.90813940e-08 0. 0. 0. 9.84187977e-07 2.15314526e-06
      3.22205233e-06 3.73743637e-06 4.23398160e-06 3.67793155e-06
      2.11311794e-06 5.31538547e-07 2.74288624e-07 -6.59803874e-08
      -4.03425986e-07 -2.42937381e-06 -4.45254818e-06 -4.40020176e-06
      -2.35073139e-06 -2.82873145e-07 8.07039697e-08 2.53838017e-08 0.
      0. 0. 0. 0. 0. 2.02602610e-06 4.45725709e-06 6.25787288e-06
      5.12643237e-06 4.01213492e-06 3.44641467e-06 3.44641467e-06
      3.44641467e-06 3.44641467e-06 3.44641467e-06 3.22978281e-06
      1.94968607e-06 6.49895355e-07 0. 0. 0. 4.12406621e-07
      9.02841919e-07 1.38715291e-06 1.96411315e-06 2.49499294e-06
      2.78769744e-06 2.89027912e-06 2.96816916e-06 3.00003171e-06
      1.37137192e-07 -3.93154778e-07 -3.56167629e-06 -6.74207649e-06
      -6.75943375e-06 -3.59753358e-06 -5.16944624e-07 0. 0. 0. 0. 0.
      1.16766898e-06 3.52001439e-06 5.87801514e-06 7.57713315e-06
      9.21125684e-06 1.02331123e-05 8.16584725e-06 6.07518632e-06
      5.04155378e-06 5.04155378e-06 5.04155378e-06 4.98876034e-06
      4.92419031e-06 4.65462335e-06 3.41060672e-06 2.17224533e-06
      1.28009685e-06 6.89282899e-07 9.84689876e-08 0. 0. 2.78952541e-07
      1.86492514e-06 3.49029733e-06 4.28187832e-06 4.31695389e-06
      4.34295998e-06 4.34131243e-06 -1.19431206e-06 -1.76889966e-06
      -5.15211877e-06 -8.52002358e-06 -8.31733723e-06 -4.46014201e-06
      -6.47421132e-07 0. 0. 1.67147292e-08 1.33717833e-07 2.67435667e-07
      3.34864762e-06 9.48389061e-06 1.56348324e-05 1.50804581e-05
      1.31535526e-05 1.11607205e-05 8.99904717e-06 6.81397933e-06
      5.73314264e-06 5.73314264e-06 5.73314264e-06 5.21148013e-06
      4.59263219e-06 4.07984362e-06 4.31058288e-06 4.55623831e-06
      3.82059670e-06 2.06784875e-06 2.95406977e-07 0. 0. 4.23696235e-07
      2.92889877e-06 5.45955936e-06 6.36073355e-06 5.67313691e-06
      4.98443933e-06 4.86021918e-06 -6.13137308e-06 -5.96600239e-06
      -5.13214582e-06 -4.25939015e-06 -3.11789995e-06 -1.68727888e-06
      -2.29326432e-07 0. 0. 6.15756392e-07 4.30197451e-06 7.99536519e-06
      9.06085734e-06 7.62911850e-06 6.19831917e-06 5.21027778e-06
      4.30643922e-06 3.45730109e-06 2.84901512e-06 2.21733330e-06
      1.91319032e-06 1.91319032e-06 1.91319032e-06 1.35417906e-06
      6.89727187e-07 4.47578856e-07 2.27815713e-06 4.11874134e-06
      5.09232450e-06 5.15265219e-06 5.25123687e-06 3.64684684e-06
      1.65765766e-06 1.01832583e-07 7.89202488e-07 1.45111426e-06
      3.32219406e-06 6.35520928e-06 9.37953246e-06 9.91154866e-06
      -5.66746394e-06 -5.31130763e-06 -3.19776700e-06 -1.06846812e-06 0.
      0. 0. 7.63744367e-07 1.68212273e-06 3.05110302e-06 6.76720811e-06
      1.05208410e-05 1.01284031e-05 5.47090394e-06 7.81557731e-07
      -1.01643954e-20 -1.01643954e-20 -1.01643954e-20 -1.01643954e-20
      -1.01643954e-20 -1.01643954e-20 -1.01643954e-20 -1.01643954e-20
      -1.01643954e-20 -1.01643954e-20 1.17060182e-07 8.19421302e-07
      1.51762629e-06 3.07487312e-06 5.59914224e-06 8.14359464e-06
      5.88072589e-06 2.65296444e-06 0. 0. 0. 2.45768388e-06
      7.33365187e-06 1.22411866e-05 1.30604149e-05 -1.78357254e-06
      -1.66137261e-06 -1.01016735e-06 -3.39268297e-07 0. 0. 0.
      1.99370675e-06 4.42887358e-06 6.34214302e-06 5.51632820e-06
      4.76902005e-06 3.54521580e-06 1.92002040e-06 2.74288624e-07
      -1.01643954e-20 -1.01643954e-20 -1.01643954e-20 -1.01643954e-20
      -1.01643954e-20 -1.01643954e-20 -1.01643954e-20 -1.01643954e-20
      -1.01643954e-20 -1.01643954e-20 -2.23061605e-07 -1.56143119e-06
      -2.90395701e-06 -1.85432054e-06 1.59342255e-06 5.08517269e-06
      3.90280957e-06 1.74114996e-06 0. 0. 0. 2.22270728e-06
      6.62872253e-06 1.10741375e-05 1.18150392e-05 2.75342154e-06
      2.57497709e-06 1.53164251e-06 5.08001676e-07 0. 0. 0.
      1.78756875e-06 3.92233369e-06 5.54589951e-06 4.32166144e-06
      3.08830522e-06 2.00573550e-06 1.08001143e-06 1.54287349e-07
      -1.01643954e-20 -1.01643954e-20 -1.01643954e-20 -1.01643954e-20
      -1.01643954e-20 -1.01643954e-20 -1.01643954e-20 -1.01643954e-20
      -1.01643954e-20 -1.01643954e-20 -1.81237553e-07 -1.24078019e-06
      -2.33236165e-06 -1.92427865e-06 -2.45281946e-08 1.91922913e-06
      1.52419341e-06 6.99620557e-07 0. 0. 0. 1.75176228e-06
      5.24376992e-06 8.74729449e-06 9.33586216e-06 8.58815241e-08
      4.26243432e-08 -1.59121399e-07 -3.41173319e-07 -4.13147546e-07
      -4.13147546e-07 -4.13147546e-07 1.85977524e-06 4.57001397e-06
      6.44609327e-06 3.85568410e-06 1.29874672e-06 -1.01643954e-20
      -1.01643954e-20 -1.01643954e-20 -1.01643954e-20 -1.01643954e-20
      -1.01643954e-20 -1.01643954e-20 -1.01643954e-20 -1.01643954e-20
      -1.01643954e-20 -1.01643954e-20 -1.01643954e-20 -1.01643954e-20
      -4.18240518e-08 -3.20651054e-07 -6.03634192e-07 -1.56048415e-07
      1.01355783e-06 2.22396920e-06 1.66347081e-06 7.23606945e-07 0. 0.
      0. 1.06458469e-06 3.20527079e-06 5.32049899e-06 5.67919915e-06
      -9.78619209e-06 -9.36510969e-06 -7.01200315e-06 -4.62206026e-06
      -3.41660848e-06 -3.41660848e-06 -3.41660848e-06 -8.50342929e-07
      2.24484529e-06 4.56096541e-06 2.71710996e-06 9.23869038e-07
      -1.01643954e-20 -1.01643954e-20 -1.01643954e-20 -1.01643954e-20
      -1.01643954e-20 -1.01643954e-20 -1.01643954e-20 -1.01643954e-20
      -1.01643954e-20 -1.01643954e-20 -1.01643954e-20 -1.01643954e-20
      -1.01643954e-20 -1.01643954e-20 -1.01643954e-20 -1.80974773e-08
      4.15546964e-07 1.32026753e-06 2.26579346e-06 1.66347081e-06
      7.87775093e-07 0. 0. 0. 1.24107373e-06 3.74867932e-06
      6.19398998e-06 6.59919533e-06 -1.01430142e-05 -1.03856200e-05
      -1.18412527e-05 -1.32600480e-05 -1.39878639e-05 -1.39878639e-05
      -1.39878639e-05 -1.10480169e-05 -7.54904340e-06 -4.28307158e-06
      -2.56902172e-06 -8.55083783e-07 -1.01643954e-20 -1.01643954e-20
      -1.01643954e-20 -1.01643954e-20 -1.01643954e-20 -1.01643954e-20
      -1.01643954e-20 -1.01643954e-20 -1.01643954e-20 -1.01643954e-20
      -1.01643954e-20 -1.01643954e-20 -1.01643954e-20 2.50686185e-07
      1.75480329e-06 3.24082293e-06 3.09684629e-06 1.41296687e-06
      -2.46283207e-07 -3.25718361e-07 -1.60477114e-07 0. 0. 0.
      1.01610954e-06 3.01149203e-06 5.06877950e-06 5.40748306e-06
      -1.01430142e-05 -1.07324040e-05 -1.42687404e-05 -1.77682396e-05
      -1.95364082e-05 -1.95364082e-05 -1.95364082e-05 -1.63844488e-05
      -1.26305622e-05 -8.84849396e-06 -5.30827492e-06 -1.76816820e-06
      -1.01643954e-20 -1.01643954e-20 -1.01643954e-20 -1.01643954e-20
      -1.01643954e-20 -1.01643954e-20 -1.01643954e-20 -1.01643954e-20
      -1.01643954e-20 -1.01643954e-20 -1.01643954e-20 -1.01643954e-20
      -1.01643954e-20 4.36449994e-07 3.02686817e-06 5.57412022e-06
      4.70541409e-06 4.41956246e-07 -3.75241348e-06 -3.06586844e-06
      -1.40103054e-06 0. 0. 0. 4.72959016e-07 1.40710881e-06
      2.34595655e-06 2.50596622e-06 -1.01430142e-05 -1.07324040e-05
      -1.42687404e-05 -1.77682396e-05 -1.95364082e-05 -1.95364082e-05
      -1.95364082e-05 -1.64238481e-05 -1.26305622e-05 -8.84849396e-06
      -5.27143811e-06 -1.76816820e-06 -1.01643954e-20 -1.01643954e-20
      -1.01643954e-20 -1.01643954e-20 -1.01643954e-20 -1.01643954e-20
      -1.01643954e-20 -1.01643954e-20 -1.01643954e-20 -1.01643954e-20
      -1.01643954e-20 -1.01643954e-20 -1.01643954e-20 6.61441504e-07
      4.61594982e-06 8.53436177e-06 8.37820153e-06 4.26808037e-06
      1.63445804e-07 -3.55306753e-07 -1.63987735e-07 0. 0. 0.
      -6.96724314e-08 -2.41797267e-07 -3.77940438e-07 -4.08168518e-07
      -1.01430142e-05 -1.07324040e-05 -1.42687404e-05 -1.77682396e-05
      -1.95364082e-05 -1.95364082e-05 -1.95364082e-05 -1.63983896e-05
      -1.26305622e-05 -8.84849396e-06 -5.30827492e-06 -1.76816820e-06
      -1.01643954e-20 -1.01643954e-20 -1.01643954e-20 -1.01643954e-20
      -1.01643954e-20 -1.01643954e-20 -1.01643954e-20 -1.01643954e-20
      -1.01643954e-20 -1.01643954e-20 -1.01643954e-20 1.15315652e-06
      2.53193048e-06 4.22291396e-06 7.57521912e-06 1.08852128e-05
      1.01606702e-05 5.42845964e-06 7.82480697e-07 0. 0. 0. 0. 0.
      -8.32876196e-07 -2.44491071e-06 -4.08333199e-06 -4.34719959e-06
      -1.01430142e-05 -1.07324040e-05 -1.42687404e-05 -1.77682396e-05
      -1.95364082e-05 -1.95364082e-05 -1.95364082e-05 -1.63844488e-05
      -1.26305622e-05 -8.84849396e-06 -5.30827492e-06 -1.76816820e-06
      -1.01643954e-20 -1.01643954e-20 -1.01643954e-20 -1.01643954e-20
      -1.01643954e-20 -1.01643954e-20 -1.01643954e-20 -1.01643954e-20
      2.75754815e-07 8.02195814e-07 1.35370544e-06 3.11043323e-06
      5.12105998e-06 7.27104089e-06 1.00139405e-05 1.27489311e-05
      1.14179093e-05 6.11174210e-06 8.91805826e-07 0. 0. -1.28556138e-07
      -8.03475871e-07 -1.51053462e-06 -2.71848421e-06 -4.49790605e-06
      -6.30316345e-06 -6.58796989e-06 -1.01430142e-05 -1.07324040e-05
      -1.42687404e-05 -1.77682396e-05 -1.95364082e-05 -1.95364082e-05
      -1.95364082e-05 -1.64099056e-05 -1.26305622e-05 -8.84849396e-06
      -5.27143811e-06 -1.76816820e-06 -1.01643954e-20 -1.01643954e-20
      -1.01643954e-20 -1.01643954e-20 -1.01643954e-20 -1.01643954e-20
      -1.01643954e-20 -1.01643954e-20 1.05288200e-06 3.15864600e-06
      5.23934114e-06 6.93592392e-06 8.55066992e-06 1.04402870e-05
      1.37295419e-05 1.69905106e-05 1.51076338e-05 8.13037332e-06
      1.16511876e-06 0. 0. -5.69947758e-07 -3.98963448e-06
      -7.37718210e-06 -8.60012733e-06 -7.68406426e-06 -6.74455487e-06
      -6.58796989e-06 -1.01430142e-05 -1.07324040e-05 -1.42687404e-05
      -1.77682396e-05 -1.95364082e-05 -1.95364082e-05 -1.95364082e-05
      -1.63844488e-05 -1.26305622e-05 -8.84849396e-06 -5.30827492e-06
      -1.76816820e-06 -1.01643954e-20 -1.01643954e-20 -1.01643954e-20
      -1.01643954e-20 -1.01643954e-20 -1.01643954e-20 -1.01643954e-20
      -1.01643954e-20 1.43148327e-06 4.26938095e-06 7.13941790e-06
      1.03165403e-05 1.35270038e-05 1.64206413e-05 1.76778794e-05
      1.88896902e-05 1.58182465e-05 8.48769105e-06 1.21978132e-06
      -1.43555474e-06 -3.14536464e-06 -5.28168857e-06 -9.67971027e-06
      -1.40354050e-05 -1.43932566e-05 -1.08265685e-05 -7.18177080e-06
      -6.58796989e-06 -1.01430142e-05 -1.07324040e-05 -1.42687404e-05
      -1.77682396e-05 -1.95364082e-05 -1.95364082e-05 -1.95364082e-05
      -1.63983896e-05 -1.26309387e-05 -8.84849396e-06 -5.30827492e-06
      -1.76816820e-06 -1.01643954e-20 -1.01643954e-20 -1.01643954e-20
      -1.01643954e-20 -1.01643954e-20 9.64171036e-08 6.42780719e-07
      1.15700527e-06 3.51138078e-06 7.61910587e-06 1.17541622e-05
      1.46305038e-05 1.73039662e-05 1.95364082e-05 1.95364082e-05
      1.95183093e-05 1.56310816e-05 7.90280046e-06 2.37165281e-07
      -4.21585855e-06 -8.02617797e-06 -1.17185018e-05 -1.48565969e-05
      -1.79673607e-05 -1.70990552e-05 -1.22751271e-05 -7.40042105e-06
      -6.58796989e-06 -1.01430142e-05 -1.07324040e-05 -1.42687404e-05
      -1.77682396e-05 -1.95364082e-05 -1.95364082e-05 -1.95364082e-05
      -1.63983896e-05 -1.26309387e-05 -8.84849396e-06 -5.30827492e-06
      -1.76816820e-06 -1.01643954e-20 -1.01643954e-20 -1.01643954e-20
      -1.01643954e-20 -1.01643954e-20 5.03522642e-07 3.55679754e-06
      6.61007243e-06 1.00688640e-05 1.38292262e-05 1.76662015e-05
      1.86891375e-05 1.91537692e-05 1.95364082e-05 1.95364082e-05
      1.95183093e-05 1.46486718e-05 4.95557106e-06 -4.67488371e-06
      -8.23725895e-06 -1.05970503e-05 -1.30042299e-05 -1.56280330e-05
      -1.82245058e-05 -1.70990552e-05 -1.22751271e-05 -7.40042105e-06
      -6.58796989e-06 -1.01430142e-05 -1.07324040e-05 -1.42687404e-05
      -1.77682396e-05 -1.95364082e-05 -1.95364082e-05 -1.95364082e-05
      -1.63844488e-05 -1.26305622e-05 -8.84849396e-06 -5.30827492e-06
      -1.76816820e-06 -1.01643954e-20 -1.01643954e-20 -1.01643954e-20
      9.52607536e-07 2.08069537e-06 3.62919263e-06 7.10425729e-06
      1.05551080e-05 1.36559711e-05 1.63553013e-05 1.90819646e-05
      1.95364082e-05 1.95364082e-05 1.93492433e-05 1.82964395e-05
      1.72255386e-05 1.14299510e-05 1.01043008e-06 -9.37233108e-06
      -1.26125506e-05 -1.43824873e-05 -1.60926647e-05 -1.74865618e-05
      -1.88531249e-05 -1.70990552e-05 -1.22751271e-05 -7.40042105e-06
      -6.58796989e-06 -1.01430142e-05 -1.07324040e-05 -1.42687404e-05
      -1.77682396e-05 -1.95364082e-05 -1.95364082e-05 -1.95364082e-05
      -1.64099056e-05 -1.26305622e-05 -8.84849396e-06 -5.27143811e-06
      -1.76816820e-06 1.40373714e-07 4.21121143e-07 7.01868601e-07
      3.36233393e-06 6.47534762e-06 9.34385571e-06 1.09786833e-05
      1.26205814e-05 1.45894446e-05 1.68579409e-05 1.91537692e-05
      1.95364082e-05 1.95364082e-05 1.89903039e-05 1.57370741e-05
      1.24423523e-05 6.38265374e-06 -2.39077076e-06 -1.11609324e-05
      -1.47673099e-05 -1.73686367e-05 -1.95364082e-05 -1.95364082e-05
      -1.95364082e-05 -1.70990552e-05 -1.22751271e-05 -7.40042105e-06
      -6.58796989e-06 -1.01430142e-05 -1.07324040e-05 -1.42687404e-05
      -1.77682396e-05 -1.95364082e-05 -1.95364082e-05 -1.95364082e-05
      -1.63844488e-05 -1.26305622e-05 -8.84849396e-06 -5.30827492e-06
      -1.76816820e-06 1.01992532e-06 3.05977574e-06 5.09962638e-06
      7.56282316e-06 1.00562911e-05 1.25131019e-05 1.47184974e-05
      1.68894912e-05 1.82518379e-05 1.88531249e-05 1.94270833e-05
      1.95364082e-05 1.95364082e-05 1.87828682e-05 1.42846829e-05
      9.71911777e-06 3.59295223e-06 -4.06857134e-06 -1.16587053e-05
      -1.49808484e-05 -1.74660399e-05 -1.95364082e-05 -1.95364082e-05
      -1.95364082e-05 -1.70990552e-05 -1.22751271e-05 -7.40042105e-06
      -6.58796989e-06 -1.01430142e-05 -1.07324040e-05 -1.42687404e-05
      -1.77682396e-05 -1.95364082e-05 -1.95364082e-05 -1.95364082e-05
      -1.72639666e-05 -1.45144650e-05 -1.12814550e-05 -5.73823172e-06
      -2.18516519e-07 4.02525120e-06 7.00764713e-06 9.97290044e-06
      1.20473878e-05 1.39574331e-05 1.57646900e-05 1.72679102e-05
      1.87711321e-05 1.95364082e-05 1.95364082e-05 1.95364082e-05
      1.84436813e-05 1.71581196e-05 1.53105320e-05 1.08210452e-05
      6.26898645e-06 7.56253598e-07 -5.65899927e-06 -1.19861479e-05
      -1.50812320e-05 -1.74997567e-05 -1.95364082e-05 -1.95364082e-05
      -1.95364082e-05 -1.70990552e-05 -1.22751271e-05 -7.40042105e-06
      -6.58796989e-06 -1.42687404e-05 -1.46002712e-05 -1.65526235e-05
      -1.85418139e-05 -1.95364082e-05 -1.95364082e-05 -1.95364082e-05
      -1.84350411e-05 -1.70857365e-05 -1.45499171e-05 -6.24715403e-06
      1.99262877e-06 7.44890940e-06 1.00469806e-05 1.26534524e-05
      1.51087388e-05 1.75138921e-05 1.95364082e-05 1.95364082e-05
      1.95364082e-05 1.94145432e-05 1.92012812e-05 1.89880193e-05
      1.59708925e-05 1.24092658e-05 8.84648853e-06 5.32429158e-06
      1.75666639e-06 -2.49616983e-06 -7.37136497e-06 -1.22321298e-05
      -1.50812320e-05 -1.75252135e-05 -1.95364082e-05 -1.95364082e-05
      -1.95364082e-05 -1.70990552e-05 -1.22751271e-05 -7.40042105e-06
      -6.58796989e-06 -1.95364082e-05 -1.95364082e-05 -1.95364082e-05
      -1.95364082e-05 -1.95364082e-05 -1.95364082e-05 -1.95349003e-05
      -1.84169530e-05 -1.70804597e-05 -1.44339574e-05 -5.52534311e-06
      3.38710606e-06 9.69939993e-06 1.33383182e-05 1.70031235e-05
      1.82245058e-05 1.89351194e-05 1.95364082e-05 1.95364082e-05
      1.95364082e-05 1.84186665e-05 1.62136530e-05 1.40086377e-05
      1.15532248e-05 9.05929937e-06 6.53217785e-06 3.93570554e-06
      1.29380442e-06 -2.49616983e-06 -7.40820178e-06 -1.22321298e-05
      -1.50812320e-05 -1.74997567e-05 -1.95364082e-05 -1.95364082e-05
      -1.95364082e-05 -1.70990552e-05 -1.22751271e-05 -7.40042105e-06
      -6.58796989e-06 -1.95364082e-05 -1.95364082e-05 -1.95364082e-05
      -1.95364082e-05 -1.95364082e-05 -1.95364082e-05 -1.95190642e-05
      -1.74113084e-05 -1.49061216e-05 -1.11431518e-05 -1.20073958e-06
      8.82441873e-06 1.48963736e-05 1.70232106e-05 1.91773797e-05
      1.95364082e-05 1.95364082e-05 1.95364082e-05 1.95364082e-05
      1.95364082e-05 1.74782035e-05 1.33922613e-05 9.29299676e-06
      7.27643692e-06 5.67783945e-06 4.09969334e-06 2.45981596e-06
      8.01841168e-07 -2.49616983e-06 -7.39426059e-06 -1.22321298e-05
      -1.50812320e-05 -1.74997567e-05 -1.95364082e-05 -1.95364082e-05
      -1.95364082e-05 -1.70990552e-05 -1.22751271e-05 -7.40042105e-06
      -6.58796989e-06 -1.95364082e-05 -1.95364082e-05 -1.95364082e-05
      -1.95364082e-05 -1.95005705e-05 -1.94175645e-05 -1.93485284e-05
      -1.59215961e-05 -1.18416374e-05 -6.70328382e-06 3.78689697e-06
      1.42643275e-05 1.95364082e-05 1.95364082e-05 1.95364082e-05
      1.95364082e-05 1.95364082e-05 1.94506920e-05 1.88399845e-05
      1.82614149e-05 1.58856874e-05 1.16833226e-05 7.50828895e-06
      4.67365044e-06 2.13184057e-06 -1.39413501e-07 -9.34070499e-07
      -1.76076628e-06 -4.22489711e-06 -8.32833121e-06 -1.23715427e-05
      -1.50812320e-05 -1.75252135e-05 -1.95364082e-05 -1.95364082e-05
      -1.95364082e-05 -1.70990552e-05 -1.22751271e-05 -7.40042105e-06
      -6.58796989e-06 -1.95364082e-05 -1.95364082e-05 -1.95364082e-05
      -1.95364082e-05 -1.87504211e-05 -1.71916272e-05 -1.56780952e-05
      -1.28246156e-05 -9.72396901e-06 -5.47339960e-06 4.52117229e-06
      1.45137328e-05 1.95364082e-05 1.95364082e-05 1.95364082e-05
      1.95364082e-05 1.95364082e-05 1.89257335e-05 1.53259607e-05
      1.17111931e-05 8.47105275e-06 5.59535010e-06 2.74697936e-06
      1.55788348e-06 7.10613506e-07 -2.23061605e-07 -1.56143119e-06
      -2.90395701e-06 -5.38202949e-06 -8.95569156e-06 -1.24551907e-05
      -1.50812320e-05 -1.74997567e-05 -1.95364082e-05 -1.95364082e-05
      -1.95364082e-05 -1.70990552e-05 -1.22751271e-05 -7.40042105e-06
      -6.58796989e-06 -1.21017983e-05 -1.24436428e-05 -1.44599335e-05
      -1.65130605e-05 -1.61718963e-05 -1.34363127e-05 -1.07497644e-05
      -8.55178496e-06 -6.44151851e-06 -3.13832879e-06 5.91562048e-06
      1.49692833e-05 1.95262273e-05 1.95364082e-05 1.95364082e-05
      1.79293565e-05 1.60073214e-05 1.38072264e-05 1.01830501e-05
      6.52673543e-06 3.82638063e-06 2.04984667e-06 3.00644189e-07
      -1.01643954e-20 -1.01643954e-20 -2.41159086e-07 -1.60252762e-06
      -2.94769256e-06 -5.40314295e-06 -8.91885520e-06 -1.24551907e-05
      -1.50812320e-05 -1.74997567e-05 -1.95364082e-05 -1.95364082e-05
      -1.95364082e-05 -1.70983003e-05 -1.22513738e-05 -7.35366893e-06
      -6.53405459e-06 -3.70779321e-06 -4.27875375e-06 -7.69833059e-06
      -1.10810697e-05 -1.16965157e-05 -9.52411301e-06 -7.32700755e-06
      -4.84810471e-06 -2.31331501e-06 9.45283091e-07 7.64162905e-06
      1.43471152e-05 1.79126819e-05 1.82818749e-05 1.86363632e-05
      1.50914448e-05 1.07653577e-05 6.70691497e-06 4.10082703e-06
      1.46259993e-06 1.18558965e-07 6.38963868e-08 9.23381194e-09
      -1.80974773e-08 -1.80974773e-08 -3.78061742e-07 -2.41267321e-06
      -4.41863904e-06 -6.85599207e-06 -9.69242865e-06 -1.25657016e-05
      -1.50812320e-05 -1.75252135e-05 -1.95364082e-05 -1.95364082e-05
      -1.95364082e-05 -1.70979238e-05 -1.22332767e-05 -7.31747423e-06
      -6.49182721e-06 1.64859202e-07 -3.81193132e-07 -3.65750702e-06
      -6.88866930e-06 -7.43638657e-06 -5.20635058e-06 -2.96047892e-06
      -1.79820961e-06 -8.19938691e-07 4.86320971e-07 3.40424685e-06
      6.31539524e-06 8.58637486e-06 1.02127988e-05 1.19132055e-05
      1.05313620e-05 8.54992049e-06 6.45413274e-06 3.85766043e-06
      1.23385655e-06 -7.80453746e-08 -7.80453746e-08 -7.80453746e-08
      -7.80453746e-08 -7.80453746e-08 -7.86018347e-07 -5.00557871e-06
      -9.17059060e-06 -1.23716882e-05 -1.45622398e-05 -1.67527924e-05
      -1.78561695e-05 -1.87726637e-05 -1.95364082e-05 -1.95364082e-05
      -1.95364082e-05 -1.70979238e-05 -1.22332767e-05 -7.31747423e-06
      -6.49182721e-06 5.03879437e-06 4.78490983e-06 3.24926350e-06
      1.69480109e-06 7.60127705e-07 3.95831364e-07 3.17149684e-08 0. 0.
      8.36481036e-08 6.27360748e-07 1.15713203e-06 2.02593878e-06
      3.23171798e-06 4.41780367e-06 4.07275274e-06 3.41136138e-06
      2.65659151e-06 1.42343549e-06 1.55877586e-07 -1.24793974e-06
      -2.79508686e-06 -4.34223375e-06 -4.60009187e-06 -4.60009187e-06
      -5.10721020e-06 -8.08135610e-06 -1.10783976e-05 -1.34679531e-05
      -1.52245657e-05 -1.69811774e-05 -1.72866748e-05 -1.72866748e-05
      -1.68894039e-05 -1.45408130e-05 -1.21809117e-05 -9.84952658e-06
      -7.48127013e-06 -5.07361437e-06 -4.70975692e-06 7.90879039e-06
      8.36122399e-06 1.10027750e-05 1.36413246e-05 1.21324429e-05
      6.50788570e-06 9.43930274e-07 0. 0. 0. 0. 0. 8.25010282e-09
      2.26877841e-08 3.71254636e-08 5.84902352e-07 1.23828488e-06
      1.79319488e-06 1.88984109e-06 1.91524873e-06 2.92248444e-07
      -2.98622990e-06 -6.30154545e-06 -6.85409805e-06 -6.85409805e-06
      -7.12991368e-06 -8.74803391e-06 -1.03845414e-05 -1.12699763e-05
      -1.14736413e-05 -1.16518486e-05 -1.12700609e-05 -1.07841543e-05
      -9.66026164e-06 -5.40964038e-06 -1.08260281e-06 7.99026111e-07
      2.04426911e-07 -3.83491425e-07 -4.83704753e-07 1.10148021e-05
      1.13247943e-05 1.31931120e-05 1.50480410e-05 1.29516156e-05
      6.93020138e-06 9.96719677e-07 0. 0. 0. 0. 0. 0. 0. 0.
      4.37000978e-07 9.41035637e-07 1.32140883e-06 1.05044569e-06
      7.45080911e-07 5.70467797e-08 -1.04805827e-06 -2.15316345e-06
      -2.33734750e-06 -2.33734750e-06 -2.44767398e-06 -3.20157073e-06
      -3.95546749e-06 -4.32322213e-06 -4.32322213e-06 -4.32322213e-06
      -1.40494990e-06 2.08582401e-06 5.02183730e-06 5.27584598e-06
      5.55549241e-06 5.64545917e-06 5.48291928e-06 5.32244167e-06
      5.30298166e-06 1.25669285e-05 1.28648162e-05 1.46939628e-05
      1.64818375e-05 1.52182911e-05 1.08752565e-05 6.54164796e-06
      4.00421413e-06 1.82529072e-06 0. 0. 0. 0. 0. 0. 0. 0. 0. 0. 0. 0.
      0. 0. 0. 0. 0. 0. 0. 8.17438206e-07 2.45344563e-06 4.11508245e-06
      7.05410775e-06 1.02833892e-05 1.28061438e-05 1.17227337e-05
      1.06649813e-05 9.94318179e-06 9.60450052e-06 9.26788198e-06
      9.19904960e-06 1.25669285e-05 1.30042299e-05 1.56280330e-05
      1.82245058e-05 1.92705083e-05 1.87417281e-05 1.81903251e-05
      1.24043509e-05 5.66014114e-06 0. 0. 0. 0. 0. 0. 0. 0. 0. 0. 0. 0.
      0. 0. 0. 0. 0. 0. 0. 2.32684238e-06 6.93314223e-06 1.16252841e-05
      1.26231625e-05 1.28543634e-05 1.31206734e-05 1.36317003e-05
      1.41012570e-05 1.33800313e-05 1.14629447e-05 9.52246319e-06
      9.19904960e-06 1.13953110e-05 1.19113029e-05 1.49722773e-05
      1.80059196e-05 1.95364082e-05 1.95364082e-05 1.95254743e-05
      1.68045535e-05 1.35688233e-05 1.08660015e-05 1.08660015e-05
      1.08452641e-05 8.82375480e-06 4.75682191e-06 6.74610192e-07
      -9.82616029e-07 -2.15239697e-06 -3.13501300e-06 -3.13501300e-06
      -3.13501300e-06 -3.13501300e-06 -3.13501300e-06 -3.13501300e-06
      -8.08170569e-07 1.97567556e-06 4.26568113e-06 4.26568113e-06
      4.27586110e-06 5.97377266e-06 9.34584295e-06 1.27277081e-05
      1.25446204e-05 1.16237979e-05 1.09277098e-05 1.13787773e-05
      1.18043863e-05 1.12966309e-05 9.78326170e-06 8.29328746e-06
      8.02743216e-06 1.03373577e-05 1.09145531e-05 1.43777252e-05
      1.78048213e-05 1.95364082e-05 1.95364082e-05 1.95364082e-05
      1.95364082e-05 1.95364082e-05 1.95364082e-05 1.95364082e-05
      1.94990807e-05 1.57990180e-05 8.48769105e-06 1.21978132e-06
      -1.87164960e-06 -4.09423365e-06 -5.96588325e-06 -5.96588325e-06
      -5.96588325e-06 -5.96588325e-06 -5.96588325e-06 -5.96588325e-06
      -1.95440634e-06 2.92029972e-06 6.98255462e-06 6.98255462e-06
      7.00065220e-06 8.26336236e-06 1.07192127e-05 1.31631941e-05
      1.22162246e-05 1.05704930e-05 9.19904960e-06 9.19904960e-06
      9.19904960e-06 8.77936600e-06 7.94874086e-06 7.10937320e-06
      6.96947882e-06</_>
    <_>
      3.38813179e-21 4.85890268e-07 3.35041955e-06 6.20636638e-06
      8.50588003e-06 9.67476899e-06 1.05457057e-05 1.33644025e-05
      1.67116050e-05 1.83048705e-05 1.09522862e-05 3.67629195e-06 0. 0.
      0. -2.34447796e-07 -1.39603003e-06 -2.54695556e-06 -2.71746308e-06
      -2.71746308e-06 -2.71746308e-06 -2.71746308e-06 -2.71746308e-06
      -2.71746308e-06 -2.71746308e-06 -2.11085649e-06 1.50951735e-06
      5.13051009e-06 6.95032986e-06 6.95032986e-06 6.95032986e-06
      1.00057732e-05 1.37187180e-05 1.68128372e-05 1.72334621e-05
      1.83517077e-05 1.76597823e-05 1.39946733e-05 1.02943313e-05
      9.64955780e-06 1.28946283e-06 1.88671527e-06 5.79287098e-06
      9.70515975e-06 1.23402751e-05 1.26700425e-05 1.26832119e-05
      1.20623145e-05 1.14674867e-05 1.02685499e-05 6.18818876e-06
      2.06915161e-06 0. 0. 0. -1.27880611e-07 -7.35313563e-07
      -1.33208971e-06 -1.42800025e-06 -1.42800025e-06 -1.42800025e-06
      -1.42800025e-06 -1.42800025e-06 -1.42800025e-06 -1.42800025e-06
      -1.08616530e-06 9.62987883e-07 2.99349404e-06 4.01837997e-06
      4.01837997e-06 4.01837997e-06 7.08391872e-06 1.07436708e-05
      1.40412676e-05 1.59016417e-05 1.81518626e-05 1.80321586e-05
      1.47663322e-05 1.15142784e-05 1.09269176e-05 2.55331679e-06
      3.18368689e-06 7.96104359e-06 1.26634086e-05 1.55194666e-05
      1.49117013e-05 1.39842205e-05 9.24248343e-06 3.97002532e-06
      -4.71974943e-07 -4.71974943e-07 -4.71974943e-07 -4.71974943e-07
      -4.71974943e-07 -4.71974943e-07 -2.78592438e-07 -4.65334189e-08
      1.46849089e-07 1.46849089e-07 1.46849089e-07 1.46849089e-07
      1.46849089e-07 1.46849089e-07 2.94341277e-07 4.71331873e-07
      5.80147514e-07 3.48088520e-07 1.16029511e-07 0. 0. 0.
      2.84656176e-06 6.22452308e-06 9.68852601e-06 1.33931771e-05
      1.70591520e-05 1.76103895e-05 1.49971584e-05 1.23540312e-05
      1.19068172e-05 9.22114054e-07 1.15393925e-06 2.76595324e-06
      4.34211506e-06 4.55080362e-06 2.57191232e-06 3.58357568e-07
      -1.68641361e-06 -3.57880845e-06 -5.16222599e-06 -5.16222599e-06
      -5.16222599e-06 -5.16222599e-06 -5.16222599e-06 -5.16222599e-06
      -3.03501838e-06 -4.82369160e-07 1.60616196e-06 1.60616196e-06
      1.60616196e-06 1.60616196e-06 1.60616196e-06 1.60616196e-06
      3.19907736e-06 5.14597423e-06 6.34294656e-06 3.82897360e-06
      1.27632461e-06 0. 0. 0. 9.52153414e-07 2.07584276e-06
      3.63718345e-06 7.29478143e-06 1.09331140e-05 1.25824436e-05
      1.22898027e-05 1.19672659e-05 1.19068172e-05 -2.03209743e-06
      -2.23500047e-06 -3.96598534e-06 -5.69758822e-06 -7.48762204e-06
      -9.14226894e-06 -1.10452693e-05 -1.02104295e-05 -8.73563022e-06
      -7.52210053e-06 -7.52210053e-06 -7.52210053e-06 -6.37635276e-06
      -3.89055185e-06 -1.25086387e-06 1.47772664e-06 4.03037575e-06
      5.91094749e-06 4.50159905e-06 3.05701724e-06 2.35234324e-06
      2.35234324e-06 2.35234324e-06 4.96790881e-06 8.06767366e-06
      9.98080122e-06 7.07934123e-06 4.33176820e-06 2.51397273e-06
      1.35367759e-06 1.93382519e-07 0. 0. 4.01317095e-07 2.75204093e-06
      5.14067779e-06 7.38424205e-06 9.03072123e-06 1.07173437e-05
      1.09271332e-05 -6.90059505e-06 -7.45099169e-06 -1.18077514e-05
      -1.61475982e-05 -1.83272386e-05 -1.77083166e-05 -1.72439741e-05
      -1.44197857e-05 -1.10636474e-05 -8.37537209e-06 -8.24484141e-06
      -8.09566427e-06 -4.74670742e-06 2.42333226e-06 1.00455372e-05
      1.21802195e-05 1.24122789e-05 1.20771556e-05 8.97658902e-06
      5.84078953e-06 4.33313335e-06 4.41838711e-06 4.49298432e-06
      6.84725546e-06 9.67452434e-06 1.11462168e-05 9.99409076e-06
      9.29336693e-06 7.50324170e-06 4.06103300e-06 5.80147514e-07 0. 0.
      -1.04972209e-07 -7.84804115e-07 -1.46977402e-06 4.51452678e-07
      4.08530650e-06 7.71992472e-06 8.14963096e-06 -1.09785733e-05
      -1.15654193e-05 -1.54621339e-05 -1.93121832e-05 -2.11167498e-05
      -2.07496596e-05 -2.04161315e-05 -1.94508684e-05 -1.83446718e-05
      -1.68353308e-05 -1.27087824e-05 -8.02698742e-06 -3.78283062e-06
      -1.24424693e-08 3.67712505e-06 4.62360140e-06 4.62360140e-06
      4.48266655e-06 3.56659007e-06 2.61527998e-06 3.36931157e-06
      5.83527526e-06 8.26997621e-06 9.10634208e-06 1.00682928e-05
      1.07100313e-05 1.09797074e-05 1.08483473e-05 9.62481317e-06
      7.42588873e-06 5.80147525e-06 2.50154426e-06 -1.17990237e-06
      -4.35017682e-06 -5.50195864e-06 -7.22261711e-06 -6.47971046e-06
      -3.10272412e-06 3.29890469e-07 7.84691736e-07 -1.22838728e-05
      -1.29026967e-05 -1.66156406e-05 -2.02899082e-05 -2.21463815e-05
      -2.21463815e-05 -2.21463815e-05 -2.15869677e-05 -2.08643742e-05
      -1.89946186e-05 -1.21468247e-05 -4.64355389e-06 -4.00106359e-07
      3.38813179e-21 3.38813179e-21 3.38813179e-21 3.38813179e-21
      3.38813179e-21 3.38813179e-21 3.38813179e-21 1.77825325e-06
      5.45750936e-06 9.40453992e-06 1.18468743e-05 1.41922264e-05
      1.58845705e-05 1.55122816e-05 1.41847877e-05 1.23326390e-05
      1.06456873e-05 9.97439111e-06 4.43801173e-06 -2.42648389e-06
      -8.49013031e-06 -1.06450525e-05 -1.31176612e-05 -1.26776613e-05
      -8.86565522e-06 -5.05441403e-06 -4.47255206e-06 -1.22838728e-05
      -1.29026967e-05 -1.66156406e-05 -2.02899082e-05 -2.21463815e-05
      -2.21463815e-05 -2.21463815e-05 -2.06732584e-05 -1.86471734e-05
      -1.53255223e-05 -8.91820036e-06 -3.07874461e-06 -9.23322361e-08
      3.38813179e-21 3.38813179e-21 3.38813179e-21 3.38813179e-21
      3.38813179e-21 3.38813179e-21 3.38813179e-21 1.46181526e-06
      4.68757344e-06 8.76258582e-06 1.41227738e-05 1.88883860e-05
      2.17213274e-05 1.99886126e-05 1.76659250e-05 1.47381188e-05
      1.19509868e-05 1.01608621e-05 4.36754408e-06 -3.08959784e-06
      -1.03007051e-05 -1.50455753e-05 -1.93326832e-05 -1.96197252e-05
      -1.54803383e-05 -1.13030374e-05 -1.06221160e-05 -1.22838728e-05
      -1.29026967e-05 -1.66156406e-05 -2.02899082e-05 -2.21463815e-05
      -2.21463815e-05 -2.21463815e-05 -2.03463587e-05 -1.79113158e-05
      -1.41340270e-05 -7.84889653e-06 -2.58857176e-06 3.38813179e-21
      3.38813179e-21 3.38813179e-21 3.38813179e-21 3.38813179e-21
      2.06489034e-07 1.44542332e-06 2.96801841e-06 6.24331278e-06
      1.13858569e-05 1.67411854e-05 1.94851018e-05 2.11557071e-05
      2.18959267e-05 2.04317257e-05 1.84558230e-05 1.49085490e-05
      1.05164327e-05 7.12132396e-06 1.56655815e-07 -8.65890706e-06
      -1.67395956e-05 -1.92104089e-05 -2.10337730e-05 -2.05192191e-05
      -1.72642758e-05 -1.40099528e-05 -1.34611428e-05 -1.22838728e-05
      -1.29026967e-05 -1.66156406e-05 -2.02899082e-05 -2.21463815e-05
      -2.21463815e-05 -2.21463815e-05 -1.94216009e-05 -1.58884086e-05
      -1.13790202e-05 -6.23071537e-06 -2.04912999e-06 3.38813179e-21
      3.38813179e-21 3.38813179e-21 1.47492173e-07 3.41168715e-07
      9.81195171e-07 4.00581348e-06 7.62153923e-06 1.20082314e-05
      1.68257593e-05 2.11868173e-05 2.20684633e-05 2.21463815e-05
      2.20590846e-05 2.14967786e-05 2.04613007e-05 1.55730941e-05
      7.51120706e-06 8.67362289e-08 -6.76538093e-06 -1.44528094e-05
      -2.12453106e-05 -2.20341790e-05 -2.20965139e-05 -2.12409850e-05
      -1.94308141e-05 -1.76392878e-05 -1.73376957e-05 -1.22838728e-05
      -1.29026967e-05 -1.66156406e-05 -2.02899082e-05 -2.21463815e-05
      -2.21463815e-05 -2.21463815e-05 -1.91319959e-05 -1.52243656e-05
      -1.04542623e-05 -5.67200777e-06 -1.85647218e-06 3.38813179e-21
      3.38813179e-21 3.38813179e-21 1.62241383e-06 3.71948408e-06
      6.04389925e-06 8.47196497e-06 1.09252105e-05 1.40260117e-05
      1.77487836e-05 2.13426538e-05 2.20996299e-05 2.21463815e-05
      2.18218975e-05 1.98750022e-05 1.74651650e-05 1.14654495e-05
      2.03240802e-06 -7.58794249e-06 -1.38086943e-05 -1.83548036e-05
      -2.20084567e-05 -2.21463815e-05 -2.21463815e-05 -2.08514102e-05
      -1.82428194e-05 -1.56915521e-05 -1.52661105e-05 -1.22838728e-05
      -1.29026967e-05 -1.66156406e-05 -2.02899082e-05 -2.21463815e-05
      -2.21463815e-05 -2.21463815e-05 -1.91133477e-05 -1.52243656e-05
      -1.04542623e-05 -5.67200777e-06 -1.85647218e-06 4.42476505e-07
      1.32742957e-06 2.21238247e-06 3.95279039e-06 6.11660425e-06
      8.94233744e-06 1.28984175e-05 1.66088103e-05 1.91612799e-05
      2.06665645e-05 2.19349786e-05 2.21463815e-05 2.21463815e-05
      2.18218975e-05 1.98082580e-05 1.68117440e-05 9.20501589e-06
      -2.25359895e-06 -1.26335744e-05 -1.73493008e-05 -2.00191735e-05
      -2.21463815e-05 -2.21463815e-05 -2.21463815e-05 -2.02899082e-05
      -1.66156406e-05 -1.29026967e-05 -1.22838728e-05 -1.22838728e-05
      -1.29026967e-05 -1.66156406e-05 -2.02899082e-05 -2.21463815e-05
      -2.21463815e-05 -2.21463815e-05 -1.91133477e-05 -1.52141065e-05
      -1.04542623e-05 -5.67200777e-06 -1.85647218e-06 1.32742957e-06
      3.98228849e-06 6.60764908e-06 8.03669991e-06 9.71625286e-06
      1.24224962e-05 1.66513510e-05 2.02763022e-05 2.20497623e-05
      2.21463815e-05 2.21463815e-05 2.21463815e-05 2.21463815e-05
      2.21168830e-05 2.17396610e-05 1.97577847e-05 1.00388843e-05
      -5.60368971e-06 -1.90528845e-05 -2.17209399e-05 -2.19529993e-05
      -2.21463815e-05 -2.21463815e-05 -2.21463815e-05 -2.02899082e-05
      -1.66156406e-05 -1.29026967e-05 -1.22838728e-05 -1.22838728e-05
      -1.29026967e-05 -1.66156406e-05 -2.02899082e-05 -2.21463815e-05
      -2.21463815e-05 -2.21463815e-05 -1.91512609e-05 -1.52141065e-05
      -1.04542623e-05 -5.63333106e-06 -1.85647218e-06 1.41592488e-06
      4.21827599e-06 7.45874104e-06 1.12996850e-05 1.60338714e-05
      2.03647342e-05 2.14768224e-05 2.19628200e-05 2.21463815e-05
      2.21463815e-05 2.21463815e-05 2.21463815e-05 2.21463815e-05
      2.21463815e-05 2.20546081e-05 2.06752138e-05 1.20622335e-05
      -2.55746318e-06 -1.52246248e-05 -1.90826668e-05 -2.07379162e-05
      -2.21307982e-05 -2.21463815e-05 -2.21463815e-05 -2.00972518e-05
      -1.60569343e-05 -1.19779397e-05 -1.13013175e-05 -1.22838728e-05
      -1.29026967e-05 -1.66156406e-05 -2.02899082e-05 -2.21463815e-05
      -2.21463815e-05 -2.21463815e-05 -1.91326144e-05 -1.52141065e-05
      -1.04542623e-05 -5.67200777e-06 -1.81475730e-06 2.60269985e-06
      7.90390459e-06 1.40539260e-05 1.76177346e-05 2.02402589e-05
      2.19907488e-05 2.21307982e-05 2.21463815e-05 2.21463815e-05
      2.21463815e-05 2.21463815e-05 2.21463815e-05 2.21463815e-05
      2.21463815e-05 2.21463815e-05 2.14408083e-05 1.54616464e-05
      4.57328815e-06 -5.56592204e-06 -1.18696844e-05 -1.66741702e-05
      -2.07149023e-05 -2.13499225e-05 -2.18808946e-05 -1.95578086e-05
      -1.44000760e-05 -9.22293202e-06 -8.35365336e-06 -1.22838728e-05
      -1.29026967e-05 -1.66156406e-05 -2.02899082e-05 -2.21463815e-05
      -2.21463815e-05 -2.21463815e-05 -1.91133477e-05 -1.52141065e-05
      -1.04542623e-05 -5.67200777e-06 -1.68126985e-06 3.97481153e-06
      1.15316234e-05 1.93640935e-05 2.17927081e-05 2.21463815e-05
      2.21463815e-05 2.21463815e-05 2.21463815e-05 2.21463815e-05
      2.21463815e-05 2.21463815e-05 2.21463815e-05 2.21463815e-05
      2.21463815e-05 2.21463815e-05 2.16539429e-05 1.68696643e-05
      8.31002671e-06 -1.96486187e-08 -5.10596465e-06 -9.55620271e-06
      -1.37156530e-05 -1.64654557e-05 -1.88910017e-05 -1.77091679e-05
      -1.29797918e-05 -8.15723979e-06 -7.37109849e-06 -1.22838728e-05
      -1.29026967e-05 -1.66156406e-05 -2.02899082e-05 -2.21463815e-05
      -2.21463815e-05 -2.21463815e-05 -1.91319959e-05 -1.52141065e-05
      -1.04542623e-05 -5.63333106e-06 -1.73967055e-06 3.08836934e-06
      9.18932983e-06 1.59177071e-05 1.83303673e-05 1.88425565e-05
      1.88425565e-05 1.88425565e-05 1.88425565e-05 1.88425565e-05
      1.88425565e-05 1.88425565e-05 1.98750022e-05 2.11139359e-05
      2.21463815e-05 2.21463815e-05 2.16539429e-05 1.68696643e-05
      8.54871087e-06 1.06557991e-06 -7.67526728e-07 -2.45216370e-06
      -4.55792406e-06 -7.41691974e-06 -9.69794837e-06 -1.03034927e-05
      -8.96230813e-06 -7.59841396e-06 -7.37109849e-06 -1.22838728e-05
      -1.29026967e-05 -1.66156406e-05 -2.02899082e-05 -2.21463815e-05
      -2.21463815e-05 -2.21463815e-05 -1.91133477e-05 -1.52141065e-05
      -1.04542623e-05 -5.67200777e-06 -1.85647218e-06 8.10375241e-07
      2.70493683e-06 5.56649229e-06 7.30352804e-06 8.64668164e-06
      9.44423482e-06 9.72272574e-06 9.76947649e-06 9.76947649e-06
      9.78616208e-06 9.83621976e-06 1.35784758e-05 1.80117058e-05
      2.17039051e-05 2.18808946e-05 2.15654472e-05 1.68696643e-05
      8.52007270e-06 1.22543065e-06 0. -4.04955273e-07 -9.48447905e-07
      -2.22122299e-06 -3.74590695e-06 -5.41868849e-06 -6.30390286e-06
      -7.19590707e-06 -7.37109849e-06 -1.22838728e-05 -1.29026967e-05
      -1.66156406e-05 -2.02899082e-05 -2.21463815e-05 -2.21463815e-05
      -2.21463815e-05 -1.91326144e-05 -1.52243656e-05 -1.04542623e-05
      -5.67200777e-06 -1.85647218e-06 3.38813179e-21 3.38813179e-21
      2.00231227e-07 6.59027137e-07 1.88069748e-06 3.08471704e-06
      3.47882610e-06 3.54116059e-06 3.54116059e-06 3.68299106e-06
      4.26699853e-06 7.91389175e-06 1.17792324e-05 1.53566689e-05
      1.75232963e-05 1.90949777e-05 1.56012502e-05 7.81539802e-06
      1.11972952e-06 0. 0. 0. -5.62559649e-07 -1.78863922e-06
      -3.14456315e-06 -4.33025161e-06 -5.48749631e-06 -5.78558138e-06
      -1.22838728e-05 -1.29026967e-05 -1.66156406e-05 -2.02899082e-05
      -2.21463815e-05 -2.21463815e-05 -2.21463815e-05 -1.91326144e-05
      -1.52243656e-05 -1.04542623e-05 -5.67200777e-06 -1.85647218e-06
      3.38813179e-21 3.38813179e-21 3.38813179e-21 4.26268727e-08
      2.60688154e-07 5.28617079e-07 6.22921732e-07 6.38505412e-07
      6.38505412e-07 7.88678790e-07 1.37268660e-06 2.44996613e-06
      3.38088989e-06 5.21084348e-06 8.36305207e-06 1.06173211e-05
      8.86055841e-06 4.24612608e-06 6.19900277e-07 0. 0. 0.
      -7.45970254e-08 -2.77074662e-07 2.96077076e-07 2.71276406e-07
      2.85576306e-07 2.79799188e-08 -1.22838728e-05 -1.29026967e-05
      -1.66156406e-05 -2.02899082e-05 -2.21463815e-05 -2.21463815e-05
      -2.21463815e-05 -1.91133477e-05 -1.52141065e-05 -1.04542623e-05
      -5.67200777e-06 -1.85647218e-06 3.38813179e-21 3.38813179e-21
      3.38813179e-21 3.38813179e-21 3.38813179e-21 3.38813179e-21
      3.38813179e-21 3.38813179e-21 3.38813179e-21 1.66859362e-08
      6.67437448e-08 1.16801552e-07 2.76856923e-07 9.76027991e-07
      2.13521957e-06 3.32625882e-06 3.12132602e-06 1.47656158e-06
      2.19214840e-07 0. 0. 0. 0. 0. 1.07800963e-06 1.57437341e-06
      2.11295446e-06 1.93140295e-06 -1.22838728e-05 -1.29026967e-05
      -1.66156406e-05 -2.02899082e-05 -2.21463815e-05 -2.21463815e-05
      -2.21463815e-05 -1.91319959e-05 -1.52141065e-05 -1.04542623e-05
      -5.63333106e-06 -1.85647218e-06 3.38813179e-21 3.38813179e-21
      3.38813179e-21 3.38813179e-21 3.38813179e-21 3.38813179e-21
      3.38813179e-21 3.38813179e-21 3.38813179e-21 3.38813179e-21
      3.38813179e-21 3.38813179e-21 3.38813179e-21 3.38813179e-21
      2.97952056e-07 1.41886778e-06 2.03489162e-06 1.34989148e-06
      5.67966140e-07 3.67609999e-07 1.86471311e-07 0. 0. 0.
      1.12476050e-06 1.96355541e-06 2.84145085e-06 2.74927720e-06
      -1.22838728e-05 -1.29026967e-05 -1.66156406e-05 -2.02899082e-05
      -2.21463815e-05 -2.21463815e-05 -2.21463815e-05 -1.91133477e-05
      -1.52141065e-05 -1.04542623e-05 -5.67200777e-06 -1.85647218e-06
      3.38813179e-21 3.38813179e-21 3.38813179e-21 3.38813179e-21
      3.38813179e-21 3.38813179e-21 3.38813179e-21 3.38813179e-21
      3.38813179e-21 3.38813179e-21 3.38813179e-21 3.38813179e-21
      3.38813179e-21 3.38813179e-21 2.48084433e-07 8.51638276e-07
      1.09897576e-06 1.04637002e-06 2.36645405e-06 2.30156184e-06
      1.15612204e-06 0. 0. 0. 1.14607394e-06 2.74149579e-06
      4.36536175e-06 4.51829237e-06 -1.22838728e-05 -1.29026967e-05
      -1.66156406e-05 -2.02899082e-05 -2.21463815e-05 -2.21463815e-05
      -2.21463815e-05 -1.97666159e-05 -1.65939946e-05 -1.23562695e-05
      -6.80948278e-06 -2.22941480e-06 3.38813179e-21 3.38813179e-21
      3.38813179e-21 3.38813179e-21 3.38813179e-21 3.38813179e-21
      3.38813179e-21 3.38813179e-21 3.38813179e-21 3.38813179e-21
      3.38813179e-21 3.38813179e-21 3.38813179e-21 3.38813179e-21
      2.16917158e-07 5.75461286e-07 -6.03039396e-08 -1.35621190e-06
      -1.14190118e-06 -6.76136153e-07 -4.94772678e-07 -2.98388102e-07 0.
      0. 1.15673060e-06 3.00791385e-06 4.88754085e-06 5.12572524e-06
      -1.66156406e-05 -1.69637296e-05 -1.90135852e-05 -2.11021161e-05
      -2.21463815e-05 -2.21463815e-05 -2.21463815e-05 -2.06243840e-05
      -1.84773544e-05 -1.49109264e-05 -8.31851776e-06 -2.75153434e-06
      3.38813179e-21 3.38813179e-21 3.38813179e-21 3.38813179e-21
      3.38813179e-21 3.38813179e-21 3.38813179e-21 3.38813179e-21
      3.38813179e-21 3.38813179e-21 3.38813179e-21 3.38813179e-21
      3.38813179e-21 3.38813179e-21 2.16917158e-07 5.75461286e-07
      -1.04684773e-06 -4.33537161e-06 -6.72880969e-06 -5.62011382e-06
      -3.17526519e-06 -7.14000123e-07 0. 0. 1.15673060e-06
      3.00791385e-06 4.88754085e-06 5.12572524e-06 -2.16744065e-05
      -2.16577209e-05 -2.16076623e-05 -2.15576038e-05 -2.15409182e-05
      -2.15409182e-05 -2.15165674e-05 -2.01010407e-05 -1.81695486e-05
      -1.48391127e-05 -8.34693583e-06 -2.75153434e-06 3.38813179e-21
      3.38813179e-21 3.38813179e-21 3.38813179e-21 3.38813179e-21
      3.38813179e-21 3.38813179e-21 3.38813179e-21 3.38813179e-21
      3.38813179e-21 3.38813179e-21 3.38813179e-21 3.38813179e-21
      3.38813179e-21 2.16917158e-07 5.75461286e-07 -1.04684773e-06
      -4.34454978e-06 -6.72880969e-06 -5.62011382e-06 -3.19185165e-06
      -7.14000123e-07 0. 0. 1.15673060e-06 3.00791385e-06 4.88754085e-06
      5.12572524e-06 -1.69841551e-05 -1.66225800e-05 -1.47701585e-05
      -1.29177370e-05 -1.21416997e-05 -1.21416997e-05 -1.18116104e-05
      -1.27348467e-05 -1.40575894e-05 -1.40799366e-05 -8.28538032e-06
      -2.75153434e-06 3.38813179e-21 3.38813179e-21 3.38813179e-21
      3.38813179e-21 3.38813179e-21 3.38813179e-21 3.38813179e-21
      3.38813179e-21 3.38813179e-21 3.38813179e-21 3.38813179e-21
      3.38813179e-21 3.38813179e-21 3.38813179e-21 2.16917158e-07
      5.75461286e-07 -4.12640986e-07 -2.42578062e-06 -3.55777593e-06
      -3.32992295e-06 -2.13484054e-06 -7.14000123e-07 0. 0.
      1.15673060e-06 3.00791385e-06 4.88754085e-06 5.12572524e-06
      -1.37454408e-05 -1.29900036e-05 -8.93914057e-06 -4.88827754e-06
      -2.66484767e-06 -2.29472334e-06 -1.82895110e-06 -6.14538158e-06
      -1.15121229e-05 -1.53985820e-05 -9.34433774e-06 -3.21106813e-06
      6.39403055e-08 5.32835891e-08 2.13134363e-08 3.38813179e-21
      3.38813179e-21 3.38813179e-21 3.38813179e-21 3.38813179e-21
      3.38813179e-21 3.38813179e-21 3.38813179e-21 3.38813179e-21
      3.38813179e-21 -1.92657822e-07 -1.07389030e-06 -1.83276154e-06
      -1.74458683e-06 -5.77671528e-07 1.49938842e-06 5.45784758e-07
      -3.91802331e-07 -7.14000123e-07 -2.00231227e-07 -4.67206206e-07
      5.56036980e-07 2.67419500e-06 4.82079713e-06 5.12572524e-06
      -6.41116048e-06 -6.15597128e-06 -4.75809702e-06 -3.36022276e-06
      -9.45181512e-07 8.68931807e-07 1.59177682e-06 -1.63291963e-06
      -5.55577617e-06 -8.79302479e-06 -4.80983681e-06 -5.72488432e-07
      1.91399045e-06 1.41161365e-06 6.18089643e-07 3.38813179e-21
      3.38813179e-21 3.38813179e-21 3.38813179e-21 3.38813179e-21
      3.38813179e-21 3.38813179e-21 3.38813179e-21 3.38813179e-21
      3.38813179e-21 -3.08252510e-07 -1.94085055e-06 -3.41255577e-06
      -3.34364677e-06 -1.44463172e-06 1.38379369e-06 5.45784758e-07
      -3.73155217e-07 -7.14000123e-07 -6.00693681e-07 -1.39327562e-06
      -6.45350383e-07 2.00675754e-06 4.68730968e-06 5.12572524e-06
      5.66909239e-06 5.24335155e-06 2.67777045e-06 7.66295969e-08
      -2.18591296e-08 1.24851988e-06 1.57617308e-06 -1.03652394e-06
      -4.01320267e-06 -6.39220252e-06 -3.35775417e-06 4.03062728e-07
      2.75837260e-06 2.14039460e-06 9.16477745e-07 3.38813179e-21
      3.38813179e-21 3.38813179e-21 3.38813179e-21 3.38813179e-21
      3.38813179e-21 3.38813179e-21 3.38813179e-21 3.38813179e-21
      3.58747627e-07 2.99091568e-07 -1.24452257e-07 -5.58948102e-07
      -3.79538562e-07 4.22947721e-07 1.64927962e-06 5.45784758e-07
      -3.73155217e-07 -7.14000123e-07 -6.34065543e-07 -1.48504830e-06
      -7.41633642e-07 2.58633963e-06 5.94275662e-06 6.59278203e-06
      1.44042606e-05 1.34870825e-05 8.03995499e-06 2.63150423e-06
      -2.74595635e-07 -4.58464939e-07 -3.80531361e-07 -2.08177835e-06
      -4.18877789e-06 -6.28307498e-06 -4.41032398e-06 -1.58901048e-06
      7.15475608e-07 8.43793032e-07 3.08009646e-07 -4.92438573e-07
      -4.92438573e-07 -4.92438573e-07 -4.92438573e-07 -4.92438573e-07
      -4.92438573e-07 -4.50723746e-07 -2.92207375e-07 -1.33690989e-07
      4.25287851e-07 4.47307485e-07 3.79092171e-07 2.80105127e-07
      7.33803972e-07 1.27745204e-06 1.83324096e-06 5.04069931e-07
      -5.92033587e-07 -1.07274775e-06 -9.17726425e-07 -1.61019273e-06
      -7.62541788e-07 2.91982496e-06 6.64089475e-06 7.42389921e-06
      8.91398395e-06 8.34914317e-06 4.92486288e-06 1.59314015e-06
      -9.83668883e-07 -1.88647300e-06 -1.64439314e-06 -1.14112686e-06
      -9.73448323e-07 -2.46104446e-06 -5.71361988e-06 -8.72773035e-06
      -8.02446539e-06 -4.39510904e-06 -7.66817436e-07 -5.67760651e-07
      -1.29241744e-06 -2.01707417e-06 -2.12364148e-06 -2.12364148e-06
      -2.12364148e-06 -1.94843915e-06 -1.25597285e-06 -5.63506489e-07
      -2.71502614e-07 -2.63867463e-07 -2.01883182e-07 1.08089317e-07
      1.57260914e-07 -2.44355334e-07 -6.62899780e-08 -1.48700849e-07
      -1.01159810e-06 -1.81820997e-06 -1.84379587e-06 -2.00231216e-06
      -1.86942066e-06 -4.91196431e-07 9.64081096e-07 1.34488062e-06
      4.69852921e-06 4.75099660e-06 5.08915400e-06 5.39519488e-06
      3.40385577e-06 1.76371231e-07 -1.65813890e-06 -8.52537426e-07 0.
      -9.31443310e-07 -4.67966811e-06 -8.36152412e-06 -8.42648387e-06
      -5.17908711e-06 -1.87374746e-06 -2.86975069e-06 -5.42856742e-06
      -7.57652651e-06 -6.53653206e-06 -5.28168812e-06 -4.36403343e-06
      -3.63153322e-06 -2.43526620e-06 -1.68456540e-06 -1.52101302e-06
      -1.13388023e-06 -7.45142614e-08 9.42363954e-07 7.94409459e-07
      -3.86478234e-07 -8.31249508e-07 -4.32365283e-07 -1.05955689e-06
      -1.65363531e-06 -2.02259528e-07 1.77380753e-06 2.08539041e-06
      7.58630392e-07 -5.65450421e-07 -7.32256069e-07 1.99396936e-06
      2.80050472e-06 7.40270934e-06 1.19408005e-05 1.04076926e-05
      3.91690764e-06 -1.10493193e-06 -8.41880706e-07 0. -3.52337075e-08
      -2.81869660e-07 -5.63739320e-07 -5.94851883e-07 -4.64321971e-07
      -3.33792059e-07 -3.77624747e-06 -8.00881480e-06 -1.12092821e-05
      -8.90044612e-06 -6.59690068e-06 -4.25202370e-06 -1.87073761e-06
      6.59374052e-07 1.30578019e-06 1.36811479e-06 1.97617896e-06
      1.64753919e-06 8.31356772e-07 9.58764446e-08 -8.43587173e-08
      -1.79692691e-07 -8.89283869e-10 -3.51039517e-07 -4.09695360e-07
      2.04499474e-06 5.40728070e-06 6.64977370e-06 4.70659461e-06
      2.70953456e-06 2.36316760e-06 6.67437405e-07 1.30066110e-06
      4.62949174e-06 7.91285584e-06 6.49458843e-06 1.81112762e-06
      -1.80834343e-06 -1.91820914e-06 -1.38537337e-06 -7.24656843e-07
      -6.39403055e-08 0. 0. 0. 0. -1.30140438e-06 -2.86540421e-06
      -4.03887725e-06 -3.35652885e-06 -2.70202622e-06 -1.79998017e-06
      -6.15156694e-07 5.81184054e-07 8.47380932e-07 8.62964555e-07
      1.13472356e-06 8.60400291e-07 3.72942623e-07 0. -4.42177281e-07
      -1.02618503e-06 2.11040742e-07 2.01401781e-06 3.26225290e-06
      2.12955160e-06 1.69576401e-06 2.08012921e-06 1.71920726e-06
      1.33858214e-06 1.15092553e-06 3.38813179e-21 3.31866005e-07
      1.95474126e-06 3.55835050e-06 3.03675142e-06 1.34397658e-06
      -1.87113940e-07 -1.25446252e-06 -1.93561687e-06 -1.58785099e-06
      -6.92686683e-07 -3.72985141e-07 -1.17223898e-07 0. 0. 0. 0. 0. 0.
      0. 0. 0. 0. 0. 0. 0. -6.67437448e-08 -3.33718702e-07
      -9.69727836e-08 4.40668344e-07 1.23217887e-06 2.05529659e-06
      2.98383725e-06 3.26794634e-06 1.06905054e-06 -8.25368943e-07
      -9.24128017e-07 -4.39404658e-07 6.39658211e-08 3.38813179e-21
      3.38813179e-21 4.61843683e-08 2.73232786e-07 5.00281203e-07
      1.35470339e-06 2.37373320e-06 2.50117500e-06 3.90941352e-07
      -1.60627872e-06 -2.53629878e-06 -2.38710481e-06 -1.45997035e-06
      -4.47582153e-07 0. 0. 0. 0. 0. 0. 0. 0. 0. 0. 0. 0. 0.
      -2.00231227e-07 -1.00115608e-06 -4.55967438e-07 2.04151615e-06
      5.71343162e-06 4.65230914e-06 1.74207059e-06 -8.02595480e-07
      -9.29403257e-08 8.11336491e-08 -1.43810411e-07 -6.92389008e-08
      1.59893290e-08 3.38813179e-21 3.38813179e-21 3.38813179e-21
      3.38813179e-21 3.38813179e-21 3.80279459e-07 8.72039095e-07
      9.54803568e-07 1.54917416e-07 -5.75335093e-07 -5.24035045e-07
      -4.84859051e-08 2.93625789e-07 2.94150251e-08 -5.84333350e-07
      -1.28543240e-06 -1.30011961e-06 -6.92686683e-07 -8.52537454e-08 0.
      -3.58747627e-07 -8.34296770e-07 -1.19304434e-06 -1.19304434e-06
      1.44726243e-07 1.73849151e-06 2.78521452e-06 8.49771936e-07
      -1.20358732e-06 -9.99208964e-07 1.51749180e-06 4.07913149e-06
      3.53892801e-06 1.51141205e-06 -4.32157606e-07 -1.81019644e-07
      1.03951898e-07 3.38813179e-21 3.38813179e-21 3.38813179e-21
      3.38813179e-21 3.38813179e-21 3.38813179e-21 3.38813179e-21
      3.38813179e-21 3.38813179e-21 3.38813179e-21 3.38813179e-21
      3.38813179e-21 3.38813179e-21 6.42408509e-07 1.49339121e-06
      1.19283709e-06 -1.66392809e-07 -1.49581024e-06 -2.52774657e-06
      -2.48301535e-06 -1.32143305e-06 -1.70507491e-07 0. -6.34065543e-07
      -1.48504830e-06 -2.12745681e-06 -2.12745681e-06 1.19607449e-07
      2.85021724e-06 4.56198586e-06 1.10163194e-06 -2.07103767e-06
      -2.07711264e-06 6.28984480e-07 2.41910902e-06 2.71746308e-06
      1.86492559e-06 7.14000123e-07 3.38813179e-21 3.38813179e-21
      3.38813179e-21 3.38813179e-21 3.38813179e-21 3.38813179e-21</_>
    <_>
      2.96461532e-21 2.96461532e-21 2.96461532e-21 2.96461532e-21
      -4.31142695e-07 -8.78709898e-07 -1.04706089e-06 -1.04706089e-06
      -1.04706089e-06 -1.79715278e-06 -6.29770420e-06 -1.07513752e-05
      -1.30016506e-05 -1.30016506e-05 -1.30016506e-05 -1.30016506e-05
      -1.30016506e-05 -1.30016506e-05 -1.30016506e-05 -1.30016506e-05
      -1.22399333e-05 -1.07023907e-05 -9.26409848e-06 -8.31538273e-06
      -6.77978915e-06 -5.56728264e-06 -3.48281628e-06 -9.82717211e-07
      2.00126874e-06 3.89850720e-06 2.37507129e-06 3.30374087e-06
      4.57230726e-06 5.25883343e-06 3.22374308e-06 1.50045628e-06
      2.96461532e-21 2.96461532e-21 2.96461532e-21 2.96461532e-21
      2.96461532e-21 -7.39101793e-08 -3.03852943e-07 -5.29689601e-07
      -9.53030394e-07 -1.57314344e-06 -2.06669870e-06 -3.43639567e-06
      -5.00214173e-06 -6.73805334e-06 -9.22348954e-06 -1.17399650e-05
      -1.30016506e-05 -1.30016506e-05 -1.30016506e-05 -1.30016506e-05
      -1.30016506e-05 -1.30016506e-05 -1.30016506e-05 -1.30016506e-05
      -1.22399333e-05 -1.06122989e-05 -8.80612879e-06 -7.49704259e-06
      -6.14914143e-06 -4.70992109e-06 -2.65440576e-06 -7.22843708e-07
      1.03905722e-06 2.12684699e-06 5.89305216e-07 1.02322929e-06
      2.12673854e-06 3.14968270e-06 2.57075249e-06 1.49163247e-06
      2.96461532e-21 2.96461532e-21 2.96461532e-21 2.96461532e-21
      2.96461532e-21 -1.61602614e-07 -7.16500097e-07 -1.26729151e-06
      -1.80204893e-06 -2.73065257e-06 -3.66820041e-06 -6.70418649e-06
      -1.01219230e-05 -1.30016506e-05 -1.30016506e-05 -1.30016506e-05
      -1.30016506e-05 -1.30016506e-05 -1.30016506e-05 -1.28464544e-05
      -1.26602181e-05 -1.25050219e-05 -1.24203862e-05 -1.23216450e-05
      -1.15335743e-05 -9.85218776e-06 -7.67471647e-06 -6.02170530e-06
      -4.93800326e-06 -3.01392788e-06 -9.76566753e-07 9.31179258e-08 0.
      -1.26952997e-07 -1.66449479e-06 -2.01005787e-06 -1.02152251e-06
      6.39828500e-07 1.90541482e-06 1.16910962e-06 -5.96498694e-07
      -3.28140430e-07 -5.97821597e-08 2.96461532e-21 2.96461532e-21
      -3.20016966e-07 -1.83154145e-06 -3.33691287e-06 -4.98702821e-06
      -7.23239464e-06 -9.46881755e-06 -1.08116819e-05 -1.20049563e-05
      -1.30016506e-05 -1.30016506e-05 -1.30016506e-05 -1.30016506e-05
      -1.30016506e-05 -1.30016506e-05 -1.12944890e-05 -9.24589403e-06
      -7.56977170e-06 -6.66699498e-06 -5.62315927e-06 -4.53641815e-06
      -3.20278696e-06 -1.22470158e-06 1.17803063e-06 3.00266925e-06
      3.69040413e-06 2.57875899e-06 1.02429726e-06 0. -1.26952997e-07
      -1.66449479e-06 -2.80622339e-06 -2.76537094e-06 -2.05011747e-06
      -1.80728102e-06 -3.72696945e-06 -5.32964941e-06 -2.89918580e-06
      -4.64616022e-07 2.96461532e-21 -9.14298084e-07 -1.36796382e-06
      -3.88728222e-06 -6.40865937e-06 -8.59406919e-06 -1.06116240e-05
      -1.26602181e-05 -1.30016506e-05 -1.30016506e-05 -1.30016506e-05
      -1.30016506e-05 -1.30016506e-05 -1.22882047e-05 -1.07237638e-05
      -9.05667002e-06 -6.86337171e-06 -4.33517698e-06 -2.14841452e-06
      -9.34466470e-07 6.69899407e-07 2.21548430e-06 3.67134749e-06
      5.28191003e-06 6.83127973e-06 8.00815633e-06 7.57359157e-06
      5.52499705e-06 3.47640275e-06 2.01755506e-06 9.87634621e-07
      -9.87380417e-07 -2.20051857e-06 -3.04078776e-06 -3.58628654e-06
      -4.35378661e-06 -6.62407501e-06 -7.74956425e-06 -4.22632093e-06
      -6.61034903e-07 2.96461532e-21 -2.62403842e-06 -3.24448274e-06
      -6.95615699e-06 -1.06457364e-05 -1.25981396e-05 -1.27843759e-05
      -1.29706114e-05 -1.30016506e-05 -1.30016506e-05 -1.29927066e-05
      -1.29300970e-05 -1.27723151e-05 -1.05986337e-05 -6.27085910e-06
      -1.81702137e-06 -3.96968233e-07 1.22806819e-06 2.80795939e-06
      3.86842657e-06 5.43248643e-06 7.60026933e-06 1.00235775e-05
      1.16082465e-05 1.06088874e-05 9.40154223e-06 8.19280012e-06
      7.84951408e-06 7.54728990e-06 6.02162618e-06 3.24502162e-06
      3.66848411e-07 -1.97482436e-07 -1.92836046e-06 -4.09953145e-06
      -6.06456615e-06 -8.20016430e-06 -8.74792931e-06 -4.84753309e-06
      -9.31939269e-07 -2.21730531e-07 -4.46053355e-06 -4.99293947e-06
      -8.21420599e-06 -1.13954893e-05 -1.30016506e-05 -1.30016506e-05
      -1.30016506e-05 -1.30016506e-05 -1.30016506e-05 -1.25735833e-05
      -1.00113193e-05 -7.09461301e-06 -4.48808623e-06 -2.35064613e-06
      -3.72029774e-07 3.10329540e-07 1.84787132e-06 3.37130723e-06
      5.17573926e-06 7.58786973e-06 9.93981303e-06 1.18692633e-05
      1.29934388e-05 1.24163253e-05 1.17413601e-05 1.07404230e-05
      9.46009368e-06 8.35911851e-06 7.26319831e-06 5.95954725e-06
      4.65589665e-06 3.07289156e-06 -4.34454591e-07 -4.26759834e-06
      -6.97448422e-06 -9.75190778e-06 -1.02415561e-05 -5.96705468e-06
      -1.65872302e-06 -9.27983365e-07 -5.08662697e-06 -5.58325610e-06
      -8.56302995e-06 -1.15117637e-05 -1.30016506e-05 -1.30016506e-05
      -1.30016506e-05 -1.27333251e-05 -1.24113340e-05 -1.14555260e-05
      -7.30800457e-06 -2.72983516e-06 -1.97093811e-07 1.69270663e-07
      4.51388416e-07 9.66126208e-07 2.46699415e-06 4.16929333e-06
      7.21732158e-06 1.06624748e-05 1.26412806e-05 1.30016506e-05
      1.30016506e-05 1.30016506e-05 1.30016506e-05 1.26458208e-05
      1.12540456e-05 9.84453163e-06 8.84261317e-06 8.29067994e-06
      7.96868881e-06 5.43187934e-06 6.43772239e-07 -4.30337514e-06
      -7.25175414e-06 -1.02617269e-05 -1.10307292e-05 -7.10472614e-06
      -3.19392166e-06 -2.53694770e-06 -5.08662697e-06 -5.58325610e-06
      -8.56302995e-06 -1.15117637e-05 -1.30016506e-05 -1.30016506e-05
      -1.30016506e-05 -1.22950596e-05 -1.14076747e-05 -9.97839561e-06
      -6.27176951e-06 -2.30958290e-06 -1.47820359e-07 6.91188518e-07
      1.94752215e-06 3.17200033e-06 4.43645195e-06 6.24236873e-06
      9.19444119e-06 1.18020080e-05 1.30016506e-05 1.30016506e-05
      1.30016506e-05 1.30016506e-05 1.30016506e-05 1.28912952e-05
      1.22291594e-05 1.13768274e-05 1.01729775e-05 8.91677337e-06
      8.05813124e-06 5.43187934e-06 6.43772239e-07 -4.30337514e-06
      -7.25175414e-06 -1.02617269e-05 -1.19619081e-05 -9.89826458e-06
      -7.81877861e-06 -7.47219792e-06 -5.08662697e-06 -5.58325610e-06
      -8.56302995e-06 -1.15117637e-05 -1.30016506e-05 -1.30016506e-05
      -1.30016506e-05 -1.21757594e-05 -1.10882547e-05 -9.26956454e-06
      -5.35909430e-06 -1.80946790e-06 -1.64244849e-08 8.60459181e-07
      2.77429604e-06 4.80163590e-06 6.63445689e-06 8.29139026e-06
      1.02650374e-05 1.21163303e-05 1.30016506e-05 1.30016506e-05
      1.30016506e-05 1.30016506e-05 1.30016506e-05 1.29119862e-05
      1.23877962e-05 1.16596148e-05 1.04557648e-05 9.06851255e-06
      8.07882316e-06 5.43187934e-06 6.51921255e-07 -4.30337514e-06
      -7.25175414e-06 -1.02617269e-05 -1.23102345e-05 -1.09294488e-05
      -9.54661573e-06 -9.31384420e-06 -5.08662697e-06 -5.58325610e-06
      -8.56302995e-06 -1.15117637e-05 -1.30016506e-05 -1.30016506e-05
      -1.30016506e-05 -1.18446924e-05 -1.03517259e-05 -8.23398477e-06
      -4.71074191e-06 -1.47422395e-06 1.83376542e-07 1.06486743e-06
      3.12914676e-06 5.63650428e-06 8.89433068e-06 1.15521980e-05
      1.23222180e-05 1.27751737e-05 1.30016506e-05 1.30016506e-05
      1.30016506e-05 1.30016506e-05 1.30016506e-05 1.29809587e-05
      1.28430138e-05 1.25148727e-05 1.13179203e-05 9.53062772e-06
      8.14779560e-06 5.43187934e-06 6.43772239e-07 -4.30337514e-06
      -7.25175414e-06 -1.02617269e-05 -1.25533461e-05 -1.16546908e-05
      -1.07649785e-05 -1.06148618e-05 -5.08662697e-06 -5.58325610e-06
      -8.56302995e-06 -1.15117637e-05 -1.30016506e-05 -1.30016506e-05
      -1.30016506e-05 -1.17432801e-05 -1.01103224e-05 -7.90291688e-06
      -4.51072174e-06 -5.30686464e-07 2.01714192e-06 3.59961996e-06
      6.21326990e-06 8.90736283e-06 1.11148947e-05 1.27518406e-05
      1.30016506e-05 1.30016506e-05 1.30016506e-05 1.30016506e-05
      1.30016506e-05 1.30016506e-05 1.30016506e-05 1.30016506e-05
      1.30016506e-05 1.28045567e-05 1.16007068e-05 9.68236782e-06
      8.16848660e-06 5.43187934e-06 6.51921255e-07 -4.30337514e-06
      -7.25175414e-06 -1.02617269e-05 -1.19684091e-05 -9.89298223e-06
      -7.85753855e-06 -7.51610651e-06 -5.08662697e-06 -5.58325610e-06
      -8.56302995e-06 -1.15117637e-05 -1.30016506e-05 -1.30016506e-05
      -1.30016506e-05 -1.17343361e-05 -1.01103224e-05 -7.90291688e-06
      -4.51072174e-06 2.67194480e-08 3.52053576e-06 6.46988110e-06
      9.97253301e-06 1.27839276e-05 1.30016506e-05 1.30016506e-05
      1.30016506e-05 1.30016506e-05 1.26125160e-05 1.17141226e-05
      1.06403395e-05 1.06469543e-05 1.13592932e-05 1.21757075e-05
      1.28347474e-05 1.28045567e-05 1.11351173e-05 8.28355132e-06
      5.84053851e-06 3.75575655e-06 -1.24061486e-07 -4.30337514e-06
      -7.25175414e-06 -1.02617269e-05 -1.15117637e-05 -8.56302995e-06
      -5.58325610e-06 -5.08662697e-06 -5.08662697e-06 -5.58325610e-06
      -8.56302995e-06 -1.15117637e-05 -1.30016506e-05 -1.30016506e-05
      -1.30016506e-05 -1.17343361e-05 -1.01103224e-05 -7.90291688e-06
      -4.51072174e-06 1.01796552e-07 3.88090575e-06 7.10803670e-06
      1.04755500e-05 1.30016506e-05 1.30016506e-05 1.30016506e-05
      1.30016506e-05 1.30016506e-05 1.18342459e-05 9.32712555e-06
      6.78897959e-06 7.44788804e-06 9.26958182e-06 1.10431283e-05
      1.25009401e-05 1.28045567e-05 1.02039385e-05 5.48311664e-06
      1.21568155e-06 3.41432411e-07 -1.65313668e-06 -4.30337514e-06
      -7.25175414e-06 -1.02617269e-05 -1.15117637e-05 -8.56302995e-06
      -5.58325610e-06 -5.08662697e-06 -5.08662697e-06 -5.58325610e-06
      -8.56302995e-06 -1.15117637e-05 -1.30016506e-05 -1.30016506e-05
      -1.30016506e-05 -1.17501777e-05 -9.88873398e-06 -6.81676374e-06
      -2.53306985e-06 2.24681867e-06 6.15427234e-06 8.85542158e-06
      1.12472117e-05 1.30016506e-05 1.30016506e-05 1.30016506e-05
      1.18113558e-05 1.04150477e-05 8.95249468e-06 7.23600260e-06
      5.38680888e-06 6.14445844e-06 8.06489334e-06 1.02464792e-05
      1.22275205e-05 1.28045567e-05 1.01108199e-05 5.23480185e-06
      7.50091942e-07 0. -1.83122347e-06 -4.30337514e-06 -7.25175414e-06
      -1.02617269e-05 -1.14427912e-05 -8.36300933e-06 -5.25218820e-06
      -4.73486762e-06 -5.08662697e-06 -5.58325610e-06 -8.56302995e-06
      -1.15117637e-05 -1.30016506e-05 -1.30016506e-05 -1.28182746e-05
      -1.12757389e-05 -9.05609795e-06 -5.10134714e-06 1.50809456e-07
      6.04425713e-06 1.04212340e-05 1.21161002e-05 1.26516406e-05
      1.30016506e-05 1.30016506e-05 1.30016506e-05 1.08957438e-05
      8.07036213e-06 5.50601089e-06 3.30936336e-06 1.68114252e-06
      2.88174692e-06 4.91479750e-06 8.16700413e-06 1.14863215e-05
      1.28045567e-05 1.01108199e-05 5.20376261e-06 7.50091942e-07 0.
      -1.80833320e-06 -4.30337514e-06 -7.25175414e-06 -1.02617269e-05
      -1.12496691e-05 -7.76984689e-06 -4.26588213e-06 -3.67958910e-06
      -5.08662697e-06 -5.58325610e-06 -8.56302995e-06 -1.15117637e-05
      -1.30016506e-05 -1.30016506e-05 -1.22399333e-05 -9.71719419e-06
      -6.67724908e-06 -1.93069513e-06 4.16775310e-06 9.32166313e-06
      1.23255140e-05 1.30016506e-05 1.30016506e-05 1.30016506e-05
      1.29566042e-05 1.27839276e-05 9.74355498e-06 5.88269859e-06
      2.93420726e-06 1.15297621e-06 2.25694208e-07 1.74913009e-06
      3.86476586e-06 7.46698288e-06 1.12392545e-05 1.28045567e-05
      1.01108199e-05 5.20376261e-06 7.50091942e-07 0. -1.80833320e-06
      -4.30337514e-06 -7.25175414e-06 -1.02617269e-05 -1.11806967e-05
      -7.57672342e-06 -3.93481423e-06 -3.32782952e-06 -5.08662697e-06
      -5.58325610e-06 -8.56302995e-06 -1.15117637e-05 -1.30016506e-05
      -1.30016506e-05 -1.20565564e-05 -9.27474957e-06 -5.66560220e-06
      2.96315591e-07 7.66643370e-06 1.15117637e-05 1.30016506e-05
      1.30016506e-05 1.30016506e-05 1.27727481e-05 1.15317343e-05
      9.75730654e-06 5.86730766e-06 1.98656721e-06 7.50771036e-08
      2.96461532e-21 2.25694208e-07 1.74913009e-06 3.86476586e-06
      7.46698288e-06 1.12186663e-05 1.28045567e-05 1.01108199e-05
      5.24169945e-06 7.50091942e-07 0. -1.83122347e-06 -4.30337514e-06
      -7.25175414e-06 -1.02617269e-05 -1.11806967e-05 -7.57672342e-06
      -3.93481423e-06 -3.32782952e-06 -5.08662697e-06 -5.58325610e-06
      -8.56302995e-06 -1.15117637e-05 -1.29029095e-05 -1.28182746e-05
      -1.17470399e-05 -8.59563079e-06 -4.63008109e-06 1.05602351e-06
      7.93570325e-06 1.15117637e-05 1.30016506e-05 1.29452274e-05
      1.28464862e-05 1.22864758e-05 9.71658847e-06 6.56328530e-06
      3.55118482e-06 1.11179850e-06 2.96461532e-21 2.96461532e-21
      2.25694208e-07 1.74913009e-06 3.86476586e-06 7.46698288e-06
      1.12392545e-05 1.28045567e-05 1.01108199e-05 5.21270704e-06
      7.50091942e-07 0. -1.80833320e-06 -4.30337514e-06 -7.25175414e-06
      -1.02617269e-05 -1.11806967e-05 -7.57672342e-06 -3.93481423e-06
      -3.32782952e-06 -5.08662697e-06 -5.58325610e-06 -8.56302995e-06
      -1.15117637e-05 -1.19719207e-05 -1.09280854e-05 -9.34936998e-06
      -5.75236891e-06 -1.65074687e-06 2.83835766e-06 8.29986493e-06
      1.15117637e-05 1.30016506e-05 1.24092039e-05 1.12677671e-05
      9.92602781e-06 7.77320292e-06 5.26128406e-06 2.83421400e-06
      8.85321072e-07 2.96461532e-21 2.96461532e-21 2.25694208e-07
      1.74913009e-06 3.86476586e-06 7.46698288e-06 1.12392545e-05
      1.28045567e-05 1.01108199e-05 5.21270704e-06 7.50091942e-07 0.
      -1.83122347e-06 -4.30337514e-06 -7.25175414e-06 -1.02617269e-05
      -1.11806967e-05 -7.57672342e-06 -3.93481423e-06 -3.32782952e-06
      -5.08662697e-06 -5.58325610e-06 -8.56302995e-06 -1.15117637e-05
      -1.15205330e-05 -9.98299038e-06 -7.50909521e-06 -2.76353308e-06
      1.77303104e-06 4.60460114e-06 8.44975148e-06 1.15117637e-05
      1.30016506e-05 1.19883935e-05 9.67919641e-06 7.09589767e-06
      4.14409669e-06 1.57948523e-06 7.16970987e-07 2.26477482e-07
      2.96461532e-21 2.96461532e-21 2.25694208e-07 1.74913009e-06
      3.86476586e-06 7.46698288e-06 1.12392545e-05 1.28045567e-05
      1.01108199e-05 5.21270704e-06 7.50091942e-07 0. -1.83122347e-06
      -4.30337514e-06 -7.25175414e-06 -1.02617269e-05 -1.11806967e-05
      -7.57672342e-06 -3.93481423e-06 -3.32782952e-06 -5.08662697e-06
      -5.58325610e-06 -8.56302995e-06 -1.15117637e-05 -1.03855227e-05
      -7.59478235e-06 -4.87893476e-06 -9.17935154e-07 2.79372853e-06
      5.09873371e-06 8.49092885e-06 1.15117637e-05 1.30016506e-05
      1.11604541e-05 7.25919108e-06 3.59230035e-06 1.61443984e-06
      2.14673022e-07 2.96461532e-21 2.96461532e-21 2.96461532e-21
      2.96461532e-21 2.25694208e-07 1.74913009e-06 3.86476586e-06
      7.46698288e-06 1.12392545e-05 1.28045567e-05 1.01108199e-05
      5.21270704e-06 7.50091942e-07 0. -1.80833320e-06 -4.30337514e-06
      -7.25175414e-06 -1.02617269e-05 -1.11806967e-05 -7.57672342e-06
      -3.93481423e-06 -3.32782952e-06 -5.08662697e-06 -5.30113812e-06
      -7.42045268e-06 -9.50872800e-06 -7.07743402e-06 -2.85453007e-06
      -7.20321282e-07 9.50916444e-07 2.88722254e-06 5.09873371e-06
      8.52196808e-06 1.02073845e-05 1.02033628e-05 7.63665685e-06
      3.81167615e-06 5.03016622e-07 2.96461532e-21 2.96461532e-21
      2.96461532e-21 2.96461532e-21 2.96461532e-21 2.96461532e-21
      2.25694208e-07 1.74913009e-06 3.86476586e-06 7.46698288e-06
      1.12186663e-05 1.28045567e-05 1.01644855e-05 5.40269457e-06
      1.01841761e-06 1.96772206e-07 -1.74178160e-06 -4.30337514e-06
      -7.25175414e-06 -1.02617269e-05 -1.11806967e-05 -7.57672342e-06
      -3.93481423e-06 -3.32782952e-06 -4.40954409e-06 -4.44971738e-06
      -6.01248485e-06 -7.54421308e-06 -5.49639935e-06 -1.71339912e-06 0.
      1.26731481e-06 2.89132868e-06 5.09873371e-06 8.49092885e-06
      9.09547089e-06 7.52009646e-06 4.59292187e-06 2.07095059e-06
      1.27631083e-07 2.96461532e-21 2.96461532e-21 2.96461532e-21
      2.96461532e-21 2.96461532e-21 2.96461532e-21 2.25694208e-07
      1.74913009e-06 3.86476586e-06 7.46698288e-06 1.12392545e-05
      1.28045567e-05 1.04417550e-05 6.20551191e-06 2.40476720e-06
      1.21640994e-06 -1.25379336e-06 -4.30337514e-06 -7.25175414e-06
      -1.02617269e-05 -1.11806967e-05 -7.57672342e-06 -3.93481423e-06
      -3.32782952e-06 -2.16670810e-06 -2.08314123e-06 -3.23198287e-06
      -4.34227786e-06 -3.48992103e-06 -1.08004690e-06 0. 9.56315148e-07
      2.22945869e-06 3.94617928e-06 7.37474738e-06 8.14329269e-06
      6.89695662e-06 4.12744384e-06 1.77064214e-06 2.96461532e-21
      2.96461532e-21 2.96461532e-21 2.96461532e-21 2.96461532e-21
      2.96461532e-21 2.96461532e-21 2.25694208e-07 1.74913009e-06
      3.86476586e-06 7.46698288e-06 1.12392545e-05 1.28045567e-05
      1.05401414e-05 6.49172625e-06 2.88775345e-06 1.56523345e-06
      -1.09279790e-06 -4.30337514e-06 -7.25175414e-06 -1.02617269e-05
      -1.11806967e-05 -7.57672342e-06 -3.93481423e-06 -3.32782952e-06
      -4.96602797e-06 -4.16623925e-06 -2.30558931e-06 -4.87783154e-07
      -6.17665876e-07 -1.64710897e-07 0. 5.44882312e-07 1.13861267e-06
      1.58167120e-06 4.48590254e-06 6.07026823e-06 6.12774738e-06
      4.02984324e-06 1.77064214e-06 2.96461532e-21 2.96461532e-21
      2.96461532e-21 2.96461532e-21 2.96461532e-21 2.96461532e-21
      2.96461532e-21 2.25694208e-07 1.74913009e-06 3.86476586e-06
      7.46698288e-06 1.12392545e-05 1.28045567e-05 1.05401414e-05
      6.52276549e-06 2.88775345e-06 1.56523345e-06 -1.12463249e-06
      -4.30337514e-06 -7.25175414e-06 -1.02617269e-05 -1.11806967e-05
      -7.57672342e-06 -3.93481423e-06 -3.32782952e-06 -9.26409848e-06
      -8.05840318e-06 -4.16120565e-06 -2.83320276e-07 0. 0. 0.
      5.51779578e-07 9.45236366e-07 9.83750510e-07 3.59073351e-06
      6.22599964e-06 6.70991994e-06 5.01785189e-06 3.53692940e-06
      2.46630862e-06 2.46630862e-06 2.46630862e-06 2.46630862e-06
      2.46630862e-06 2.46630862e-06 2.46630862e-06 2.67789687e-06
      4.10259145e-06 6.11948599e-06 8.96365418e-06 1.17597410e-05
      1.28045567e-05 1.05401414e-05 6.49172625e-06 2.88775345e-06
      1.56523345e-06 -1.00123680e-06 -4.02869182e-06 -6.59840543e-06
      -8.78710307e-06 -8.94008190e-06 -5.39760003e-06 -1.81718167e-06
      -1.22776567e-06 -7.14663838e-06 -6.20927631e-06 -3.21402354e-06
      -1.90674356e-07 0. 0. 1.64244849e-08 5.96946904e-07 1.25662802e-06
      2.38326174e-06 6.12091844e-06 9.56153144e-06 1.07015767e-05
      1.00968246e-05 9.97670122e-06 9.97670122e-06 9.97670122e-06
      9.97670122e-06 9.97670122e-06 9.97670122e-06 9.97670122e-06
      9.97670122e-06 1.00472307e-05 1.05268309e-05 1.13592932e-05
      1.21757075e-05 1.28347474e-05 1.28045567e-05 1.05401414e-05
      6.49862341e-06 2.88775345e-06 1.56523345e-06 1.43277916e-07
      -1.35052733e-06 -2.58655859e-06 -4.11088786e-06 -3.69009422e-06
      -7.36167522e-07 2.24691121e-06 2.64307050e-06 -2.10006397e-06
      -1.81181986e-06 -9.26498785e-07 -2.05888622e-08 0. 0.
      2.01199924e-07 7.50401455e-07 1.28760689e-06 2.32510138e-06
      6.64748950e-06 1.08824224e-05 1.30016506e-05 1.30016506e-05
      1.30016506e-05 1.30016506e-05 1.30016506e-05 1.30016506e-05
      1.30016506e-05 1.30016506e-05 1.30016506e-05 1.30016506e-05
      1.30016506e-05 1.30016506e-05 1.30016506e-05 1.29326781e-05
      1.25395354e-05 1.19424012e-05 9.68488348e-06 6.03650824e-06
      2.81878101e-06 1.56523345e-06 7.06591095e-07 0. -4.09070765e-07
      -1.45290653e-06 -6.65144626e-07 2.27999749e-06 5.27186057e-06
      5.66802009e-06 -6.18889260e-07 -5.32252898e-07 -2.64073378e-07
      -1.64827405e-08 0. 0. 1.60138725e-07 4.22930469e-07 6.15918168e-07
      1.36601011e-06 5.82862504e-06 1.04885830e-05 1.29195287e-05
      1.30016506e-05 1.30016506e-05 1.30016506e-05 1.30016506e-05
      1.30016506e-05 1.30016506e-05 1.30016506e-05 1.30016506e-05
      1.30016506e-05 1.30016506e-05 1.30016506e-05 1.30016506e-05
      1.27434741e-05 1.19006700e-05 1.10278070e-05 8.94406094e-06
      5.72613180e-06 2.77739764e-06 1.56523345e-06 7.15535293e-07 0.
      -4.23176658e-08 -1.26952997e-07 1.59936656e-06 5.32662398e-06
      9.09181745e-06 9.73871920e-06 2.02792216e-06 2.14893976e-06
      1.61131140e-06 1.02205490e-06 5.33795728e-08 1.64244849e-08 0. 0.
      0. 7.50091942e-07 5.24374627e-06 1.00738653e-05 1.27306466e-05
      1.29113159e-05 1.29113159e-05 1.29154223e-05 1.29564833e-05
      1.29934388e-05 1.30016506e-05 1.30016506e-05 1.29811206e-05
      1.29441651e-05 1.29113159e-05 1.29113159e-05 1.29113159e-05
      1.24765766e-05 1.14079348e-05 1.05268600e-05 8.70590611e-06
      5.75717149e-06 2.77739764e-06 1.56523345e-06 7.15535293e-07 0. 0.
      0. 1.83327302e-06 5.88481271e-06 9.97018287e-06 1.07208825e-05
      4.84029442e-06 4.75620163e-06 2.63804691e-06 5.46825504e-07
      -1.63196614e-06 -1.96866813e-06 -2.10006397e-06 -2.10006397e-06
      -2.10006397e-06 -1.44308990e-06 2.49185678e-06 6.48815785e-06
      8.84519341e-06 9.45317424e-06 1.00118814e-05 1.01706974e-05
      1.05115050e-05 1.08523136e-05 1.07522519e-05 1.05677791e-05
      1.08523836e-05 1.15813691e-05 1.22050633e-05 1.22050633e-05
      1.22050633e-05 1.19153610e-05 1.05877589e-05 9.31632712e-06
      7.49537276e-06 5.10534574e-06 2.68427971e-06 1.56523345e-06
      7.06591095e-07 0. -7.02752416e-08 -2.45963349e-07 1.39103258e-06
      4.53255643e-06 7.73671218e-06 8.19916659e-06 6.06769177e-08
      6.18691445e-08 -1.76220101e-06 -3.54628764e-06 -5.82796747e-06
      -6.27553482e-06 -6.44388592e-06 -6.44388592e-06 -6.44388592e-06
      -6.18674676e-06 -4.64391269e-06 -3.10797600e-06 -8.66644541e-07
      2.06003369e-06 5.01775139e-06 5.56408395e-06 5.81455743e-06
      6.06092453e-06 5.43904935e-06 4.66602160e-06 5.65463642e-06
      8.42137706e-06 1.07608639e-05 1.07608639e-05 1.11137260e-05
      1.10803530e-05 8.35752144e-06 5.31225623e-06 3.22297592e-06
      2.12761688e-06 1.03225796e-06 5.90316574e-07 2.68325721e-07 0.
      -6.59039870e-07 -1.91256117e-06 -1.24059159e-06 5.66762367e-07
      2.42853548e-06 2.45862452e-06 -7.03518936e-07 -7.01369629e-07
      -1.99147644e-06 -3.28158330e-06 -5.77802484e-06 -7.76179149e-06
